{"type":"LSTM","options":{"inputSize":32,"inputRange":32,"hiddenLayers":[20,20],"outputSize":32,"decayRate":0.999,"smoothEps":1e-8,"regc":0.000001,"clipval":5,"maxPredictionLength":100,"dataFormatter":{"values":["are you better than the older one","are you technoblade","correct","deez what sir","do you hate","dont miss them","he big brain","hello","hi","how are you","i big brain yes","i dont have a mom","i dont talk, i only send messages","im good","im not trained to hate anything/anyone","joe who sir","just a test.","my name is deez","not yet sadly","not yet, if you want an more polished company than me then `.chatbot old`","pls talk","search joe","sound good","sounds like something worked","test","the nuts","this is better","ur mom"],"indexTable":{"a":0,"r":1,"e":2," ":3,"y":4,"o":5,"u":6,"b":7,"t":8,"h":9,"n":10,"l":11,"d":12,"c":13,"z":14,"w":15,"s":16,"i":17,"m":18,"g":19,"v":20,"k":21,",":22,"/":23,"j":24,".":25,"f":26,"p":27,"`":28,"stop-input":29,"start-output":30,"unrecognized":31},"characterTable":{"0":"a","1":"r","2":"e","3":" ","4":"y","5":"o","6":"u","7":"b","8":"t","9":"h","10":"n","11":"l","12":"d","13":"c","14":"z","15":"w","16":"s","17":"i","18":"m","19":"g","20":"v","21":"k","22":",","23":"/","24":"j","25":".","26":"f","27":"p","28":"`","29":null,"30":null,"31":null},"characters":["a","r","e"," ","y","o","u","b","t","h","n","l","d","c","z","w","s","i","m","g","v","k",",","/","j",".","f","p","`","stop-input","start-output","unrecognized"],"specialIndexes":[29,30,31]}},"input":{"rows":33,"columns":32,"weights":{"0":0.047449517995119095,"1":0.21743756532669067,"2":-0.19291642308235168,"3":0.08286351710557938,"4":0.034667667001485825,"5":0.12302441895008087,"6":-0.26299217343330383,"7":0.07739314436912537,"8":0.07005240768194199,"9":-0.041976142674684525,"10":0.3481098413467407,"11":-0.024873442947864532,"12":-0.03427768871188164,"13":-0.04786257445812225,"14":0.47815442085266113,"15":0.2092287391424179,"16":-0.08034933358430862,"17":0.17379480600357056,"18":0.10510702431201935,"19":-0.11442072689533234,"20":-0.02034512348473072,"21":-0.2886917293071747,"22":-0.04705903306603432,"23":0.03571368381381035,"24":0.04967157170176506,"25":0.003579038893803954,"26":0.010814966633915901,"27":0.37264779210090637,"28":0.05948621779680252,"29":0.04185320436954498,"30":0.3736085593700409,"31":-0.20286624133586884,"32":-0.4712660312652588,"33":-0.1703399270772934,"34":-1.827993392944336,"35":0.060855571180582047,"36":-0.7263650298118591,"37":-0.06122434884309769,"38":0.5852031111717224,"39":-0.056764986366033554,"40":0.4100320339202881,"41":1.3282673358917236,"42":0.22481706738471985,"43":0.3415110111236572,"44":0.36731529235839844,"45":-0.08084999769926071,"46":0.012471172027289867,"47":0.30780425667762756,"48":-0.34105384349823,"49":0.003990506287664175,"50":0.23611551523208618,"51":-0.20936249196529388,"52":-0.3202822804450989,"53":0.7136589288711548,"54":0.34435662627220154,"55":-0.3972792327404022,"56":-0.29163727164268494,"57":-1.5863401889801025,"58":0.13762253522872925,"59":1.4246352910995483,"60":-0.19701385498046875,"61":0.7588778138160706,"62":0.7141742706298828,"63":-0.5465983152389526,"64":0.8265493512153625,"65":0.19415123760700226,"66":-1.5256177186965942,"67":1.049232840538025,"68":-0.49145442247390747,"69":-0.08934033662080765,"70":0.5096770524978638,"71":1.8865563869476318,"72":-0.024827608838677406,"73":-0.7599573135375977,"74":-0.29356545209884644,"75":0.49496471881866455,"76":-0.63100665807724,"77":1.2826887369155884,"78":-1.5328233242034912,"79":1.4971139430999756,"80":0.28452393412590027,"81":-1.1871871948242188,"82":-0.3709855377674103,"83":0.5245517492294312,"84":0.09377182275056839,"85":0.027827775105834007,"86":0.076664499938488,"87":1.6409589052200317,"88":0.6661184430122375,"89":0.2990902364253998,"90":0.5880095362663269,"91":1.5891743898391724,"92":1.1018739938735962,"93":-0.12150228768587112,"94":0.7012219429016113,"95":-1.2184439897537231,"96":-0.022274687886238098,"97":-0.16659964621067047,"98":0.12163221836090088,"99":0.12798240780830383,"100":-0.2516346275806427,"101":-0.5678689479827881,"102":-0.1562282294034958,"103":-0.3781020939350128,"104":-0.061494916677474976,"105":0.9276595711708069,"106":0.11656305193901062,"107":-0.08320575207471848,"108":-0.030779479071497917,"109":-1.102669596672058,"110":0.1715911328792572,"111":0.049703024327754974,"112":0.1413084715604782,"113":0.025497745722532272,"114":1.0177611112594604,"115":0.963371753692627,"116":0.27181801199913025,"117":0.5760366916656494,"118":0.4134875237941742,"119":-0.42083320021629333,"120":-0.045082446187734604,"121":0.5826061964035034,"122":-0.5985841155052185,"123":-1.3166323900222778,"124":-0.7989248633384705,"125":-0.03642502799630165,"126":0.20239762961864471,"127":-0.4605385959148407,"128":0.40048888325691223,"129":1.105411410331726,"130":0.023224111646413803,"131":0.26043975353240967,"132":-0.7878408432006836,"133":0.10583582520484924,"134":-1.0124258995056152,"135":1.106871247291565,"136":-0.5447999835014343,"137":-0.42199042439460754,"138":0.7248433232307434,"139":0.7699347734451294,"140":0.23388777673244476,"141":0.340208500623703,"142":0.2832426130771637,"143":0.05209827423095703,"144":0.11297272145748138,"145":0.3140593469142914,"146":0.8752269744873047,"147":0.3495465815067291,"148":-0.18471765518188477,"149":-0.9363479018211365,"150":2.1205995082855225,"151":0.6903318762779236,"152":-0.07910626381635666,"153":0.5357941389083862,"154":-1.3165562152862549,"155":0.016111992299556732,"156":0.8425378799438477,"157":0.20619651675224304,"158":1.5725634098052979,"159":0.04572951793670654,"160":-0.16142243146896362,"161":-2.235015630722046,"162":0.8459523916244507,"163":0.1647302210330963,"164":-0.033082664012908936,"165":-0.395815908908844,"166":1.3029961585998535,"167":-0.12235825508832932,"168":0.25270143151283264,"169":0.11400864273309708,"170":-1.1308213472366333,"171":-1.0451349020004272,"172":-0.14855119585990906,"173":0.5221388339996338,"174":-1.4809712171554565,"175":-0.3915427327156067,"176":0.36172598600387573,"177":0.1120612770318985,"178":0.20458684861660004,"179":0.3139835298061371,"180":0.21497859060764313,"181":0.7661662697792053,"182":-0.9276168346405029,"183":-0.594341516494751,"184":-0.7680531144142151,"185":-0.592453122138977,"186":1.080786108970642,"187":0.6959624290466309,"188":-0.7229450941085815,"189":-0.05083446204662323,"190":-0.14192764461040497,"191":-0.15306714177131653,"192":-0.295840859413147,"193":-0.8796257376670837,"194":-1.3829575777053833,"195":-0.31571459770202637,"196":-0.2603471279144287,"197":0.8485226631164551,"198":0.5058332085609436,"199":-0.39635372161865234,"200":0.5088868141174316,"201":1.5751937627792358,"202":0.4556630253791809,"203":0.34659937024116516,"204":0.19354286789894104,"205":-0.3247324824333191,"206":-0.3618156909942627,"207":0.2586934268474579,"208":-0.260120153427124,"209":-0.0013355592964217067,"210":0.03054097481071949,"211":-0.567363977432251,"212":-0.4401443600654602,"213":0.5865055322647095,"214":0.9268603920936584,"215":-0.3729020953178406,"216":0.02321460284292698,"217":-1.418858289718628,"218":0.27253925800323486,"219":0.9584507346153259,"220":0.03096313402056694,"221":0.7228395342826843,"222":0.887413501739502,"223":-0.5034300684928894,"224":0.7218821048736572,"225":-0.5229653716087341,"226":0.07017568498849869,"227":0.24303464591503143,"228":-0.3598915934562683,"229":-0.5108031630516052,"230":0.9102621674537659,"231":0.195672869682312,"232":-0.4114181399345398,"233":-0.6629570722579956,"234":-0.6846261620521545,"235":0.266489714384079,"236":-0.20804628729820251,"237":-0.696861982345581,"238":-0.5215937495231628,"239":-0.01626187190413475,"240":0.4852685332298279,"241":-1.2175230979919434,"242":-0.435899555683136,"243":-0.0037683798000216484,"244":-0.03168480098247528,"245":0.36299967765808105,"246":-0.41184741258621216,"247":0.039190977811813354,"248":0.07078763842582703,"249":-0.18447335064411163,"250":0.24016910791397095,"251":-0.07223980128765106,"252":0.8147567510604858,"253":-0.3814660906791687,"254":0.25188592076301575,"255":0.236141636967659,"256":-0.4841899871826172,"257":-0.44231757521629333,"258":-0.8787123560905457,"259":-0.2588198184967041,"260":-0.6721698045730591,"261":0.34153038263320923,"262":0.9018883109092712,"263":-0.4742525815963745,"264":0.5080965757369995,"265":0.5880565643310547,"266":-0.15937688946723938,"267":0.5034081935882568,"268":0.37612268328666687,"269":0.15201625227928162,"270":-0.69802325963974,"271":-0.5215613842010498,"272":-0.1958777904510498,"273":-0.2304631471633911,"274":-0.040745850652456284,"275":-0.07409839332103729,"276":-0.6335772275924683,"277":0.9603808522224426,"278":-0.09565220028162003,"279":-0.645676851272583,"280":-0.4222160279750824,"281":-0.6379072070121765,"282":0.109258733689785,"283":-0.31586459279060364,"284":-0.9163830876350403,"285":-0.006895833183079958,"286":-0.19026565551757812,"287":-0.04951303452253342,"288":-0.08648370951414108,"289":-0.7977027297019958,"290":1.2667943239212036,"291":0.25540515780448914,"292":0.7613287568092346,"293":-0.32086408138275146,"294":0.38384532928466797,"295":-0.6012529134750366,"296":0.6611477136611938,"297":0.5984351634979248,"298":-0.7487968802452087,"299":-1.0592362880706787,"300":-0.4635193943977356,"301":-0.7304049730300903,"302":-0.38893401622772217,"303":0.6924300193786621,"304":0.7905767560005188,"305":0.7494308352470398,"306":-0.43383926153182983,"307":0.39906173944473267,"308":0.38664549589157104,"309":0.5664801001548767,"310":-0.5817006826400757,"311":0.5812699794769287,"312":0.9000920653343201,"313":0.634090006351471,"314":0.3018812835216522,"315":-0.5211097598075867,"316":0.11449537426233292,"317":-0.8455515503883362,"318":-1.0388829708099365,"319":-0.6465548276901245,"320":0.16541092097759247,"321":-0.8009814023971558,"322":0.21543291211128235,"323":0.5981676578521729,"324":0.5967320799827576,"325":-0.93171626329422,"326":-0.354156494140625,"327":0.5240304470062256,"328":0.6631269454956055,"329":1.412164330482483,"330":-1.1873806715011597,"331":-0.9189231991767883,"332":-0.9848034381866455,"333":-1.2582521438598633,"334":-0.44332846999168396,"335":-0.5590149164199829,"336":0.9369922876358032,"337":0.4133839011192322,"338":-0.388386994600296,"339":2.035682201385498,"340":0.577608585357666,"341":-0.4590354263782501,"342":0.38516733050346375,"343":-0.5093264579772949,"344":0.07778630405664444,"345":1.4988840818405151,"346":-0.08704978227615356,"347":-0.8420513868331909,"348":-0.45470020174980164,"349":-0.6980557441711426,"350":-0.870724618434906,"351":-1.583162546157837,"352":-0.9993726015090942,"353":-0.14918000996112823,"354":-0.027621321380138397,"355":-1.122566819190979,"356":0.10283655673265457,"357":0.2287404090166092,"358":1.2503606081008911,"359":-1.0511791706085205,"360":-0.5011125802993774,"361":0.5758386254310608,"362":-0.37932050228118896,"363":0.3488365709781647,"364":0.2427339404821396,"365":-0.7630234360694885,"366":-0.9358938932418823,"367":-0.6334958076477051,"368":-1.2510323524475098,"369":0.8451372385025024,"370":1.032112956047058,"371":-0.865663468837738,"372":-0.5314202308654785,"373":2.119940757751465,"374":-0.3639965355396271,"375":0.7938367128372192,"376":-0.8250840306282043,"377":-0.11260412633419037,"378":0.3751263916492462,"379":-1.0873733758926392,"380":-2.0710959434509277,"381":0.7088375687599182,"382":-0.6713731288909912,"383":0.5169890522956848,"384":0.5111545324325562,"385":0.9477033615112305,"386":0.17747889459133148,"387":0.5878274440765381,"388":-0.9165191650390625,"389":-0.24209536612033844,"390":-0.32774946093559265,"391":0.9077390432357788,"392":-0.7631045579910278,"393":-1.1816692352294922,"394":0.31556054949760437,"395":0.574036180973053,"396":0.08215513080358505,"397":0.25068309903144836,"398":-0.047070588916540146,"399":-0.1904517114162445,"400":-0.38115572929382324,"401":-0.8126457333564758,"402":0.9180365204811096,"403":0.4068608283996582,"404":-0.02734978124499321,"405":-0.043613459914922714,"406":0.22944974899291992,"407":0.9105697870254517,"408":-0.6502054929733276,"409":-0.12229031324386597,"410":-0.5855574011802673,"411":-0.11333809792995453,"412":0.2719261348247528,"413":-0.006428832653909922,"414":1.6543810367584229,"415":-0.00453202472999692,"416":2.1268818378448486,"417":-0.1217283084988594,"418":1.8711657524108887,"419":1.8324130773544312,"420":1.4283168315887451,"421":-1.453277587890625,"422":-0.09234557300806046,"423":0.8062552809715271,"424":-1.1191803216934204,"425":-1.0426093339920044,"426":-0.520375669002533,"427":0.7363492250442505,"428":-1.862062692642212,"429":-0.27549782395362854,"430":-0.24282748997211456,"431":-0.338216632604599,"432":0.18314290046691895,"433":0.050979070365428925,"434":-0.20449867844581604,"435":1.3281930685043335,"436":2.1258385181427,"437":-0.0820617526769638,"438":-0.12055283784866333,"439":0.15893708169460297,"440":0.6955175995826721,"441":1.0059293508529663,"442":-0.15354275703430176,"443":-1.4032671451568604,"444":0.7663660049438477,"445":-1.676931381225586,"446":-0.939728319644928,"447":-0.865241527557373,"448":-0.20765012502670288,"449":-1.0463007688522339,"450":2.387791156768799,"451":-0.3547182083129883,"452":0.7218129634857178,"453":0.039655476808547974,"454":0.08273697644472122,"455":-0.7314854860305786,"456":0.007749884855002165,"457":-0.8249273300170898,"458":-0.5455886125564575,"459":-0.7128130793571472,"460":0.09152709692716599,"461":0.8828217387199402,"462":-1.8932087421417236,"463":-0.1624397486448288,"464":0.0995330885052681,"465":0.5523368120193481,"466":-0.9214420914649963,"467":-0.586353600025177,"468":0.03850230202078819,"469":0.7002683877944946,"470":-2.624948263168335,"471":-0.30661526322364807,"472":-0.3801724910736084,"473":-0.4275515377521515,"474":2.3445065021514893,"475":1.0200080871582031,"476":-0.026878345757722855,"477":0.1102723479270935,"478":-1.3032197952270508,"479":0.6967028379440308,"480":1.5517231225967407,"481":1.4083019495010376,"482":3.261577606201172,"483":0.9266831874847412,"484":0.974485456943512,"485":-1.9641658067703247,"486":1.2317066192626953,"487":-1.680001139640808,"488":0.8509236574172974,"489":-1.0640819072723389,"490":-2.678284168243408,"491":-2.9676928520202637,"492":-1.2355793714523315,"493":0.10692550241947174,"494":-1.9897925853729248,"495":1.1161994934082031,"496":1.2374459505081177,"497":1.4566328525543213,"498":-1.8260749578475952,"499":0.14642636477947235,"500":0.26030680537223816,"501":0.8806109428405762,"502":-0.6177085041999817,"503":0.4115324318408966,"504":-0.2165432721376419,"505":5.15004825592041,"506":-2.2140002250671387,"507":-4.782186985015869,"508":1.2316800355911255,"509":-4.830136299133301,"510":2.7633891105651855,"511":0.7472593784332275,"512":0.18331848084926605,"513":0.6727362871170044,"514":0.44334298372268677,"515":0.6247891783714294,"516":-0.03445444256067276,"517":-0.05574777349829674,"518":-0.6746019124984741,"519":0.9614142179489136,"520":1.2454880475997925,"521":0.3075786530971527,"522":0.27086830139160156,"523":-0.8665198683738708,"524":-0.5068418979644775,"525":0.7422258257865906,"526":0.3179541528224945,"527":1.2670292854309082,"528":0.31037458777427673,"529":-0.04270748049020767,"530":0.529434084892273,"531":1.7341442108154297,"532":0.5078915953636169,"533":-0.3320627212524414,"534":-0.09556465595960617,"535":-0.1932801455259323,"536":1.0254462957382202,"537":0.9819286465644836,"538":-0.06610507518053055,"539":-1.1496597528457642,"540":0.46384572982788086,"541":-0.9295039772987366,"542":-0.7906074523925781,"543":-1.4772429466247559,"544":-0.2208249419927597,"545":0.29281994700431824,"546":0.20474407076835632,"547":-0.7230927348136902,"548":-0.07486546039581299,"549":0.2690051198005676,"550":0.5441317558288574,"551":-0.5630080103874207,"552":-0.20167118310928345,"553":0.30859148502349854,"554":-0.29795539379119873,"555":0.14536142349243164,"556":-0.04473629593849182,"557":-0.8490203619003296,"558":-0.5810260772705078,"559":0.4611906111240387,"560":-0.5665228962898254,"561":0.610572099685669,"562":-0.20988792181015015,"563":-0.7008192539215088,"564":-0.3615145981311798,"565":-0.07048418372869492,"566":-0.19470684230327606,"567":0.611051619052887,"568":0.7153820395469666,"569":0.1079096794128418,"570":0.18626800179481506,"571":-0.9714879393577576,"572":-0.31533902883529663,"573":-0.14495934545993805,"574":-1.1101163625717163,"575":-0.21727709472179413,"576":0.06595739722251892,"577":0.6892404556274414,"578":0.059291377663612366,"579":0.11723804473876953,"580":-0.39196744561195374,"581":0.020500460639595985,"582":-1.0771814584732056,"583":0.33618104457855225,"584":-0.8171079158782959,"585":0.10484540462493896,"586":0.15023663640022278,"587":0.6857232451438904,"588":0.47520408034324646,"589":-0.3911166191101074,"590":0.6745604276657104,"591":-0.3513816297054291,"592":-0.20245124399662018,"593":-0.2638121545314789,"594":0.40444138646125793,"595":0.3926699161529541,"596":-0.20084789395332336,"597":-0.8735218644142151,"598":0.44828376173973083,"599":-0.20379143953323364,"600":-0.20539051294326782,"601":0.17736966907978058,"602":-0.7096362113952637,"603":-0.09051485359668732,"604":-0.7902762293815613,"605":-0.025571243837475777,"606":0.28668615221977234,"607":0.1585277020931244,"608":-0.9116939902305603,"609":-2.842790126800537,"610":0.9330949783325195,"611":-0.8357800841331482,"612":0.5415701866149902,"613":0.3129342496395111,"614":1.3806909322738647,"615":-0.8010786175727844,"616":0.1403810679912567,"617":-0.1897343099117279,"618":-1.3350322246551514,"619":-0.6380202174186707,"620":0.023563919588923454,"621":1.0358027219772339,"622":-1.4549129009246826,"623":-0.039710961282253265,"624":-0.5458963513374329,"625":0.6778303980827332,"626":-0.5259863138198853,"627":-1.3078352212905884,"628":-0.7531914710998535,"629":0.9016537070274353,"630":-2.2774031162261963,"631":-0.5798256993293762,"632":-1.099105954170227,"633":-1.2337566614151,"634":2.5349087715148926,"635":0.9028035998344421,"636":-0.7036567330360413,"637":0.4964430630207062,"638":-1.9638701677322388,"639":1.0497039556503296,"640":-1.0257289409637451,"641":0.2374761998653412,"642":-0.9065372347831726,"643":0.004963441751897335,"644":-0.15062257647514343,"645":0.2735627293586731,"646":1.0698226690292358,"647":-0.973831057548523,"648":0.5892758965492249,"649":0.5127243399620056,"650":-0.41701602935791016,"651":0.3398398160934448,"652":0.1977674514055252,"653":-0.013574142940342426,"654":-1.0172404050827026,"655":1.015213966369629,"656":-1.007585048675537,"657":-0.018013987690210342,"658":-0.5513594746589661,"659":-1.3482491970062256,"660":-0.08493586629629135,"661":1.2541987895965576,"662":1.3766639232635498,"663":1.740352988243103,"664":1.2624609470367432,"665":-1.726742148399353,"666":0.7711430191993713,"667":-0.5846536159515381,"668":0.5974506139755249,"669":-0.06370065361261368,"670":0.7303652167320251,"671":-1.058058261871338,"672":1.329514503479004,"673":-3.240699291229248,"674":-0.4655519127845764,"675":4.196962356567383,"676":-0.4611162543296814,"677":0.9055019617080688,"678":2.403435468673706,"679":0.9898829460144043,"680":-0.3107607960700989,"681":1.6261231899261475,"682":-1.0852975845336914,"683":-0.7681306004524231,"684":-0.9379475712776184,"685":-1.4616788625717163,"686":-1.0792230367660522,"687":-0.47736918926239014,"688":1.2973355054855347,"689":-2.2192907333374023,"690":1.0330344438552856,"691":1.0780029296875,"692":0.8430720567703247,"693":0.8698940873146057,"694":-0.1405543088912964,"695":-0.6891651749610901,"696":-0.9296953082084656,"697":-1.586375117301941,"698":1.550704002380371,"699":0.8876087069511414,"700":-0.8383829593658447,"701":-2.4531073570251465,"702":2.7141475677490234,"703":-0.5900682806968689,"704":0.08845840394496918,"705":0.32392826676368713,"706":-0.8331955671310425,"707":0.449320524930954,"708":-0.8321372270584106,"709":0.039101630449295044,"710":0.043788667768239975,"711":0.7024269700050354,"712":-0.4609413146972656,"713":-0.49947765469551086,"714":0.2902264893054962,"715":0.5923721194267273,"716":0.23333093523979187,"717":0.5639167428016663,"718":0.24912838637828827,"719":-0.44893303513526917,"720":-0.28117620944976807,"721":-0.6780619621276855,"722":0.4741452932357788,"723":0.718630850315094,"724":-0.158547043800354,"725":-0.6266618967056274,"726":1.3079297542572021,"727":0.7505048513412476,"728":-0.10026992857456207,"729":-0.30692732334136963,"730":-0.6280679702758789,"731":0.3140209913253784,"732":0.07411397248506546,"733":-0.24751007556915283,"734":1.6244730949401855,"735":-0.0873987004160881,"736":0.18337087333202362,"737":0.1755044162273407,"738":0.45280829071998596,"739":0.19174763560295105,"740":-0.20508332550525665,"741":-2.121494770050049,"742":0.9729786515235901,"743":-0.30485740303993225,"744":0.29681825637817383,"745":0.04084277153015137,"746":-1.6454875469207764,"747":-0.7902539372444153,"748":-0.3294156789779663,"749":0.2467227578163147,"750":-1.570393443107605,"751":1.8800944089889526,"752":0.24398796260356903,"753":-1.6803616285324097,"754":0.019751539453864098,"755":1.8227242231369019,"756":0.4630684554576874,"757":2.1649837493896484,"758":1.8062809705734253,"759":-0.30082789063453674,"760":2.2158987522125244,"761":2.733654499053955,"762":-0.023120291531085968,"763":-2.6819674968719482,"764":1.6232385635375977,"765":-0.5653595924377441,"766":0.24664092063903809,"767":-1.1864852905273438,"768":-0.6916614770889282,"769":-2.159168004989624,"770":-0.36909598112106323,"771":-0.6919831037521362,"772":-0.8863515257835388,"773":-2.3058223724365234,"774":2.3765623569488525,"775":-3.2208099365234375,"776":-0.8154330253601074,"777":3.368103265762329,"778":-2.134645700454712,"779":-0.011315004900097847,"780":-1.0253229141235352,"781":0.47963225841522217,"782":-1.7573578357696533,"783":-1.8666651248931885,"784":-1.139124870300293,"785":-3.6489033699035645,"786":0.7620651125907898,"787":0.030894087627530098,"788":0.7698642015457153,"789":4.412113189697266,"790":-1.1805341243743896,"791":-2.486516237258911,"792":-2.024040699005127,"793":-3.93803334236145,"794":1.253570556640625,"795":-2.509995460510254,"796":-4.431836128234863,"797":-1.7457404136657715,"798":-2.9232354164123535,"799":1.04926598072052,"800":3.2648282051086426,"801":-0.5135661363601685,"802":0.6852888464927673,"803":3.3878133296966553,"804":0.9352977871894836,"805":-0.444839209318161,"806":-0.246941938996315,"807":0.8266439437866211,"808":0.9025663137435913,"809":-1.1517648696899414,"810":-0.5641646981239319,"811":-1.7704890966415405,"812":-0.4866417646408081,"813":1.9584424495697021,"814":0.32208725810050964,"815":0.8971740007400513,"816":1.7399471998214722,"817":0.44751638174057007,"818":-2.5466248989105225,"819":1.0537656545639038,"820":3.012591600418091,"821":-0.8616395592689514,"822":-0.4669889807701111,"823":2.38490629196167,"824":2.1450247764587402,"825":0.5070841312408447,"826":0.6380465030670166,"827":0.3113844394683838,"828":1.8040764331817627,"829":-4.363505840301514,"830":-0.5209468603134155,"831":-1.1648136377334595,"832":0.7806171178817749,"833":-0.08799226582050323,"834":3.9051835536956787,"835":2.39007568359375,"836":2.59088397026062,"837":-0.6782016158103943,"838":-3.214116334915161,"839":0.06202666088938713,"840":0.9811013340950012,"841":-2.0364179611206055,"842":-0.4605124592781067,"843":-6.548704147338867,"844":-1.4892606735229492,"845":1.7449369430541992,"846":0.4960300922393799,"847":0.8852189183235168,"848":1.600746750831604,"849":-0.041990552097558975,"850":-2.2294416427612305,"851":0.9203388094902039,"852":3.2014882564544678,"853":-0.920638918876648,"854":-1.021752119064331,"855":2.875966787338257,"856":-1.3190382719039917,"857":2.1231496334075928,"858":2.266756772994995,"859":0.7547857165336609,"860":0.6069803237915039,"861":-3.0974040031433105,"862":-1.8010711669921875,"863":-0.6631678938865662,"864":-0.2839544117450714,"865":1.1460691690444946,"866":2.2996068000793457,"867":0.6184954643249512,"868":-0.07150418311357498,"869":-1.1274923086166382,"870":0.5793910026550293,"871":1.6800898313522339,"872":-0.8537334203720093,"873":-1.0021661520004272,"874":-0.9127846956253052,"875":1.032569408416748,"876":0.9051058292388916,"877":0.3935927748680115,"878":0.021624388173222542,"879":0.3517512381076813,"880":0.2882338762283325,"881":-0.32532474398612976,"882":-0.8931040167808533,"883":0.3792891204357147,"884":-0.783933162689209,"885":-0.04897439479827881,"886":-2.325153112411499,"887":2.1616568565368652,"888":-0.9972596764564514,"889":0.445700466632843,"890":-0.7321097254753113,"891":-1.5377389192581177,"892":0.9929015636444092,"893":-0.9317919015884399,"894":-0.8654064536094666,"895":0.681891679763794,"896":0.13767975568771362,"897":-0.2717049717903137,"898":-0.7485993504524231,"899":0.540919840335846,"900":1.714005470275879,"901":-0.11172069609165192,"902":0.18617749214172363,"903":1.1665287017822266,"904":3.266364574432373,"905":-0.7273815274238586,"906":-0.4118102788925171,"907":-0.5039581060409546,"908":-0.48117750883102417,"909":2.764622449874878,"910":-0.663665235042572,"911":1.6032941341400146,"912":-0.12558726966381073,"913":0.8023831248283386,"914":-2.5736517906188965,"915":0.5910369753837585,"916":0.5176846981048584,"917":0.2153090387582779,"918":-1.065401554107666,"919":0.5112261176109314,"920":1.1390957832336426,"921":0.05767088383436203,"922":1.3027517795562744,"923":-0.24080365896224976,"924":0.563893735408783,"925":0.918732762336731,"926":-0.9233391880989075,"927":-1.1440067291259766,"928":-0.13032755255699158,"929":-0.6338983774185181,"930":-6.014013767242432,"931":-0.6621816158294678,"932":-2.8190841674804688,"933":-1.4653668403625488,"934":1.2978534698486328,"935":0.17518523335456848,"936":-0.7848621606826782,"937":-0.2345295548439026,"938":-2.8145265579223633,"939":2.029416084289551,"940":0.36258751153945923,"941":-4.451591968536377,"942":-1.2708603143692017,"943":-1.5197745561599731,"944":-1.2707998752593994,"945":-0.7086687684059143,"946":-0.7336521148681641,"947":-1.006348729133606,"948":-1.2536438703536987,"949":1.1390204429626465,"950":2.0134005546569824,"951":1.8151880502700806,"952":-2.32258939743042,"953":-1.708418369293213,"954":-0.42340087890625,"955":1.6667486429214478,"956":-0.5446993112564087,"957":3.280625104904175,"958":1.8900107145309448,"959":-0.25007808208465576,"960":-0.9915840029716492,"961":-0.5382275581359863,"962":-2.8429324626922607,"963":-1.4098198413848877,"964":-1.2099997997283936,"965":-0.07356046140193939,"966":0.7354361414909363,"967":-1.5504918098449707,"968":-0.5764899253845215,"969":1.1477667093276978,"970":-0.2237350046634674,"971":0.997847318649292,"972":0.6013456583023071,"973":-1.2306822538375854,"974":-0.16314996778964996,"975":-1.8684173822402954,"976":-0.8753534555435181,"977":-1.2507164478302002,"978":0.25041070580482483,"979":-1.7037631273269653,"980":-1.0531617403030396,"981":0.6961311101913452,"982":0.5044189691543579,"983":-1.4996485710144043,"984":-2.228470802307129,"985":-2.532902717590332,"986":-0.02756381221115589,"987":1.1628673076629639,"988":-1.9978055953979492,"989":1.3171907663345337,"990":1.0883909463882446,"991":1.0201362371444702,"992":0.15096043050289154,"993":0.21642574667930603,"994":-0.9789232611656189,"995":0.16336023807525635,"996":-0.5131466388702393,"997":-0.23108074069023132,"998":0.16865243017673492,"999":0.3776599168777466,"1000":-0.03333186358213425,"1001":0.45846521854400635,"1002":0.14731955528259277,"1003":0.26191890239715576,"1004":0.07824093848466873,"1005":0.14118194580078125,"1006":-0.03225688636302948,"1007":0.08921290189027786,"1008":-0.11788295954465866,"1009":-0.44027799367904663,"1010":0.14226019382476807,"1011":0.08763826638460159,"1012":-0.21797148883342743,"1013":0.6280481219291687,"1014":0.13407880067825317,"1015":-0.3626271188259125,"1016":-0.3718698024749756,"1017":-0.5153073072433472,"1018":-0.04710393399000168,"1019":0.2368643581867218,"1020":-0.29828009009361267,"1021":0.28473448753356934,"1022":0.48789405822753906,"1023":-0.04713837429881096,"1024":0.0454159751534462,"1025":0.028088990598917007,"1026":-0.031943920999765396,"1027":0.03763251379132271,"1028":-0.07132899016141891,"1029":-0.07501004636287689,"1030":-0.06206343322992325,"1031":0.06030604615807533,"1032":-0.03010687418282032,"1033":-0.022020336240530014,"1034":-0.016004187986254692,"1035":-0.011677106842398643,"1036":0.004788531456142664,"1037":0.068447045981884,"1038":0.05013468489050865,"1039":0.06816478818655014,"1040":-0.0004409543180372566,"1041":-0.017171038314700127,"1042":0.046967923641204834,"1043":0.004311916418373585,"1044":-0.013313738629221916,"1045":0.03058192878961563,"1046":0.04220173880457878,"1047":-0.05093827098608017,"1048":-0.02682143822312355,"1049":-0.07092199474573135,"1050":0.058378975838422775,"1051":0.0066981869749724865,"1052":0.00902844313532114,"1053":-0.02244410291314125,"1054":0.011968790553510189,"1055":0.017398515716195107}},"hiddenLayers":[{"inputMatrix":{"rows":20,"columns":32,"weights":{"0":-0.17544777691364288,"1":-0.11667156964540482,"2":0.17529445886611938,"3":0.5633107423782349,"4":-0.17482323944568634,"5":-0.7598147988319397,"6":0.6392231583595276,"7":0.41320788860321045,"8":0.19574964046478271,"9":-0.25393128395080566,"10":-0.736218273639679,"11":-0.2054852843284607,"12":-0.25912636518478394,"13":0.5837648510932922,"14":-0.7664965987205505,"15":0.18205852806568146,"16":-0.2545605003833771,"17":-0.35969462990760803,"18":0.058314673602581024,"19":0.26297760009765625,"20":0.5438054203987122,"21":0.5237454771995544,"22":-0.10132138431072235,"23":0.3026770353317261,"24":0.24257983267307281,"25":-0.03053830936551094,"26":0.6231655478477478,"27":-0.25149473547935486,"28":-0.15958593785762787,"29":-0.4727780520915985,"30":-0.008009662851691246,"31":-0.2944570779800415,"32":0.4803939461708069,"33":-0.9157320261001587,"34":-0.632226824760437,"35":0.2851879894733429,"36":-0.46394696831703186,"37":-0.3701878786087036,"38":1.293679118156433,"39":0.3032127022743225,"40":0.06314429640769958,"41":0.489189088344574,"42":-1.1970018148422241,"43":0.3899787366390228,"44":-0.16100569069385529,"45":0.02084983140230179,"46":-1.9027245044708252,"47":-0.3617374300956726,"48":-0.06465692818164825,"49":-0.44509708881378174,"50":-0.505183756351471,"51":0.3311602473258972,"52":-0.20536838471889496,"53":0.6675916314125061,"54":-0.8958428502082825,"55":-0.12463138997554779,"56":0.04139047861099243,"57":-0.6517390608787537,"58":0.253761887550354,"59":-0.6968011856079102,"60":-0.2889208495616913,"61":-0.2587451934814453,"62":-0.985514223575592,"63":-0.9865294098854065,"64":-0.25447964668273926,"65":-0.8129790425300598,"66":-0.17737585306167603,"67":-0.25539010763168335,"68":0.09047340601682663,"69":-0.08000828325748444,"70":1.000311255455017,"71":-0.09866824746131897,"72":0.3455224335193634,"73":0.17093491554260254,"74":-0.42066478729248047,"75":0.049618981778621674,"76":-0.04082893952727318,"77":-0.019632039591670036,"78":-0.6120166182518005,"79":0.2846842408180237,"80":-0.03898297995328903,"81":0.1133476197719574,"82":-0.1925262063741684,"83":-0.205967977643013,"84":-0.24645237624645233,"85":0.6745814085006714,"86":-0.08972315490245819,"87":0.08336540311574936,"88":-0.11594855040311813,"89":-0.3802928924560547,"90":0.3006601929664612,"91":0.004097611177712679,"92":0.06493940204381943,"93":0.35197409987449646,"94":0.010417953133583069,"95":0.052100520581007004,"96":-0.09005694091320038,"97":-0.24536213278770447,"98":-0.01696704514324665,"99":-0.1065216138958931,"100":0.377824068069458,"101":-0.4916786253452301,"102":0.18690179288387299,"103":-0.10625967383384705,"104":0.29817816615104675,"105":0.22238418459892273,"106":-0.8509259819984436,"107":-0.3184881806373596,"108":-0.35798513889312744,"109":0.05136946216225624,"110":-0.553345263004303,"111":0.12082410603761673,"112":0.1143864095211029,"113":-0.15754422545433044,"114":-0.33274978399276733,"115":0.07898439466953278,"116":0.2253187745809555,"117":0.258008748292923,"118":-0.0715077668428421,"119":-0.1041739284992218,"120":0.1891554892063141,"121":-0.003132539801299572,"122":0.49098536372184753,"123":-0.3004830777645111,"124":-0.3087438642978668,"125":-0.34770655632019043,"126":-0.2069515734910965,"127":-0.289654016494751,"128":0.06769449263811111,"129":-0.735947847366333,"130":0.05887824669480324,"131":0.31215938925743103,"132":0.23352909088134766,"133":-0.1303458958864212,"134":0.6902278065681458,"135":0.2600761950016022,"136":0.5851384401321411,"137":-0.2997313439846039,"138":-0.49215927720069885,"139":-0.4367968738079071,"140":-0.4044508635997772,"141":0.411616712808609,"142":-0.607631504535675,"143":0.7463639974594116,"144":0.08705955743789673,"145":-0.007106623612344265,"146":-0.6072352528572083,"147":0.013929357752203941,"148":0.5918733477592468,"149":0.49874383211135864,"150":-0.2829907238483429,"151":0.40057772397994995,"152":0.7346925139427185,"153":-0.2807350158691406,"154":0.7237046360969543,"155":-0.015149242244660854,"156":0.11864863336086273,"157":-0.5481629371643066,"158":-0.391322523355484,"159":-0.8832067847251892,"160":-0.07737389206886292,"161":-0.11517415195703506,"162":-0.17576910555362701,"163":0.20040231943130493,"164":-0.23513539135456085,"165":-0.6344952583312988,"166":0.595486581325531,"167":0.1784868985414505,"168":-0.03407246246933937,"169":0.2156047821044922,"170":-0.486608624458313,"171":0.06865555047988892,"172":-0.06733275204896927,"173":-0.23432976007461548,"174":-0.32490435242652893,"175":-0.10650960355997086,"176":0.26503682136535645,"177":-0.4218830466270447,"178":0.11435370147228241,"179":0.28710904717445374,"180":-0.022710438817739487,"181":0.6179538369178772,"182":0.30963099002838135,"183":0.07653270661830902,"184":0.03271939978003502,"185":0.1361527293920517,"186":-0.2623607814311981,"187":-0.44019201397895813,"188":-0.13600091636180878,"189":-0.278159499168396,"190":0.17707881331443787,"191":-0.14229720830917358,"192":0.18113914132118225,"193":-0.07883593440055847,"194":-0.2558653950691223,"195":-0.01273504737764597,"196":-0.07184768468141556,"197":-0.016565602272748947,"198":0.42861121892929077,"199":-0.08695953339338303,"200":0.052764371037483215,"201":-0.19547538459300995,"202":0.1963457316160202,"203":0.11435038596391678,"204":0.056047774851322174,"205":0.025936469435691833,"206":0.02116994559764862,"207":0.22745749354362488,"208":-0.43503230810165405,"209":0.2578207552433014,"210":0.03615850582718849,"211":-0.4728991389274597,"212":0.012590021826326847,"213":0.5110615491867065,"214":0.2231951653957367,"215":0.3618096709251404,"216":0.017903950065374374,"217":-0.4226784110069275,"218":0.06817817687988281,"219":0.33865687251091003,"220":0.06416276842355728,"221":0.13956813514232635,"222":0.3906101584434509,"223":0.07386917620897293,"224":0.3001893162727356,"225":-0.4572860598564148,"226":-0.17256620526313782,"227":0.34460967779159546,"228":-0.1052691712975502,"229":-0.54844069480896,"230":0.7855175733566284,"231":0.3930894434452057,"232":0.409685343503952,"233":0.4489973187446594,"234":-0.31574708223342896,"235":-0.1183769553899765,"236":-0.5405091047286987,"237":0.2798462510108948,"238":-1.114066243171692,"239":0.15218347311019897,"240":-0.09698431938886642,"241":-0.20515283942222595,"242":0.2760950028896332,"243":0.47740069031715393,"244":0.21774530410766602,"245":0.8598493933677673,"246":0.15419147908687592,"247":-0.089817114174366,"248":0.03360762819647789,"249":-0.17796604335308075,"250":0.4639674723148346,"251":-0.6149300336837769,"252":-0.21635377407073975,"253":-0.08211157470941544,"254":0.00489920424297452,"255":-0.9455415606498718,"256":0.2718188762664795,"257":-0.7645882368087769,"258":-0.017022691667079926,"259":0.46909353137016296,"260":0.2939201593399048,"261":-0.23492096364498138,"262":0.4756565988063812,"263":0.2807895243167877,"264":0.7592760324478149,"265":0.19264334440231323,"266":-0.596653401851654,"267":-0.6078885197639465,"268":-0.5212063789367676,"269":0.3555963933467865,"270":-0.7408475875854492,"271":0.20954330265522003,"272":0.386554092168808,"273":0.013937666080892086,"274":-0.3646446466445923,"275":0.16740889847278595,"276":0.39207854866981506,"277":0.3141731917858124,"278":0.10955255478620529,"279":-0.17304717004299164,"280":0.36328577995300293,"281":0.023722033947706223,"282":0.7227170467376709,"283":-0.09547310322523117,"284":-0.11508852243423462,"285":-0.5398516058921814,"286":-0.16040678322315216,"287":-0.9596678018569946,"288":-0.032345883548259735,"289":-0.8030098676681519,"290":-0.19839219748973846,"291":-0.17977599799633026,"292":0.14662837982177734,"293":-0.13923758268356323,"294":0.789230465888977,"295":-0.15606120228767395,"296":0.058622170239686966,"297":-0.0689416155219078,"298":-0.4323662221431732,"299":-0.07445982098579407,"300":0.112699493765831,"301":0.1333470344543457,"302":-0.5110662579536438,"303":-0.1383451372385025,"304":0.13391411304473877,"305":0.25996893644332886,"306":-0.4620811641216278,"307":-0.21309147775173187,"308":-0.14856913685798645,"309":0.7381308078765869,"310":-0.023748088628053665,"311":0.12818779051303864,"312":-0.10677126795053482,"313":-0.24426573514938354,"314":0.27798303961753845,"315":0.2851523756980896,"316":-0.030166562646627426,"317":0.21237730979919434,"318":0.08739756047725677,"319":0.2105926126241684,"320":0.1533842235803604,"321":-0.5387966632843018,"322":-0.32335370779037476,"323":0.2808009088039398,"324":-0.148424431681633,"325":-0.6512064337730408,"326":1.2018972635269165,"327":0.09295469522476196,"328":0.21116119623184204,"329":0.5213927030563354,"330":-0.6010071039199829,"331":-0.21250301599502563,"332":-0.2667810022830963,"333":-0.2948351800441742,"334":-0.44969886541366577,"335":0.05870546028017998,"336":0.03994075953960419,"337":-0.5907914042472839,"338":0.27187231183052063,"339":0.1634850651025772,"340":0.21623985469341278,"341":0.9639835953712463,"342":0.23488043248653412,"343":0.13273979723453522,"344":-0.16791383922100067,"345":-0.38412755727767944,"346":-0.05105077847838402,"347":-0.3819899260997772,"348":-0.10758788138628006,"349":0.15433259308338165,"350":0.22622519731521606,"351":-0.27597564458847046,"352":0.22024458646774292,"353":-0.5788995027542114,"354":0.21435554325580597,"355":0.12293179333209991,"356":1.0927670001983643,"357":0.17162223160266876,"358":0.07865091413259506,"359":0.18589411675930023,"360":0.745654821395874,"361":0.10351698845624924,"362":-0.3474733531475067,"363":-1.0203781127929688,"364":-0.7032790780067444,"365":0.38985058665275574,"366":-0.3928054869174957,"367":0.039884887635707855,"368":0.6177698373794556,"369":-0.17740030586719513,"370":-0.5713980793952942,"371":0.0040873074904084206,"372":0.7534433603286743,"373":0.21575255692005157,"374":0.20086245238780975,"375":0.009671512059867382,"376":0.13872705399990082,"377":0.12189723551273346,"378":0.7306579947471619,"379":-0.31587088108062744,"380":-0.1566871851682663,"381":-0.42776310443878174,"382":-0.09056182950735092,"383":-0.7408763766288757,"384":-0.48423269391059875,"385":0.5606091618537903,"386":-0.9508123397827148,"387":-0.15006858110427856,"388":-0.43612614274024963,"389":-0.827469527721405,"390":0.09364234656095505,"391":-0.051083073019981384,"392":0.37665387988090515,"393":0.2823040783405304,"394":-0.4724887013435364,"395":-0.025563661009073257,"396":0.227727010846138,"397":0.3034311532974243,"398":-0.1375533491373062,"399":0.03843928873538971,"400":-0.7851528525352478,"401":-0.0015821765409782529,"402":-0.4538978934288025,"403":0.24322360754013062,"404":-0.45859333872795105,"405":0.7109290361404419,"406":0.08835890144109726,"407":-0.20987296104431152,"408":-0.19165979325771332,"409":0.1204380989074707,"410":-0.2383459359407425,"411":-0.6468753218650818,"412":-0.5891344547271729,"413":0.11950035393238068,"414":-0.3621397316455841,"415":-0.2574858069419861,"416":-0.042444054037332535,"417":-0.2542228102684021,"418":0.17516575753688812,"419":0.160842165350914,"420":0.5545632839202881,"421":0.2428750842809677,"422":-0.06953918933868408,"423":-0.0009478563442826271,"424":0.5499300956726074,"425":0.04065356031060219,"426":-0.3123677670955658,"427":-0.5542882084846497,"428":-0.4099130928516388,"429":0.2724497616291046,"430":-0.3549193739891052,"431":0.4371660649776459,"432":0.28264644742012024,"433":0.029486700892448425,"434":-0.5592987537384033,"435":-0.13495853543281555,"436":0.500812292098999,"437":-0.017975909635424614,"438":0.17566758394241333,"439":0.22091662883758545,"440":0.7682923674583435,"441":0.13574466109275818,"442":0.44869187474250793,"443":-0.11533421277999878,"444":0.003322887234389782,"445":-0.5231850743293762,"446":-0.04411910101771355,"447":-0.7345857620239258,"448":0.06282373517751694,"449":-0.20834623277187347,"450":0.07427681982517242,"451":0.7007371187210083,"452":-0.2901666462421417,"453":-0.6540886759757996,"454":0.3580532968044281,"455":0.3367239534854889,"456":0.36838752031326294,"457":0.941649854183197,"458":-0.614340603351593,"459":-0.378953754901886,"460":0.1359298974275589,"461":0.8135448098182678,"462":-1.0743061304092407,"463":0.2734338343143463,"464":-0.5365853309631348,"465":-0.3113270401954651,"466":0.48023921251296997,"467":0.7580858469009399,"468":0.3595193326473236,"469":0.8072862029075623,"470":-0.2461806833744049,"471":0.018083559349179268,"472":-0.788991391658783,"473":-0.3762139678001404,"474":0.3332032859325409,"475":-0.6812587976455688,"476":-0.9127438068389893,"477":-0.24761421978473663,"478":-0.16179604828357697,"479":-0.6982374787330627,"480":0.004206295125186443,"481":-0.5103409290313721,"482":0.32442745566368103,"483":0.1812376081943512,"484":-0.028814563527703285,"485":-0.5315410494804382,"486":0.4263993203639984,"487":0.22761625051498413,"488":0.32033175230026245,"489":0.26902732253074646,"490":-0.6337347030639648,"491":-0.3348144292831421,"492":-0.28767701983451843,"493":-0.41540130972862244,"494":-0.8173130750656128,"495":0.5310962796211243,"496":0.26187485456466675,"497":0.204715758562088,"498":-0.008528519421815872,"499":0.5571699142456055,"500":0.11577627807855606,"501":0.4681718349456787,"502":-0.3554660975933075,"503":0.18993264436721802,"504":0.2500014007091522,"505":0.31762194633483887,"506":0.422652930021286,"507":-0.5906500816345215,"508":-0.4719603657722473,"509":-0.31551307439804077,"510":-0.7287192940711975,"511":-0.9399927854537964,"512":-0.15222880244255066,"513":0.3231930136680603,"514":-0.0272977314889431,"515":-0.26134344935417175,"516":-0.4346941113471985,"517":0.28586545586586,"518":0.013985993340611458,"519":-0.2950232923030853,"520":-0.47750556468963623,"521":0.02603423222899437,"522":0.32615137100219727,"523":0.6461055874824524,"524":0.13842813670635223,"525":0.25859925150871277,"526":0.30328336358070374,"527":0.3570306599140167,"528":-0.7213416695594788,"529":-0.013986778445541859,"530":0.444496214389801,"531":-0.5883099436759949,"532":-0.44660452008247375,"533":0.033203672617673874,"534":0.1533118486404419,"535":-0.04644810035824776,"536":-0.2095092087984085,"537":-0.6161933541297913,"538":-0.31535160541534424,"539":-0.15443751215934753,"540":-0.42901384830474854,"541":0.22143235802650452,"542":0.09369413554668427,"543":0.5463306903839111,"544":-0.27240127325057983,"545":0.047066580504179,"546":0.19162027537822723,"547":0.29572123289108276,"548":0.24744604527950287,"549":-0.3181454837322235,"550":0.13122369349002838,"551":0.2463475912809372,"552":0.0764906257390976,"553":0.1583445817232132,"554":-0.5527279376983643,"555":-0.2089654505252838,"556":-0.2509287893772125,"557":0.14580848813056946,"558":-0.3682556748390198,"559":0.30921655893325806,"560":-0.001075664535164833,"561":-0.5795494318008423,"562":0.010959248058497906,"563":0.2630625367164612,"564":0.26287612318992615,"565":-0.028591249138116837,"566":-0.1112774908542633,"567":-0.0292311143130064,"568":0.2947724759578705,"569":0.12752218544483185,"570":0.4888136684894562,"571":-0.32566356658935547,"572":-0.3817097246646881,"573":-0.6502737402915955,"574":-0.04774728789925575,"575":-0.7234470844268799,"576":0.3607969880104065,"577":-0.9082663655281067,"578":0.2502218186855316,"579":-0.05662510544061661,"580":1.3064303398132324,"581":-0.10780448466539383,"582":0.6273894309997559,"583":-0.0603942908346653,"584":0.9700828790664673,"585":0.03355741500854492,"586":-0.9630786180496216,"587":-1.6293621063232422,"588":-1.5630935430526733,"589":0.3612389862537384,"590":-0.8557280898094177,"591":0.5458604097366333,"592":0.6514260768890381,"593":0.26362359523773193,"594":-0.7493682503700256,"595":-0.0900251641869545,"596":0.9657620787620544,"597":0.4005187153816223,"598":0.1583160161972046,"599":0.654884934425354,"600":1.1133625507354736,"601":0.322936087846756,"602":1.195491909980774,"603":-0.31562331318855286,"604":0.3399648070335388,"605":-0.6626930236816406,"606":-0.5344551205635071,"607":-1.4857932329177856,"608":-0.0374460332095623,"609":0.09310050308704376,"610":0.45119279623031616,"611":0.16131791472434998,"612":0.21583673357963562,"613":-0.2699073255062103,"614":-0.1536843180656433,"615":-0.0035369712859392166,"616":0.13316066563129425,"617":-0.41823533177375793,"618":-0.2057875543832779,"619":-0.29679223895072937,"620":-0.2272769659757614,"621":0.07430148869752884,"622":0.02419571578502655,"623":0.2774788439273834,"624":0.11786559224128723,"625":0.017685862258076668,"626":-0.14199350774288177,"627":0.048290446400642395,"628":0.5156863331794739,"629":-0.1921364963054657,"630":-0.06567192822694778,"631":0.25136810541152954,"632":0.4421401619911194,"633":0.21032758057117462,"634":0.243028461933136,"635":-0.2686346769332886,"636":0.029049502685666084,"637":-0.6791040897369385,"638":-0.2189660370349884,"639":-0.14543014764785767}},"inputHidden":{"rows":20,"columns":20,"weights":{"0":-0.6441137790679932,"1":-0.47172054648399353,"2":-0.23562851548194885,"3":0.16473031044006348,"4":0.4945603311061859,"5":-0.4560158848762512,"6":1.006137490272522,"7":-0.41060036420822144,"8":0.07699955999851227,"9":0.30978187918663025,"10":0.8443554639816284,"11":-0.14926928281784058,"12":0.35348913073539734,"13":0.5572006106376648,"14":-0.037154845893383026,"15":0.20443779230117798,"16":1.7419490814208984,"17":-0.232901930809021,"18":-0.30438506603240967,"19":-0.19197781383991241,"20":-0.8019371628761292,"21":0.003040639916434884,"22":-0.5706543922424316,"23":-1.062801480293274,"24":-0.14188385009765625,"25":-0.19607661664485931,"26":0.5668387413024902,"27":-0.42636680603027344,"28":0.3017351031303406,"29":0.5999459028244019,"30":0.7727691531181335,"31":-0.14032645523548126,"32":-0.03295504301786423,"33":1.3606220483779907,"34":-0.16253052651882172,"35":0.3751571774482727,"36":1.2928924560546875,"37":-0.4059472382068634,"38":-0.1883639246225357,"39":-0.5536777973175049,"40":1.2302151918411255,"41":0.2637726664543152,"42":0.015104352496564388,"43":-0.2665724754333496,"44":1.203352689743042,"45":-0.4376392662525177,"46":-0.2780207395553589,"47":-0.623245358467102,"48":1.8028780221939087,"49":0.3323313295841217,"50":0.6762606501579285,"51":-0.7497344613075256,"52":0.2840396463871002,"53":1.524701714515686,"54":0.1739025115966797,"55":1.4661846160888672,"56":0.41335976123809814,"57":-0.7214579582214355,"58":-1.2749983072280884,"59":0.569159984588623,"60":-0.14343641698360443,"61":0.04071355611085892,"62":-1.4393197298049927,"63":0.25078609585762024,"64":-0.09502387791872025,"65":0.3376559317111969,"66":0.6950101256370544,"67":0.2337735891342163,"68":-0.03366141766309738,"69":-0.2837696671485901,"70":-0.760432779788971,"71":-0.0031477862503379583,"72":-0.6794711947441101,"73":0.1555047482252121,"74":-0.19597861170768738,"75":0.25041311979293823,"76":1.6577681303024292,"77":-0.07099582254886627,"78":-0.15456566214561462,"79":-0.19330677390098572,"80":1.2130783796310425,"81":0.7718461751937866,"82":0.8211331963539124,"83":-1.0741796493530273,"84":1.0370419025421143,"85":-0.0965656042098999,"86":-0.011825557798147202,"87":-0.8455869555473328,"88":0.8104104399681091,"89":0.28630101680755615,"90":0.27912992238998413,"91":-1.0208920240402222,"92":0.7180361747741699,"93":0.862790048122406,"94":-0.9146909713745117,"95":1.296940565109253,"96":0.4214416444301605,"97":-1.1758627891540527,"98":-0.696102499961853,"99":0.8446058034896851,"100":0.48218268156051636,"101":0.9433633685112,"102":-0.4043574333190918,"103":-0.2804144620895386,"104":1.0548245906829834,"105":-0.7292510867118835,"106":-0.11544351279735565,"107":-0.9201580286026001,"108":0.5391669273376465,"109":0.44299110770225525,"110":0.7352612614631653,"111":-0.25688669085502625,"112":0.8842020630836487,"113":-0.19630885124206543,"114":-0.4903680980205536,"115":0.41735711693763733,"116":0.41955727338790894,"117":-0.4743867814540863,"118":0.008057188242673874,"119":0.5862278938293457,"120":0.8682974576950073,"121":0.7552685737609863,"122":-0.5300703048706055,"123":-0.8617682456970215,"124":1.4522628784179688,"125":-0.7369353175163269,"126":-0.4412437677383423,"127":-0.2375192493200302,"128":0.3785861134529114,"129":0.14874905347824097,"130":0.3534243404865265,"131":-0.09082718193531036,"132":0.246175616979599,"133":-0.11770261824131012,"134":-0.547881543636322,"135":1.35847806930542,"136":0.18984052538871765,"137":-0.9544284343719482,"138":0.10863801091909409,"139":0.49904027581214905,"140":0.1348630040884018,"141":0.50114506483078,"142":-0.48676884174346924,"143":-0.30680423974990845,"144":-0.12326719611883163,"145":0.2097150832414627,"146":1.056862235069275,"147":-0.18640117347240448,"148":0.5225637555122375,"149":-0.262188196182251,"150":0.07769688963890076,"151":-0.5949578285217285,"152":0.260698527097702,"153":0.10267996788024902,"154":-0.546423614025116,"155":0.15675391256809235,"156":1.2394204139709473,"157":-0.5197009444236755,"158":-0.5646712779998779,"159":1.0145347118377686,"160":0.0012806846061721444,"161":-0.024850497022271156,"162":-0.35601550340652466,"163":-0.81874680519104,"164":0.13255268335342407,"165":0.19785606861114502,"166":1.0615200996398926,"167":-0.1007557064294815,"168":0.32225823402404785,"169":0.06446120142936707,"170":-0.5445197820663452,"171":-0.30839431285858154,"172":-0.4475330114364624,"173":1.0289573669433594,"174":0.3477505147457123,"175":0.6098357439041138,"176":2.127847671508789,"177":-0.5550968647003174,"178":-0.18453267216682434,"179":0.10762070119380951,"180":0.94831782579422,"181":0.9092209339141846,"182":-0.09714717417955399,"183":-0.5907446146011353,"184":1.4162646532058716,"185":0.018969543278217316,"186":-0.09170259535312653,"187":-0.30609750747680664,"188":2.170412063598633,"189":-0.010840337723493576,"190":0.3801765441894531,"191":-1.1269115209579468,"192":0.5722014307975769,"193":1.033616065979004,"194":-0.4803001284599304,"195":0.8812904953956604,"196":0.47500354051589966,"197":-1.2474642992019653,"198":-0.9294828772544861,"199":0.7976266145706177,"200":0.9109714031219482,"201":0.3115108907222748,"202":0.83481764793396,"203":0.6251028180122375,"204":0.5609716773033142,"205":-1.297083854675293,"206":-0.10199695825576782,"207":-0.8521371483802795,"208":0.2538815438747406,"209":0.8684596419334412,"210":1.0446170568466187,"211":-0.16917642951011658,"212":0.6001188158988953,"213":-0.4092090129852295,"214":0.922559916973114,"215":-0.03696690499782562,"216":0.2902570962905884,"217":-0.3108913004398346,"218":-0.09314117580652237,"219":0.9669632911682129,"220":0.09097239375114441,"221":-0.24171170592308044,"222":-0.406324565410614,"223":-0.8861482739448547,"224":-0.010076922364532948,"225":0.03512443229556084,"226":0.6513677835464478,"227":-0.037042275071144104,"228":0.4651946723461151,"229":0.05775780975818634,"230":-0.18259763717651367,"231":-0.4200093746185303,"232":-0.5346907377243042,"233":1.1025773286819458,"234":0.36922308802604675,"235":0.5803773999214172,"236":1.5857868194580078,"237":-0.8374298214912415,"238":-0.27270886301994324,"239":0.22368517518043518,"240":2.344180107116699,"241":0.9275306463241577,"242":-0.14046305418014526,"243":-0.20354324579238892,"244":0.6928233504295349,"245":0.008735778741538525,"246":1.0725438594818115,"247":-0.2525632977485657,"248":0.7564112544059753,"249":-0.25231242179870605,"250":-0.10237313061952591,"251":0.29476556181907654,"252":0.33532413840293884,"253":-0.40161192417144775,"254":0.22656245529651642,"255":0.18249833583831787,"256":1.2025392055511475,"257":-0.4194599390029907,"258":-0.17556653916835785,"259":0.8517547249794006,"260":0.2663942873477936,"261":-0.09417436271905899,"262":-0.824688196182251,"263":-0.30728679895401,"264":0.022609367966651917,"265":0.25151973962783813,"266":0.8302291035652161,"267":0.0720282644033432,"268":0.31134259700775146,"269":0.06215688958764076,"270":-0.08902101963758469,"271":-0.12446865439414978,"272":-0.38725775480270386,"273":0.548907458782196,"274":0.3271740674972534,"275":0.5244836807250977,"276":1.8976045846939087,"277":-0.38428831100463867,"278":-0.05008077621459961,"279":0.34694477915763855,"280":-0.013549796305596828,"281":0.2519826292991638,"282":-0.7397610545158386,"283":0.4559478461742401,"284":0.6020092368125916,"285":-0.1352342814207077,"286":0.9086824059486389,"287":-0.5151132941246033,"288":0.489326536655426,"289":0.08664829283952713,"290":0.38536879420280457,"291":-0.3481146991252899,"292":0.8537494540214539,"293":0.7653238773345947,"294":-0.6862074732780457,"295":0.012075651437044144,"296":0.9393340349197388,"297":0.13648070394992828,"298":-0.671972393989563,"299":-0.21004962921142578,"300":0.3773461878299713,"301":-0.18998923897743225,"302":0.1695326268672943,"303":-0.7319402694702148,"304":0.26224285364151,"305":0.2473146766424179,"306":0.938459575176239,"307":-0.17774473130702972,"308":0.8867206573486328,"309":-0.0819692462682724,"310":-0.31486549973487854,"311":0.038132354617118835,"312":-0.5806481838226318,"313":0.5489816069602966,"314":0.13281872868537903,"315":0.8658241629600525,"316":1.5573315620422363,"317":-0.6392202377319336,"318":-0.48896628618240356,"319":0.6509747505187988,"320":1.2539116144180298,"321":1.456608533859253,"322":-0.8965228796005249,"323":-0.9965496063232422,"324":1.1062504053115845,"325":-0.38428300619125366,"326":-0.34105315804481506,"327":-0.2022278755903244,"328":1.1415609121322632,"329":-0.3694307208061218,"330":-0.10848917812108994,"331":-0.8219650387763977,"332":0.972868025302887,"333":0.4161013960838318,"334":-1.270581841468811,"335":0.8709014654159546,"336":-0.11319920420646667,"337":-1.5238761901855469,"338":-0.965224027633667,"339":1.4974782466888428,"340":0.006533120758831501,"341":-0.5541932582855225,"342":-0.17167793214321136,"343":0.27624237537384033,"344":-0.07246603071689606,"345":0.5683546662330627,"346":1.2991762161254883,"347":-0.22703897953033447,"348":0.3463182747364044,"349":0.03745705261826515,"350":0.30273622274398804,"351":-0.08960789442062378,"352":-0.47997090220451355,"353":0.5459039807319641,"354":0.2715461850166321,"355":0.20696036517620087,"356":1.7789424657821655,"357":0.29326188564300537,"358":-0.05660877376794815,"359":-0.5612850189208984,"360":0.1581220179796219,"361":-0.17467398941516876,"362":0.8152785897254944,"363":-0.9435897469520569,"364":-0.36029067635536194,"365":0.06423601508140564,"366":0.22847385704517365,"367":-0.5426469445228577,"368":0.42653027176856995,"369":0.944743275642395,"370":0.8480718731880188,"371":-1.0851598978042603,"372":-0.19026008248329163,"373":1.720017671585083,"374":-0.3674366772174835,"375":0.8436159491539001,"376":0.7539087533950806,"377":-0.8572794795036316,"378":-0.4676613211631775,"379":-0.21303966641426086,"380":-0.13628529012203217,"381":-0.4810538589954376,"382":0.4463828206062317,"383":-0.09829484671354294,"384":0.07150541245937347,"385":0.889644205570221,"386":1.0812158584594727,"387":-0.33655592799186707,"388":-0.43657249212265015,"389":0.10843317210674286,"390":0.09273116290569305,"391":0.5329644680023193,"392":-1.0966291427612305,"393":-0.05764827877283096,"394":0.5770927667617798,"395":0.41310426592826843,"396":2.087925434112549,"397":0.10664293169975281,"398":-0.18970419466495514,"399":-0.6245175004005432}},"inputBias":{"rows":20,"columns":1,"weights":{"0":-0.39454886317253113,"1":-1.4310219287872314,"2":-0.20875130593776703,"3":0.06757219135761261,"4":-0.32525715231895447,"5":-0.25445351004600525,"6":0.22984248399734497,"7":-0.7427411079406738,"8":-0.11659175902605057,"9":-0.09773638099431992,"10":-0.5510760545730591,"11":-0.10374511033296585,"12":-0.08475211262702942,"13":-0.19554831087589264,"14":-0.35491943359375,"15":-0.5848789215087891,"16":0.524324357509613,"17":0.1386951506137848,"18":-0.3451993763446808,"19":0.13868017494678497}},"forgetMatrix":{"rows":20,"columns":32,"weights":{"0":0.11365845054388046,"1":0.26596248149871826,"2":-1.0499637126922607,"3":0.5464386343955994,"4":0.12780524790287018,"5":-0.17985373735427856,"6":-0.18255898356437683,"7":0.39349934458732605,"8":0.5109484791755676,"9":1.180838704109192,"10":0.2945367097854614,"11":0.2645268440246582,"12":-0.2572711706161499,"13":-0.039020419120788574,"14":0.03948944807052612,"15":0.38127925992012024,"16":-0.10644441097974777,"17":-0.008894617669284344,"18":0.5787034034729004,"19":0.7832712531089783,"20":0.4383058249950409,"21":-0.2426089495420456,"22":1.1347236633300781,"23":-0.23068837821483612,"24":0.7217258810997009,"25":0.21664950251579285,"26":-0.28458333015441895,"27":-0.613381028175354,"28":-0.3719317317008972,"29":-0.2583375871181488,"30":0.5582069754600525,"31":-1.2551127672195435,"32":-0.09453435242176056,"33":0.16344784200191498,"34":0.5789134502410889,"35":0.13812260329723358,"36":0.45700913667678833,"37":-0.18012972176074982,"38":-0.03824487328529358,"39":-0.12560105323791504,"40":0.26366689801216125,"41":0.059127699583768845,"42":0.0010771225206553936,"43":-0.441413015127182,"44":0.10554146021604538,"45":0.729170024394989,"46":-0.14901839196681976,"47":1.1901867389678955,"48":0.15793372690677643,"49":0.29354679584503174,"50":0.43618834018707275,"51":0.3745511472225189,"52":0.27610358595848083,"53":0.16556814312934875,"54":-0.25575917959213257,"55":0.012791364453732967,"56":0.734688401222229,"57":0.6376709342002869,"58":0.25812655687332153,"59":-0.4403693974018097,"60":-0.22992128133773804,"61":-0.47699448466300964,"62":-0.22125005722045898,"63":-0.4756857752799988,"64":0.19650746881961823,"65":0.5129200220108032,"66":0.12692178785800934,"67":0.22079576551914215,"68":-0.6225444078445435,"69":-0.04940560460090637,"70":-0.3902377486228943,"71":0.16307483613491058,"72":-0.4700978994369507,"73":0.16199751198291779,"74":0.004771007690578699,"75":-0.0005839053192175925,"76":-0.09250374883413315,"77":-1.306154489517212,"78":0.17814412713050842,"79":-0.14205598831176758,"80":0.05357714369893074,"81":-0.32156938314437866,"82":0.10097125172615051,"83":0.8153733611106873,"84":-0.026849539950489998,"85":-0.19327625632286072,"86":0.3217225968837738,"87":-0.12103432416915894,"88":0.1025545597076416,"89":0.5302883982658386,"90":-0.36480385065078735,"91":-1.1648634672164917,"92":-0.11353956907987595,"93":-0.44437670707702637,"94":0.016861623153090477,"95":-0.49265438318252563,"96":-0.20653307437896729,"97":0.6019200086593628,"98":0.006476691924035549,"99":0.14938634634017944,"100":-0.48110759258270264,"101":-0.01072150468826294,"102":-0.07673101127147675,"103":0.017102599143981934,"104":-0.23340892791748047,"105":0.13831692934036255,"106":0.43925178050994873,"107":0.6991495490074158,"108":0.4364960491657257,"109":-0.4169635474681854,"110":0.20398151874542236,"111":0.4581451117992401,"112":-0.42067191004753113,"113":0.23910947144031525,"114":0.6644450426101685,"115":0.16912665963172913,"116":-0.2723914682865143,"117":0.09847460687160492,"118":0.2009141594171524,"119":0.39503005146980286,"120":0.37305906414985657,"121":-0.03279345855116844,"122":-0.5040589570999146,"123":-0.5224220156669617,"124":0.18431726098060608,"125":0.2304602563381195,"126":-0.1413942128419876,"127":-0.19536329805850983,"128":0.4642541706562042,"129":-0.42728903889656067,"130":0.4903908669948578,"131":0.4693417549133301,"132":1.1211495399475098,"133":-0.6383096575737,"134":-0.2726688086986542,"135":0.2862279713153839,"136":0.8763270974159241,"137":-0.017533086240291595,"138":-0.34597456455230713,"139":-1.1725919246673584,"140":-0.5072242021560669,"141":0.4349828362464905,"142":0.07255503535270691,"143":0.6476019620895386,"144":0.8765050172805786,"145":0.12843850255012512,"146":0.11400874704122543,"147":0.8408281803131104,"148":0.8125667572021484,"149":0.2244509607553482,"150":-0.03429883345961571,"151":-0.1745757907629013,"152":0.5473294854164124,"153":0.7994925379753113,"154":0.2942054271697998,"155":-0.34095779061317444,"156":-0.14073486626148224,"157":-0.4812833070755005,"158":0.03268063813447952,"159":-0.7106412053108215,"160":0.4761309027671814,"161":-0.15083543956279755,"162":0.5347731709480286,"163":0.09533523768186569,"164":0.1361195296049118,"165":-0.43477654457092285,"166":0.03107520006597042,"167":0.25034764409065247,"168":0.05423988401889801,"169":-0.3417269289493561,"170":-0.4251841604709625,"171":-0.8123982548713684,"172":-0.566895067691803,"173":0.23205840587615967,"174":-0.3649660646915436,"175":0.1344984769821167,"176":0.2312382608652115,"177":-0.1511230766773224,"178":-0.16561433672904968,"179":0.2256181538105011,"180":0.23207905888557434,"181":0.27872434258461,"182":-0.2755918800830841,"183":0.5258183479309082,"184":-0.43521249294281006,"185":0.32831183075904846,"186":0.2878406047821045,"187":-0.4335539638996124,"188":0.15796180069446564,"189":-0.14844436943531036,"190":-0.2133316695690155,"191":-0.16309300065040588,"192":0.5461386442184448,"193":0.1825772374868393,"194":-0.4070138931274414,"195":1.0460113286972046,"196":0.37136906385421753,"197":-0.8477280735969543,"198":-0.13934576511383057,"199":0.5620566606521606,"200":0.7455630302429199,"201":0.23399977385997772,"202":-0.03141855075955391,"203":-0.504639744758606,"204":-0.6888324022293091,"205":0.3928442597389221,"206":0.13262110948562622,"207":0.8292788863182068,"208":0.1546805053949356,"209":-0.11048180609941483,"210":-0.1440468281507492,"211":0.7337188720703125,"212":0.9986075758934021,"213":0.21802666783332825,"214":0.011783291585743427,"215":-0.1442020833492279,"216":0.3856159448623657,"217":0.4633205533027649,"218":0.34669792652130127,"219":-0.08583879470825195,"220":0.04793184623122215,"221":-0.37135225534439087,"222":0.11549209803342819,"223":-1.2231507301330566,"224":0.12431937456130981,"225":0.1658650040626526,"226":-0.2686106860637665,"227":0.4343293309211731,"228":0.034990184009075165,"229":-0.63968825340271,"230":0.7566736936569214,"231":0.2624528408050537,"232":0.548072338104248,"233":0.11808516085147858,"234":-0.5190125107765198,"235":-0.374347060918808,"236":-0.3380142152309418,"237":0.2808842957019806,"238":-0.42637333273887634,"239":0.48909199237823486,"240":-0.33674028515815735,"241":-0.05120490491390228,"242":0.18821881711483002,"243":0.41884657740592957,"244":0.5671038031578064,"245":0.9351739883422852,"246":-0.3408723771572113,"247":0.0004436624003574252,"248":0.28798621892929077,"249":-0.014995839446783066,"250":0.5289344191551208,"251":-0.747487485408783,"252":-0.09980633854866028,"253":-0.0012246111873537302,"254":-0.27560892701148987,"255":-0.6106420159339905,"256":-0.39609959721565247,"257":0.8749855756759644,"258":-0.0028316404204815626,"259":-0.15481920540332794,"260":-0.6161252856254578,"261":-0.24476143717765808,"262":-0.11513834446668625,"263":0.09777653962373734,"264":-0.6773574948310852,"265":0.09838946163654327,"266":-0.12462901324033737,"267":0.5750505328178406,"268":0.42999595403671265,"269":-0.04520532488822937,"270":-0.018341314047574997,"271":-0.07503490149974823,"272":-0.6204694509506226,"273":-0.7243617177009583,"274":0.6982201337814331,"275":0.49155905842781067,"276":-0.24748654663562775,"277":-0.0356995053589344,"278":-0.18420159816741943,"279":0.12837566435337067,"280":-0.42923182249069214,"281":0.19468939304351807,"282":-0.3497087359428406,"283":-0.6576532125473022,"284":-0.47473227977752686,"285":-0.2317221760749817,"286":-0.0721832811832428,"287":0.01642172411084175,"288":-0.2147475630044937,"289":0.6373578310012817,"290":-0.6379789113998413,"291":0.2914034128189087,"292":-0.7458035945892334,"293":-0.06470874696969986,"294":-0.15504489839076996,"295":0.16827945411205292,"296":0.3361075818538666,"297":0.4243658781051636,"298":0.1904144585132599,"299":-0.33380526304244995,"300":0.13187295198440552,"301":-0.06389331072568893,"302":0.08926454186439514,"303":0.10929963737726212,"304":-0.26642102003097534,"305":-1.172357439994812,"306":0.42023682594299316,"307":0.5023697018623352,"308":-0.11459963023662567,"309":0.10290541499853134,"310":0.41511908173561096,"311":-0.27941882610321045,"312":-0.03644707426428795,"313":-0.07021211832761765,"314":-0.07234252244234085,"315":-0.6781771183013916,"316":-0.3438521921634674,"317":0.011202969588339329,"318":0.40887510776519775,"319":-0.6771600246429443,"320":0.09506106376647949,"321":-0.36934471130371094,"322":-0.006724830251187086,"323":0.10604949295520782,"324":0.024665342643857002,"325":0.26740753650665283,"326":0.5959398150444031,"327":0.15774059295654297,"328":0.6451645493507385,"329":0.2588143050670624,"330":-0.28820928931236267,"331":-0.07274193316698074,"332":-0.41506654024124146,"333":0.4138554632663727,"334":-1.4432226419448853,"335":0.09537514299154282,"336":0.037596508860588074,"337":-0.22863633930683136,"338":-0.2984543442726135,"339":0.14639660716056824,"340":-0.36362549662590027,"341":0.5038337111473083,"342":-0.0477743037045002,"343":-0.18843889236450195,"344":-0.12562455236911774,"345":0.15516720712184906,"346":0.6414288878440857,"347":-0.6925898194313049,"348":-0.035947494208812714,"349":-0.2557336390018463,"350":-0.3438294529914856,"351":-0.7026580572128296,"352":-0.33401691913604736,"353":0.8265674114227295,"354":0.1305965632200241,"355":-0.5236706733703613,"356":-0.6858130693435669,"357":-0.33100149035453796,"358":-0.3075565993785858,"359":-0.3620464503765106,"360":-0.7303346991539001,"361":0.2023022621870041,"362":0.02790338359773159,"363":0.44958534836769104,"364":0.1825817972421646,"365":-0.6129640936851501,"366":0.07319281995296478,"367":-0.3839120864868164,"368":-0.7359753251075745,"369":-0.150718092918396,"370":0.7476961612701416,"371":0.4558328092098236,"372":-0.5204694271087646,"373":-0.14704212546348572,"374":0.1546640694141388,"375":0.26590391993522644,"376":-0.3592687249183655,"377":0.4328681528568268,"378":-0.6725049614906311,"379":-0.8972597122192383,"380":-0.7410896420478821,"381":-0.15652020275592804,"382":-0.10333199054002762,"383":0.1256677210330963,"384":0.6057818531990051,"385":0.0630083829164505,"386":-0.21503442525863647,"387":0.3248814046382904,"388":-0.03260466083884239,"389":0.5249598622322083,"390":0.12398906797170639,"391":1.071713924407959,"392":0.33241894841194153,"393":-0.3483339846134186,"394":0.018225254490971565,"395":0.31097519397735596,"396":-0.378431111574173,"397":1.1876375675201416,"398":-0.8114994764328003,"399":-0.08639737218618393,"400":0.09234905987977982,"401":-0.6657299995422363,"402":-0.7690622210502625,"403":-0.053824711591005325,"404":-0.3288730978965759,"405":-0.16001415252685547,"406":-0.09180904924869537,"407":-0.5522522926330566,"408":0.04792214557528496,"409":-0.09721269458532333,"410":0.34861868619918823,"411":-0.3205737769603729,"412":0.2811991572380066,"413":-0.1525779813528061,"414":-0.034165237098932266,"415":-0.43565434217453003,"416":-0.14540746808052063,"417":0.21405814588069916,"418":-0.21618185937404633,"419":-0.5183373093605042,"420":-0.19398391246795654,"421":-0.27790629863739014,"422":-0.0029656493570655584,"423":-0.1767868995666504,"424":-0.4217216372489929,"425":-0.08819320797920227,"426":0.1564406454563141,"427":0.2262817770242691,"428":0.17195822298526764,"429":0.017973409965634346,"430":-0.010864139534533024,"431":-0.553758442401886,"432":-0.27834686636924744,"433":-0.11462591588497162,"434":0.2535175383090973,"435":-0.30439966917037964,"436":-0.17683164775371552,"437":0.2661300599575043,"438":0.43232497572898865,"439":-0.02925777994096279,"440":-0.40178361535072327,"441":-0.05827007815241814,"442":-0.3141310513019562,"443":0.019599610939621925,"444":0.06257419288158417,"445":0.21105092763900757,"446":0.30220040678977966,"447":0.5696447491645813,"448":-0.08239197731018066,"449":0.05147617682814598,"450":-0.08231458067893982,"451":-0.006756965536624193,"452":0.05381288751959801,"453":-0.22858357429504395,"454":0.40786391496658325,"455":-0.10352469235658646,"456":0.2895645499229431,"457":-0.11472751200199127,"458":0.16297142207622528,"459":0.12589655816555023,"460":0.18632405996322632,"461":-0.008126910775899887,"462":0.022636109963059425,"463":0.1995796114206314,"464":-0.2762959897518158,"465":0.40588271617889404,"466":0.029771672561764717,"467":-0.04510147497057915,"468":0.18429896235466003,"469":0.4072069823741913,"470":-0.06397362053394318,"471":-0.04777519404888153,"472":0.40033870935440063,"473":-0.07869241386651993,"474":0.1834140121936798,"475":-0.28499704599380493,"476":0.13199403882026672,"477":0.14353840053081512,"478":-0.1196802631020546,"479":-0.06734636425971985,"480":-0.1965198665857315,"481":0.029924683272838593,"482":-0.9280529022216797,"483":0.23363029956817627,"484":-0.30428916215896606,"485":0.02938990294933319,"486":0.17326028645038605,"487":0.33085888624191284,"488":-0.1233418881893158,"489":-0.17437894642353058,"490":0.012803512625396252,"491":0.4366493225097656,"492":0.4407591223716736,"493":0.28348755836486816,"494":0.22641761600971222,"495":-0.12612228095531464,"496":-0.22595401108264923,"497":-0.0443967804312706,"498":-0.03824721649289131,"499":-0.07107469439506531,"500":-0.18754927814006805,"501":0.07212557643651962,"502":0.37664589285850525,"503":0.2220257669687271,"504":-0.13814657926559448,"505":-0.6970107555389404,"506":-0.06123317405581474,"507":0.48472845554351807,"508":-0.04167585447430611,"509":0.3492507040500641,"510":0.8373260498046875,"511":0.051713984459638596,"512":0.38426193594932556,"513":0.25529783964157104,"514":0.17878583073616028,"515":0.03349936380982399,"516":-0.07144171744585037,"517":-0.10863412171602249,"518":-0.07252468913793564,"519":0.3088567852973938,"520":0.20173607766628265,"521":-0.35455653071403503,"522":-0.005200868472456932,"523":-0.15475231409072876,"524":-0.12437842041254044,"525":0.0035304443445056677,"526":-0.0937427431344986,"527":0.4014553427696228,"528":0.095573291182518,"529":0.3398067057132721,"530":-0.021096788346767426,"531":0.22341471910476685,"532":0.3087320029735565,"533":0.2651172876358032,"534":-0.25395509600639343,"535":0.38437744975090027,"536":0.0786852017045021,"537":0.461485892534256,"538":0.22255335748195648,"539":0.3280947506427765,"540":0.21321024000644684,"541":0.08647030591964722,"542":0.09822967648506165,"543":-0.20628030598163605,"544":0.15732327103614807,"545":-0.17519766092300415,"546":-0.11819970607757568,"547":0.48180529475212097,"548":0.10439185798168182,"549":-0.4305122494697571,"550":0.18022364377975464,"551":0.12325030565261841,"552":0.1076354905962944,"553":0.51499342918396,"554":-0.32680806517601013,"555":-0.11039567738771439,"556":-0.1587206870317459,"557":-0.33878442645072937,"558":-0.21437516808509827,"559":-0.005015156697481871,"560":0.4408396780490875,"561":0.0985444113612175,"562":0.09345982223749161,"563":0.7987929582595825,"564":0.2715130150318146,"565":0.30069467425346375,"566":0.011869840323925018,"567":-0.17166495323181152,"568":-0.1396220326423645,"569":0.12540848553180695,"570":-0.09657171368598938,"571":-0.21775364875793457,"572":-0.322672963142395,"573":-0.2375505566596985,"574":0.07294534891843796,"575":-0.5098880529403687,"576":-0.3951992690563202,"577":0.9908934235572815,"578":-0.0587693490087986,"579":-0.3439415395259857,"580":-0.8144665360450745,"581":0.10504064708948135,"582":-0.2524447441101074,"583":-0.1861386001110077,"584":-0.5155258774757385,"585":0.12242913246154785,"586":-0.0290281530469656,"587":0.5017160773277283,"588":0.11507833749055862,"589":-0.22577565908432007,"590":-0.42192399501800537,"591":0.0004683185543399304,"592":-0.8769684433937073,"593":-0.8174971342086792,"594":0.5060127377510071,"595":0.36194470524787903,"596":-0.3962322473526001,"597":-0.09317061305046082,"598":-0.3213566541671753,"599":0.34167301654815674,"600":-0.12448427826166153,"601":0.0180056095123291,"602":-0.17976096272468567,"603":-0.8955169916152954,"604":-0.4162263870239258,"605":-0.08153752982616425,"606":-0.5233051776885986,"607":-0.29377537965774536,"608":0.13464409112930298,"609":0.10771495848894119,"610":-0.2095102071762085,"611":0.6259346008300781,"612":-0.3042176365852356,"613":-0.35959914326667786,"614":0.1700013279914856,"615":0.5671719908714294,"616":-0.13222916424274445,"617":0.19284085929393768,"618":-0.05519167333841324,"619":0.33757784962654114,"620":0.14189493656158447,"621":0.15330715477466583,"622":0.0317046232521534,"623":0.3627587556838989,"624":-0.13580317795276642,"625":-0.056671906262636185,"626":0.5309051275253296,"627":0.5703298449516296,"628":0.22785232961177826,"629":-0.04259249567985535,"630":0.4218831956386566,"631":-0.0291861854493618,"632":0.5070369243621826,"633":0.18623016774654388,"634":-0.17499180138111115,"635":-0.41143667697906494,"636":0.029832901433110237,"637":-0.2331538200378418,"638":0.2706780433654785,"639":-0.5601691007614136}},"forgetHidden":{"rows":20,"columns":20,"weights":{"0":0.4616328477859497,"1":-0.13129344582557678,"2":1.7923294305801392,"3":0.9553687572479248,"4":-0.5538178086280823,"5":0.009047160856425762,"6":-0.5852828621864319,"7":-1.362224817276001,"8":0.5277103185653687,"9":0.8720894455909729,"10":1.000139832496643,"11":-0.6635628342628479,"12":0.3187883496284485,"13":-0.24433182179927826,"14":-0.09639624506235123,"15":0.24581174552440643,"16":-0.30494460463523865,"17":-0.1558082401752472,"18":0.2199663370847702,"19":0.8309498429298401,"20":-0.8047291040420532,"21":-0.42610546946525574,"22":-0.3710426688194275,"23":-0.3345600366592407,"24":-0.659569501876831,"25":0.7573723793029785,"26":0.9018681049346924,"27":0.320319265127182,"28":0.018706077709794044,"29":-0.7808542847633362,"30":-0.8723024725914001,"31":0.09665794670581818,"32":-0.4357752203941345,"33":-0.4132440984249115,"34":0.0645805150270462,"35":-0.1649990826845169,"36":-0.1388285607099533,"37":-0.015615608543157578,"38":0.09727931767702103,"39":0.0729706734418869,"40":-0.17882098257541656,"41":0.08156528323888779,"42":-0.4311376214027405,"43":-0.6708229780197144,"44":0.07740724831819534,"45":0.7417341470718384,"46":0.6001344323158264,"47":0.5660220980644226,"48":-0.1290041208267212,"49":-0.9561273455619812,"50":-0.7873818278312683,"51":-0.17365597188472748,"52":0.12742237746715546,"53":0.8742608428001404,"54":-0.635514497756958,"55":-0.17122559249401093,"56":0.4551919996738434,"57":0.0005591807421296835,"58":0.24679827690124512,"59":-0.20416045188903809,"60":0.15044866502285004,"61":-0.5757362842559814,"62":0.5023181438446045,"63":0.05018819123506546,"64":0.11369932442903519,"65":-0.21033687889575958,"66":0.22124573588371277,"67":-0.5478792786598206,"68":-0.02833259478211403,"69":0.24622943997383118,"70":1.2789558172225952,"71":-0.0010602253023535013,"72":0.1478215456008911,"73":-0.05974520370364189,"74":0.10357879847288132,"75":0.15992403030395508,"76":0.381184846162796,"77":-0.251554936170578,"78":-0.05384011194109917,"79":0.1544049084186554,"80":-0.26587721705436707,"81":-0.3501620888710022,"82":-0.1431211233139038,"83":0.2139786332845688,"84":-0.028457898646593094,"85":0.0155313266441226,"86":0.27568554878234863,"87":0.18196024000644684,"88":-0.4500924050807953,"89":0.006360292434692383,"90":-0.029239153489470482,"91":0.35857823491096497,"92":-0.29555556178092957,"93":-0.8702207803726196,"94":0.3958936929702759,"95":-0.13193608820438385,"96":0.5279321670532227,"97":0.06817565113306046,"98":0.33313608169555664,"99":-0.01316976547241211,"100":0.11832218617200851,"101":-0.19820599257946014,"102":-0.7748628258705139,"103":-1.1352201700210571,"104":0.2752576470375061,"105":0.23874104022979736,"106":0.6250308752059937,"107":-0.32827815413475037,"108":0.25904643535614014,"109":-0.4003383219242096,"110":0.24161721765995026,"111":-0.4221135377883911,"112":-0.523257851600647,"113":1.060232400894165,"114":-0.04014525189995766,"115":0.41310104727745056,"116":0.7510986924171448,"117":-0.48207950592041016,"118":-0.3573470115661621,"119":0.9780378937721252,"120":-1.0998964309692383,"121":0.08768872916698456,"122":-0.24445141851902008,"123":0.39848005771636963,"124":0.3038776218891144,"125":0.49472036957740784,"126":0.6699159145355225,"127":0.24401244521141052,"128":0.28886649012565613,"129":0.2815617620944977,"130":0.7557876110076904,"131":-0.35860735177993774,"132":-0.34462040662765503,"133":0.5998761057853699,"134":-0.09595894813537598,"135":-0.9228054881095886,"136":0.5738546252250671,"137":0.851355254650116,"138":-0.30422890186309814,"139":-0.9702762365341187,"140":0.45019567012786865,"141":-0.24533814191818237,"142":0.3703969120979309,"143":-0.08080629259347916,"144":0.34584611654281616,"145":-0.10740924626588821,"146":-0.16855338215827942,"147":-0.1509065479040146,"148":-0.2198120802640915,"149":0.10309451073408127,"150":0.20433270931243896,"151":-0.07070095092058182,"152":-0.28912705183029175,"153":0.03551797941327095,"154":0.29424336552619934,"155":0.5307155847549438,"156":-0.6638566851615906,"157":-0.0793682262301445,"158":0.06873290985822678,"159":0.4856664836406708,"160":0.13774089515209198,"161":0.11016359180212021,"162":-0.14546915888786316,"163":0.22745496034622192,"164":-0.13099628686904907,"165":0.24304664134979248,"166":0.6316044330596924,"167":0.29570892453193665,"168":0.0007896809256635606,"169":-0.4460758864879608,"170":-0.15783017873764038,"171":0.0016732235671952367,"172":-0.35738998651504517,"173":-0.651391863822937,"174":-0.11449582129716873,"175":-0.20125916600227356,"176":0.24787504971027374,"177":0.08458724617958069,"178":0.05255712568759918,"179":0.4409216642379761,"180":-0.2364318072795868,"181":-0.12357310205698013,"182":-0.3194880783557892,"183":0.21526607871055603,"184":0.4073372781276703,"185":0.4456440806388855,"186":0.21364405751228333,"187":0.4551253318786621,"188":-0.8740240335464478,"189":-0.4286274015903473,"190":-0.6458289623260498,"191":0.5252082347869873,"192":-0.3402963876724243,"193":0.08416017144918442,"194":-0.2879519760608673,"195":-0.021527985110878944,"196":0.07943389564752579,"197":0.583956241607666,"198":0.22017109394073486,"199":-0.14110659062862396,"200":-0.14531880617141724,"201":-0.38602375984191895,"202":-0.010145414620637894,"203":-0.4844442903995514,"204":-0.25016114115715027,"205":0.3863772749900818,"206":-0.12297789752483368,"207":0.040257684886455536,"208":0.22193440794944763,"209":-0.030854349955916405,"210":-0.16792228817939758,"211":-0.4615235924720764,"212":-0.23520691692829132,"213":0.7136560082435608,"214":-0.12515439093112946,"215":0.4803003668785095,"216":0.22221218049526215,"217":-0.1882408708333969,"218":0.14606036245822906,"219":0.062436576932668686,"220":0.07056999206542969,"221":-0.161851167678833,"222":-0.29177331924438477,"223":0.2016298919916153,"224":-0.0360867902636528,"225":0.4726712703704834,"226":0.5620600581169128,"227":0.11824274808168411,"228":0.04156358167529106,"229":-0.39529338479042053,"230":0.003456638427451253,"231":-0.36867010593414307,"232":-0.4128760099411011,"233":-0.483368843793869,"234":0.04371461272239685,"235":0.08555445075035095,"236":0.2695957124233246,"237":0.0865224152803421,"238":-0.02508154883980751,"239":0.26408910751342773,"240":-1.4252043962478638,"241":-1.1792540550231934,"242":0.4504740834236145,"243":0.5345925688743591,"244":-0.7969173789024353,"245":-0.1976754367351532,"246":0.09613260626792908,"247":-0.02949570119380951,"248":-0.3338910639286041,"249":-0.09830257296562195,"250":0.08622637391090393,"251":-0.35731345415115356,"252":-0.04372333735227585,"253":-1.3563005924224854,"254":-0.13796678185462952,"255":-0.12672823667526245,"256":-0.22088447213172913,"257":0.3560662865638733,"258":0.12269606441259384,"259":0.3689672648906708,"260":-0.4190653860569,"261":-0.7169735431671143,"262":0.13510775566101074,"263":0.3398726284503937,"264":-0.8504239916801453,"265":0.5863987803459167,"266":1.330977201461792,"267":-0.012727049179375172,"268":-0.2036648541688919,"269":-0.5154094696044922,"270":-0.1331346035003662,"271":-0.2804144620895386,"272":-0.3920605480670929,"273":-0.18085063993930817,"274":0.5927841067314148,"275":-0.23061373829841614,"276":0.5640873908996582,"277":-0.344490647315979,"278":-0.0035225944593548775,"279":0.1562381237745285,"280":0.3078784644603729,"281":-0.3269139528274536,"282":0.6118364334106445,"283":-0.32950732111930847,"284":-0.024570411071181297,"285":0.4242115020751953,"286":1.03230619430542,"287":0.14140920341014862,"288":0.2112174779176712,"289":-0.11305676400661469,"290":-0.1665005087852478,"291":-0.06401030719280243,"292":-0.248150035738945,"293":-0.841219961643219,"294":0.3598543405532837,"295":0.12141653150320053,"296":0.16147521138191223,"297":-0.23254616558551788,"298":-0.22285471856594086,"299":0.5885551571846008,"300":0.7470072507858276,"301":0.06311968713998795,"302":0.07391232997179031,"303":-1.0801397562026978,"304":0.1398337483406067,"305":0.4031509757041931,"306":0.4463309645652771,"307":-0.5572304129600525,"308":-0.02953106164932251,"309":-0.16924729943275452,"310":0.3377525210380554,"311":-0.3756723701953888,"312":0.06933202594518661,"313":0.606608510017395,"314":-0.7299968004226685,"315":0.5214545726776123,"316":0.8356992602348328,"317":-0.4551751911640167,"318":0.08046039193868637,"319":0.3351682126522064,"320":-0.44200485944747925,"321":-0.9954317212104797,"322":0.7796548008918762,"323":0.7620624899864197,"324":-0.8818498849868774,"325":0.3655685484409332,"326":0.8631487488746643,"327":0.17988170683383942,"328":-0.4431619942188263,"329":0.03045038878917694,"330":0.1444309949874878,"331":-0.11630164086818695,"332":-1.3326640129089355,"333":0.33021655678749084,"334":0.9473870992660522,"335":-0.3749770522117615,"336":1.2070618867874146,"337":0.3882388174533844,"338":0.46348315477371216,"339":-0.801591157913208,"340":0.809744656085968,"341":0.15317828953266144,"342":0.44602182507514954,"343":-0.7754777669906616,"344":-0.11239173263311386,"345":0.04569912329316139,"346":0.1895446926355362,"347":-0.5237898826599121,"348":0.34117749333381653,"349":0.3094039857387543,"350":0.3769093155860901,"351":-0.5051472187042236,"352":-0.26348233222961426,"353":0.40419191122055054,"354":-0.4426669478416443,"355":0.4605630338191986,"356":0.519071638584137,"357":-0.5617538094520569,"358":-0.14705120027065277,"359":0.4087531268596649,"360":-0.4456288814544678,"361":-0.03345310315489769,"362":-0.6870937347412109,"363":-0.27484238147735596,"364":-0.10547208786010742,"365":0.7478170990943909,"366":1.3849046230316162,"367":0.5172966718673706,"368":-0.05707039311528206,"369":-0.6425777673721313,"370":-0.47854650020599365,"371":0.1550760567188263,"372":-0.19921894371509552,"373":-0.3682597875595093,"374":-0.06214172765612602,"375":-0.19044628739356995,"376":0.9250068068504333,"377":0.0160317774862051,"378":-0.2026934176683426,"379":0.37323471903800964,"380":0.09595169872045517,"381":0.13994933664798737,"382":1.050661325454712,"383":-0.16374363005161285,"384":0.24941398203372955,"385":-0.9471566677093506,"386":-0.44483986496925354,"387":-0.3121199607849121,"388":0.3327791392803192,"389":0.8657844066619873,"390":0.42409467697143555,"391":-0.38594114780426025,"392":0.6011309027671814,"393":0.014510237611830235,"394":-0.006032163742929697,"395":0.44191795587539673,"396":-0.45708614587783813,"397":-0.5592694282531738,"398":-0.2156723290681839,"399":0.5372305512428284}},"forgetBias":{"rows":20,"columns":1,"weights":{"0":0,"1":0,"2":0,"3":0,"4":0,"5":0,"6":0,"7":0,"8":0,"9":0,"10":0,"11":0,"12":0,"13":0,"14":0,"15":0,"16":0,"17":0,"18":0,"19":0}},"outputMatrix":{"rows":20,"columns":32,"weights":{"0":0.13862361013889313,"1":-0.2990064024925232,"2":-0.38688337802886963,"3":0.529990017414093,"4":0.09786742180585861,"5":-0.44785794615745544,"6":0.5824469923973083,"7":0.09282809495925903,"8":0.4868320822715759,"9":0.25220048427581787,"10":-0.4926120340824127,"11":-0.038315996527671814,"12":-0.3216668367385864,"13":0.7015531659126282,"14":-0.5539752244949341,"15":0.6744779944419861,"16":-0.5445216298103333,"17":0.1350792646408081,"18":0.293589323759079,"19":0.37819793820381165,"20":0.34613946080207825,"21":0.667134702205658,"22":-0.2053845375776291,"23":0.07378163188695908,"24":0.3856844902038574,"25":-0.3346298635005951,"26":0.5693817734718323,"27":-0.26311811804771423,"28":0.06748690456151962,"29":0.05746927857398987,"30":-0.21131554245948792,"31":-0.5036319494247437,"32":0.6346826553344727,"33":-0.34796619415283203,"34":-0.4486561119556427,"35":0.6072068214416504,"36":-0.34700724482536316,"37":-0.5848453640937805,"38":1.096856951713562,"39":0.656256377696991,"40":0.7413557767868042,"41":0.1954277902841568,"42":-0.9649829268455505,"43":-0.044643696397542953,"44":-1.1741000413894653,"45":0.4090578854084015,"46":-1.6478630304336548,"47":0.3016340434551239,"48":-0.1371193379163742,"49":-0.7132360339164734,"50":-0.024659153074026108,"51":0.48029348254203796,"52":0.2571631669998169,"53":0.9442954063415527,"54":-0.24557796120643616,"55":-0.013132436200976372,"56":0.3492009937763214,"57":-0.15970644354820251,"58":1.1541117429733276,"59":-0.6448677778244019,"60":-0.17557649314403534,"61":-0.27724042534828186,"62":-0.4877011477947235,"63":-1.3461521863937378,"64":0.12246984243392944,"65":-0.5588876605033875,"66":0.14323382079601288,"67":0.09190186858177185,"68":-0.12366779893636703,"69":0.18133480846881866,"70":0.8600127696990967,"71":0.0499207004904747,"72":0.04028494656085968,"73":0.061139464378356934,"74":-0.0876568928360939,"75":0.3034907579421997,"76":-0.07450244575738907,"77":0.31288987398147583,"78":-0.5875603556632996,"79":0.5133861303329468,"80":-0.2073124796152115,"81":-0.0740712434053421,"82":-0.22710996866226196,"83":-0.24555817246437073,"84":-0.0027033446822315454,"85":0.5277563333511353,"86":-0.07299409806728363,"87":0.45504432916641235,"88":0.07047925889492035,"89":-0.541175365447998,"90":0.16502101719379425,"91":-0.044768963009119034,"92":0.3598029315471649,"93":0.13034901022911072,"94":0.018203837797045708,"95":-0.021022852510213852,"96":0.037709999829530716,"97":0.009495037607848644,"98":-0.0945698544383049,"99":0.1957797408103943,"100":-0.13524746894836426,"101":-0.5189687013626099,"102":0.34916621446609497,"103":-0.2100854367017746,"104":-0.4038335084915161,"105":0.549785315990448,"106":-0.19530397653579712,"107":0.6537805199623108,"108":-0.11988374590873718,"109":-0.09916210919618607,"110":-0.1762399673461914,"111":0.2853897213935852,"112":-0.5318088531494141,"113":-0.29652339220046997,"114":0.22091291844844818,"115":0.199228435754776,"116":-0.024636048823595047,"117":0.5099642276763916,"118":0.13958550989627838,"119":0.08850391954183578,"120":0.21674993634223938,"121":-0.008932243101298809,"122":-0.22649061679840088,"123":-0.7048801183700562,"124":-0.1635468453168869,"125":-0.1340785026550293,"126":-0.10075237601995468,"127":-0.27073365449905396,"128":0.011174528859555721,"129":-0.6561542749404907,"130":0.3574342131614685,"131":0.1474277526140213,"132":0.38580062985420227,"133":-0.22909754514694214,"134":0.6313867568969727,"135":0.1051308885216713,"136":0.7012219429016113,"137":-0.05480053275823593,"138":-0.5232956409454346,"139":-0.6218013763427734,"140":-0.4606689214706421,"141":0.28549692034721375,"142":-0.5614355206489563,"143":0.6490916013717651,"144":0.3810422420501709,"145":0.02405163086950779,"146":-0.5721947550773621,"147":0.20089152455329895,"148":0.4914373457431793,"149":0.47156739234924316,"150":-0.3934052288532257,"151":0.3353922963142395,"152":0.7409094572067261,"153":0.30139702558517456,"154":0.7212653160095215,"155":-0.37192627787590027,"156":0.29666823148727417,"157":-0.7044569849967957,"158":-0.5277696251869202,"159":-0.8260791897773743,"160":-0.32773903012275696,"161":-0.16258244216442108,"162":-0.23472464084625244,"163":-0.2626449465751648,"164":-0.4657707214355469,"165":-0.3925244212150574,"166":0.5527297258377075,"167":-0.2765037417411804,"168":-0.1615583300590515,"169":0.27806293964385986,"170":-0.5332686901092529,"171":-0.3116878569126129,"172":0.12127102166414261,"173":-0.04010949656367302,"174":-0.4379279911518097,"175":-0.005969488061964512,"176":-0.1833001971244812,"177":0.15571755170822144,"178":-0.3252747654914856,"179":0.10427792370319366,"180":-0.41293683648109436,"181":0.8632093071937561,"182":-0.4006510078907013,"183":-0.03254718706011772,"184":-0.5414276719093323,"185":-0.21368099749088287,"186":0.1474241018295288,"187":-0.1164051815867424,"188":-0.5963053703308105,"189":0.05726168677210808,"190":-0.3404349088668823,"191":0.023490186780691147,"192":-0.16248424351215363,"193":0.02578934282064438,"194":-0.14874427020549774,"195":-0.10352084040641785,"196":-0.26959192752838135,"197":0.21803243458271027,"198":0.0423361174762249,"199":-0.18838143348693848,"200":-0.294141948223114,"201":0.34941917657852173,"202":0.24256238341331482,"203":-0.04251152649521828,"204":0.2023565024137497,"205":-0.20570142567157745,"206":0.11571303009986877,"207":-0.23789803683757782,"208":-0.29915857315063477,"209":0.13172204792499542,"210":0.2584346830844879,"211":-0.2683296799659729,"212":-0.15057538449764252,"213":0.14266414940357208,"214":0.2859373688697815,"215":0.19377756118774414,"216":-0.5609303116798401,"217":-0.7890680432319641,"218":-0.043054718524217606,"219":0.6855303049087524,"220":-0.269273966550827,"221":0.24486859142780304,"222":0.43112698197364807,"223":0.35782185196876526,"224":0.12924449145793915,"225":-0.11175628751516342,"226":-0.15651650726795197,"227":0.40933120250701904,"228":-0.4570606052875519,"229":-1.3146775960922241,"230":0.9191277027130127,"231":0.8239364624023438,"232":0.19666558504104614,"233":0.6313604116439819,"234":-0.7582609057426453,"235":0.2244528830051422,"236":-0.48094379901885986,"237":0.3706616163253784,"238":-1.7640480995178223,"239":0.3019631505012512,"240":-0.7602943181991577,"241":-0.7026035785675049,"242":0.8236920237541199,"243":1.0804924964904785,"244":0.07158444076776505,"245":1.73585045337677,"246":-0.3470606803894043,"247":-0.2569989860057831,"248":-0.34028860926628113,"249":-0.022893842309713364,"250":0.22941656410694122,"251":-1.4599984884262085,"252":-0.8225365877151489,"253":0.16865244507789612,"254":-0.03235611692070961,"255":-1.2221734523773193,"256":-0.0827685296535492,"257":-0.2483776956796646,"258":-0.14196205139160156,"259":0.8988733887672424,"260":-0.17839545011520386,"261":-0.6749575138092041,"262":0.47769349813461304,"263":0.967441737651825,"264":0.36574044823646545,"265":0.09163523465394974,"266":-1.071837306022644,"267":-0.2520219087600708,"268":-0.3295513093471527,"269":0.5574650168418884,"270":-0.8356102705001831,"271":0.30206170678138733,"272":-0.7691802382469177,"273":-0.7449796795845032,"274":0.036804161965847015,"275":0.5394883155822754,"276":0.3384646773338318,"277":0.6179039478302002,"278":-0.6215559244155884,"279":-0.2926827669143677,"280":0.025862310081720352,"281":0.07811514288187027,"282":0.9160395860671997,"283":-0.48481515049934387,"284":-0.7331445217132568,"285":-0.21942788362503052,"286":-0.5265965461730957,"287":-1.1219960451126099,"288":-0.0788942500948906,"289":-0.30185896158218384,"290":-0.0467209629714489,"291":-0.12608906626701355,"292":-0.2744024991989136,"293":-0.11478640139102936,"294":0.6732302308082581,"295":0.030409153550863266,"296":-0.11372754722833633,"297":0.0008463086560368538,"298":-0.3721317648887634,"299":0.08367466181516647,"300":0.08225084841251373,"301":0.04960170015692711,"302":-0.64351886510849,"303":-0.01133948378264904,"304":0.12233339995145798,"305":0.294054239988327,"306":-0.2797393202781677,"307":0.02979252301156521,"308":-0.23998409509658813,"309":0.8319634795188904,"310":-0.026860695332288742,"311":-0.018368195742368698,"312":-0.2426997572183609,"313":-0.0982356145977974,"314":0.016142655164003372,"315":0.0026331120170652866,"316":-0.08574766665697098,"317":0.24461911618709564,"318":-0.08243823051452637,"319":0.058410774916410446,"320":-0.07839064300060272,"321":-0.5873180627822876,"322":-0.22953416407108307,"323":0.17080922424793243,"324":-0.17807918787002563,"325":-0.4876226782798767,"326":1.164874792098999,"327":0.1648358404636383,"328":0.052312884479761124,"329":0.2016059160232544,"330":-0.5487412214279175,"331":0.2688905894756317,"332":-0.17867586016654968,"333":0.42312923073768616,"334":-0.7754199504852295,"335":0.5872942805290222,"336":-0.4126910865306854,"337":-0.567560613155365,"338":0.14403323829174042,"339":0.03156638890504837,"340":-0.11441174149513245,"341":1.0291063785552979,"342":-0.10086093097925186,"343":0.018850747495889664,"344":0.1353224366903305,"345":-0.6356534361839294,"346":0.2493390142917633,"347":-0.5903831720352173,"348":-0.2795816659927368,"349":-0.03896011784672737,"350":-0.12473709881305695,"351":-0.44295355677604675,"352":0.1912427693605423,"353":-0.16335901618003845,"354":0.210820734500885,"355":0.2070271223783493,"356":0.34083694219589233,"357":-0.7835952043533325,"358":0.23614422976970673,"359":-0.25432661175727844,"360":0.27191776037216187,"361":0.41318538784980774,"362":-0.955503523349762,"363":-0.5755283832550049,"364":-0.702696681022644,"365":-0.04794900864362717,"366":-0.7801374793052673,"367":-0.16116438806056976,"368":0.13815060257911682,"369":-0.858593761920929,"370":-0.28253763914108276,"371":0.43242794275283813,"372":0.47093772888183594,"373":0.6919984221458435,"374":-0.5139683485031128,"375":-0.2863103449344635,"376":-0.26809966564178467,"377":0.012529556639492512,"378":0.515061616897583,"379":-0.8585057854652405,"380":-0.5475017428398132,"381":-0.5218257904052734,"382":-0.5568812489509583,"383":-0.46752744913101196,"384":0.5328818559646606,"385":-0.6128180623054504,"386":-1.0189176797866821,"387":0.7259219884872437,"388":-0.41158512234687805,"389":-0.6657697558403015,"390":1.075589895248413,"391":0.6482421159744263,"392":0.4375257194042206,"393":0.7842309474945068,"394":-0.8864625692367554,"395":0.2715173661708832,"396":-0.5023868680000305,"397":0.5455673336982727,"398":-0.9945098161697388,"399":-0.27849066257476807,"400":-0.455434113740921,"401":-0.7979202270507812,"402":0.060166023671627045,"403":0.9904261231422424,"404":0.5031982064247131,"405":0.7843911647796631,"406":-0.09766990691423416,"407":-0.6456316709518433,"408":-0.20429451763629913,"409":-0.3877737820148468,"410":0.23789888620376587,"411":-0.8812263011932373,"412":-0.6090973019599915,"413":-0.28165823221206665,"414":-0.060496024787425995,"415":-1.121954321861267,"416":0.8304432034492493,"417":-0.23618163168430328,"418":-0.046799976378679276,"419":0.46254608035087585,"420":0.9113876819610596,"421":-0.8020215034484863,"422":-0.05545154958963394,"423":0.17113864421844482,"424":0.096677266061306,"425":-0.6622302532196045,"426":-0.4235885739326477,"427":0.041572071611881256,"428":-0.2121560424566269,"429":0.3966408967971802,"430":-0.04236753284931183,"431":-0.47301340103149414,"432":-0.1905941516160965,"433":0.422997385263443,"434":-0.48280438780784607,"435":-0.3705604374408722,"436":0.7365974187850952,"437":0.23951499164104462,"438":0.7203705906867981,"439":0.16854476928710938,"440":-0.3887845575809479,"441":-0.2605646550655365,"442":0.5424782037734985,"443":0.7637057900428772,"444":-0.4294664263725281,"445":0.1522584706544876,"446":0.9392141103744507,"447":0.44655755162239075,"448":0.45000869035720825,"449":-0.36622729897499084,"450":-0.27558109164237976,"451":0.6410780549049377,"452":-0.25247305631637573,"453":-0.6013076305389404,"454":0.6925445199012756,"455":0.5731291174888611,"456":0.5596822500228882,"457":0.3227664828300476,"458":-0.5946061015129089,"459":-0.235789492726326,"460":-0.7291257977485657,"461":0.512022852897644,"462":-1.3051906824111938,"463":0.1489073485136032,"464":-0.1416468322277069,"465":-0.8483631610870361,"466":0.03890600427985191,"467":0.5706519484519958,"468":0.3039613366127014,"469":0.9093970656394958,"470":-0.267946720123291,"471":-0.11579469591379166,"472":0.021704649552702904,"473":-0.3120533227920532,"474":0.5854450464248657,"475":-0.46897393465042114,"476":-0.18214093148708344,"477":-0.19612668454647064,"478":-0.07606914639472961,"479":-0.9383794069290161,"480":-0.13179394602775574,"481":0.09950527548789978,"482":0.30298516154289246,"483":0.5928764939308167,"484":-0.31787413358688354,"485":-0.42332035303115845,"486":0.16856463253498077,"487":0.3367481231689453,"488":-0.05957575514912605,"489":-0.19125273823738098,"490":-0.4942333698272705,"491":0.011313142254948616,"492":0.04954930394887924,"493":0.24477238953113556,"494":-0.26281747221946716,"495":0.6650441288948059,"496":-0.5788717269897461,"497":0.38502490520477295,"498":0.1557174026966095,"499":0.3828558027744293,"500":0.1195124015212059,"501":0.3443489670753479,"502":-0.40414959192276,"503":0.5550704598426819,"504":0.29572317004203796,"505":-0.07783541083335876,"506":0.42643651366233826,"507":-0.3326783776283264,"508":-0.07419927418231964,"509":-0.03921915963292122,"510":-0.3250132203102112,"511":-0.2558525502681732,"512":0.21654805541038513,"513":-0.3154262900352478,"514":0.06076730042695999,"515":-0.04383368417620659,"516":-0.5184416174888611,"517":-0.04855015501379967,"518":0.5139219760894775,"519":0.3775385022163391,"520":-0.3914402723312378,"521":-0.24372629821300507,"522":0.2525421380996704,"523":0.2411225140094757,"524":0.20417146384716034,"525":-0.01026894524693489,"526":-0.1888502836227417,"527":-0.7230777144432068,"528":-0.35480839014053345,"529":0.0038869446143507957,"530":-0.0025663617998361588,"531":-0.5930240154266357,"532":-0.30295997858047485,"533":0.5492918491363525,"534":-0.007751166820526123,"535":0.21972255408763885,"536":-1.3210800886154175,"537":-1.2581608295440674,"538":-0.05265537649393082,"539":1.0556161403656006,"540":0.10805866122245789,"541":1.0543551445007324,"542":0.5077307224273682,"543":0.6404870748519897,"544":0.12757250666618347,"545":0.07629578560590744,"546":0.1346430480480194,"547":0.6644289493560791,"548":0.07131070643663406,"549":-0.6735140681266785,"550":0.24044208228588104,"551":0.22694255411624908,"552":0.05160496011376381,"553":0.3244018256664276,"554":-0.34529832005500793,"555":-0.1623491644859314,"556":-0.30426734685897827,"557":-0.7802305221557617,"558":-0.2494865506887436,"559":0.18628819286823273,"560":0.2972007393836975,"561":-0.33123302459716797,"562":0.3464323580265045,"563":0.9007391333580017,"564":0.5745834112167358,"565":0.30347323417663574,"566":-0.03525234013795853,"567":0.16920025646686554,"568":0.1587313860654831,"569":0.3852854371070862,"570":0.15267932415008545,"571":-0.9155208468437195,"572":-0.16583679616451263,"573":-0.5430492162704468,"574":-0.08386339247226715,"575":-0.7813310623168945,"576":0.14012394845485687,"577":-0.3517662286758423,"578":-0.16810864210128784,"579":0.21553342044353485,"580":-0.3513924777507782,"581":-0.8654192686080933,"582":0.6955040097236633,"583":0.6242958903312683,"584":0.6330498456954956,"585":0.5138267278671265,"586":-1.4115878343582153,"587":-0.5829291343688965,"588":-1.2645699977874756,"589":0.051999207586050034,"590":-1.1080344915390015,"591":0.0415441133081913,"592":-0.4495945870876312,"593":-0.9389547109603882,"594":0.3303641974925995,"595":0.8500252962112427,"596":0.24754716455936432,"597":0.5267189145088196,"598":0.2809944152832031,"599":-0.1159144714474678,"600":0.5109777450561523,"601":0.4173754155635834,"602":0.492000013589859,"603":-1.403318166732788,"604":-0.3646650016307831,"605":-0.6794909238815308,"606":-0.572510838508606,"607":-1.8366209268569946,"608":-0.3413642346858978,"609":-0.047743480652570724,"610":-0.2781636416912079,"611":0.33550506830215454,"612":0.13151773810386658,"613":-0.39893823862075806,"614":0.044711291790008545,"615":-0.018870525062084198,"616":0.20664510130882263,"617":0.3517271876335144,"618":-0.2670781910419464,"619":-0.05750013142824173,"620":-0.11858298629522324,"621":-0.10297027975320816,"622":-0.0832551121711731,"623":0.5193293690681458,"624":-0.35554444789886475,"625":-0.21140408515930176,"626":0.09002982825040817,"627":0.5134413838386536,"628":0.20025362074375153,"629":0.08465540409088135,"630":0.12047631293535233,"631":0.1577218621969223,"632":0.6070451140403748,"633":0.22454506158828735,"634":0.25525373220443726,"635":-0.8651579022407532,"636":-0.2908132076263428,"637":-0.3046300709247589,"638":-0.13920514285564423,"639":-0.901311457157135}},"outputHidden":{"rows":20,"columns":20,"weights":{"0":1.0757085084915161,"1":0.06515707075595856,"2":0.8662111759185791,"3":-0.6203258633613586,"4":-0.1923540085554123,"5":0.2017982453107834,