{"type":"LSTM","options":{"inputSize":33,"inputRange":33,"hiddenLayers":[20,20],"outputSize":33,"decayRate":0.999,"smoothEps":1e-8,"regc":0.000001,"clipval":5,"maxPredictionLength":100,"dataFormatter":{"values":["ah well","are you better than the older one","are you technoblade","correct","deez what sir","do you hate","do you like me?","dont miss them","he big brain","hello","hi","how are you","i big brain yes","i dont have a mom","i dont talk, i only send messages","im good","im not trained to hate anything/anyone","joe who sir","just a test.","my name is deez","not yet sadly","not yet, if you want an more polished company than me then `.chatbot old`","pls talk","search joe","sound good","sounds like something worked","test","the nuts","this is better","ur mom","why should i like you","yes"],"indexTable":{"a":0,"h":1," ":2,"w":3,"e":4,"l":5,"r":6,"y":7,"o":8,"u":9,"b":10,"t":11,"n":12,"d":13,"c":14,"z":15,"s":16,"i":17,"k":18,"m":19,"?":20,"g":21,"v":22,",":23,"/":24,"j":25,".":26,"f":27,"p":28,"`":29,"stop-input":30,"start-output":31,"unrecognized":32},"characterTable":{"0":"a","1":"h","2":" ","3":"w","4":"e","5":"l","6":"r","7":"y","8":"o","9":"u","10":"b","11":"t","12":"n","13":"d","14":"c","15":"z","16":"s","17":"i","18":"k","19":"m","20":"?","21":"g","22":"v","23":",","24":"/","25":"j","26":".","27":"f","28":"p","29":"`","30":null,"31":null,"32":null},"characters":["a","h"," ","w","e","l","r","y","o","u","b","t","n","d","c","z","s","i","k","m","?","g","v",",","/","j",".","f","p","`","stop-input","start-output","unrecognized"],"specialIndexes":[30,31,32]}},"input":{"rows":34,"columns":33,"weights":{"0":-0.1887189894914627,"1":0.0826459676027298,"2":-0.09192992746829987,"3":-0.04101584479212761,"4":0.24094048142433167,"5":0.009396173991262913,"6":0.25825047492980957,"7":-0.25195372104644775,"8":-0.07275675237178802,"9":0.08307495713233948,"10":0.06194831803441048,"11":0.10109284520149231,"12":0.2532839775085449,"13":-0.03894386440515518,"14":0.1911565363407135,"15":0.36715635657310486,"16":-0.10820566862821579,"17":0.1684899628162384,"18":0.22648538649082184,"19":-0.02072509005665779,"20":-0.07227553427219391,"21":-0.3914976716041565,"22":-0.02133556269109249,"23":-0.1235165074467659,"24":0.15767909586429596,"25":-0.26160258054733276,"26":-0.2225644886493683,"27":-0.191948801279068,"28":0.01891191303730011,"29":0.017684724181890488,"30":0.08920013159513474,"31":0.27624672651290894,"32":-0.2615981996059418,"33":-0.8026825189590454,"34":0.0289527028799057,"35":-0.36325642466545105,"36":-0.3912891149520874,"37":-0.45625826716423035,"38":-0.8658839464187622,"39":1.1528418064117432,"40":1.330335259437561,"41":-0.2648124098777771,"42":0.4972410798072815,"43":0.6129844784736633,"44":0.11796020716428757,"45":0.9193040728569031,"46":0.12768445909023285,"47":-0.4946461617946625,"48":-0.14579781889915466,"49":0.5136340856552124,"50":-1.5768097639083862,"51":0.37273073196411133,"52":0.4744325280189514,"53":-0.08587709069252014,"54":-0.1309567391872406,"55":-0.05566026270389557,"56":-0.12824678421020508,"57":-0.45693477988243103,"58":-0.4709761440753937,"59":0.7334231734275818,"60":0.7788892388343811,"61":-0.6067431569099426,"62":0.9936589598655701,"63":0.8321644067764282,"64":-0.33128440380096436,"65":-0.46004366874694824,"66":0.6392581462860107,"67":0.6073354482650757,"68":0.5616459846496582,"69":0.31665605306625366,"70":-0.09551303833723068,"71":0.7923596501350403,"72":-0.7128546833992004,"73":-0.1800934374332428,"74":-0.5625815391540527,"75":0.6025157570838928,"76":0.8247268795967102,"77":0.11472472548484802,"78":-0.7769089341163635,"79":-0.3468278646469116,"80":1.0478148460388184,"81":-0.7528289556503296,"82":1.4163925647735596,"83":0.8925504088401794,"84":0.33806946873664856,"85":0.629736065864563,"86":1.489242672920227,"87":0.13868366181850433,"88":0.32292285561561584,"89":0.4005548357963562,"90":0.5804761648178101,"91":0.8607662320137024,"92":-0.44679465889930725,"93":0.7096596360206604,"94":0.8345612287521362,"95":-0.9804067015647888,"96":-0.8433073163032532,"97":0.6534848213195801,"98":0.5165910124778748,"99":0.42743799090385437,"100":-0.10315854102373123,"101":0.025714512914419174,"102":0.07345249503850937,"103":-0.010562218725681305,"104":-0.11816565692424774,"105":-0.5103700160980225,"106":-0.057491451501846313,"107":-0.08583668619394302,"108":0.223731130361557,"109":-0.08106136322021484,"110":0.18806219100952148,"111":-0.5747724175453186,"112":0.31759655475616455,"113":0.08105213195085526,"114":-0.4388982355594635,"115":0.32236865162849426,"116":0.2651965320110321,"117":0.3244021236896515,"118":0.3444904088973999,"119":0.12403853237628937,"120":0.22965742647647858,"121":0.4092210829257965,"122":-0.13338522613048553,"123":0.09318694472312927,"124":-0.26560455560684204,"125":0.5123526453971863,"126":-0.1475541591644287,"127":0.054019469767808914,"128":-0.4636336863040924,"129":-0.3071635663509369,"130":0.2665017545223236,"131":-0.09472920745611191,"132":0.20565153658390045,"133":1.1877561807632446,"134":1.1557247638702393,"135":0.7269994020462036,"136":0.12667618691921234,"137":0.007724443916231394,"138":-0.402307391166687,"139":-0.6997734904289246,"140":-0.19328950345516205,"141":0.5023781657218933,"142":1.2977125644683838,"143":0.4148187041282654,"144":0.5791409015655518,"145":0.6277862787246704,"146":0.6866248250007629,"147":-1.410686731338501,"148":1.785524606704712,"149":-0.04283597320318222,"150":-0.2145378291606903,"151":0.3081473708152771,"152":-0.2210572212934494,"153":0.25876298546791077,"154":0.4495316743850708,"155":0.5330724716186523,"156":0.8764677047729492,"157":0.24626460671424866,"158":0.7846179604530334,"159":1.6628671884536743,"160":0.4236767888069153,"161":0.21349817514419556,"162":-0.7646327614784241,"163":0.36794644594192505,"164":0.3483099043369293,"165":0.5343112945556641,"166":-0.4706706702709198,"167":-0.23223423957824707,"168":0.15416671335697174,"169":-0.18426693975925446,"170":0.1510934680700302,"171":-0.465584933757782,"172":0.11712036281824112,"173":-0.3801305294036865,"174":1.5115556716918945,"175":0.5505180358886719,"176":0.9154056906700134,"177":-0.27257615327835083,"178":-0.9701408743858337,"179":0.5483825206756592,"180":-0.9818353652954102,"181":1.7906205654144287,"182":-0.4200291037559509,"183":0.7284260988235474,"184":1.7304519414901733,"185":0.9798895120620728,"186":-0.3137270510196686,"187":0.6195603609085083,"188":0.7918746471405029,"189":0.49751293659210205,"190":0.38748446106910706,"191":-1.1702593564987183,"192":1.440062403678894,"193":-0.2458951324224472,"194":0.20516297221183777,"195":0.47993290424346924,"196":-0.4979240596294403,"197":0.5670729279518127,"198":0.20718245208263397,"199":-1.5844532251358032,"200":-0.023376597091555595,"201":-0.3394344449043274,"202":-0.41329503059387207,"203":-0.3697400987148285,"204":1.4267935752868652,"205":3.2438766956329346,"206":-0.3527628481388092,"207":0.6181953549385071,"208":-1.5366466045379639,"209":-0.31495973467826843,"210":2.3656814098358154,"211":-0.07549010962247849,"212":-1.5758041143417358,"213":-0.3625679910182953,"214":1.120341420173645,"215":-3.125187873840332,"216":-0.10128400474786758,"217":-0.8091102242469788,"218":-0.035203564912080765,"219":-0.7454431056976318,"220":-0.25967997312545776,"221":0.7038319706916809,"222":-1.9596259593963623,"223":0.36905354261398315,"224":1.681904911994934,"225":0.6051891446113586,"226":-0.5034967660903931,"227":1.9635926485061646,"228":2.2971296310424805,"229":-1.4769481420516968,"230":1.0284698009490967,"231":0.4440620541572571,"232":0.7138544321060181,"233":-0.05877985432744026,"234":0.20659616589546204,"235":-1.0381031036376953,"236":0.749542236328125,"237":-0.640053927898407,"238":-0.5387182831764221,"239":-0.30223673582077026,"240":0.05598689988255501,"241":-0.24601997435092926,"242":0.6158078908920288,"243":-0.7087494134902954,"244":0.5744938254356384,"245":0.10565824806690216,"246":-0.8724329471588135,"247":0.21795326471328735,"248":0.7566695809364319,"249":0.1537816971540451,"250":0.019911905750632286,"251":-0.1264435201883316,"252":-1.518907904624939,"253":-0.19124914705753326,"254":-0.15959398448467255,"255":0.8904613256454468,"256":-0.6416782736778259,"257":1.502961277961731,"258":-1.1587119102478027,"259":-0.007418603636324406,"260":-1.4456037282943726,"261":-0.6076843738555908,"262":0.13783137500286102,"263":-0.09551175683736801,"264":0.5087223649024963,"265":-0.9466730952262878,"266":0.05951277166604996,"267":1.5354257822036743,"268":0.3760177791118622,"269":0.5440542697906494,"270":-0.4385167062282562,"271":-0.45462527871131897,"272":-0.9859781861305237,"273":1.3804340362548828,"274":-0.6461538076400757,"275":1.1474809646606445,"276":-0.2824236750602722,"277":0.6034850478172302,"278":-0.20581184327602386,"279":-0.7050856351852417,"280":0.4469469487667084,"281":0.13533872365951538,"282":0.7072018384933472,"283":0.062416255474090576,"284":0.139309361577034,"285":-0.397928923368454,"286":0.5780986547470093,"287":-0.17020335793495178,"288":0.42051103711128235,"289":0.4249207079410553,"290":0.13787579536437988,"291":0.45930084586143494,"292":0.4724302589893341,"293":-0.13122202455997467,"294":-0.3232797086238861,"295":-0.2521931529045105,"296":0.3728751838207245,"297":0.120213083922863,"298":-0.25099265575408936,"299":-0.7238450646400452,"300":0.24046823382377625,"301":-0.20232895016670227,"302":0.18621854484081268,"303":0.012941565364599228,"304":-0.0032126978039741516,"305":-0.49609556794166565,"306":0.5031011700630188,"307":0.3035852611064911,"308":0.7719559669494629,"309":-0.33844536542892456,"310":0.5803653001785278,"311":-0.22896067798137665,"312":-0.3607152998447418,"313":0.18627439439296722,"314":-0.39537671208381653,"315":0.6787524819374084,"316":0.6143507361412048,"317":0.15863685309886932,"318":-0.23585782945156097,"319":0.5025671124458313,"320":0.2697165608406067,"321":-0.016980446875095367,"322":-0.03302847966551781,"323":0.756333589553833,"324":0.694402277469635,"325":0.020083550363779068,"326":0.40865159034729004,"327":-0.20559857785701752,"328":0.09978527575731277,"329":0.2903299331665039,"330":0.0016465653898194432,"331":-1.1241143941879272,"332":-0.4859367907047272,"333":-0.6403546333312988,"334":1.3111578226089478,"335":-0.2944667339324951,"336":-0.5983492732048035,"337":-1.6736778020858765,"338":0.4058372378349304,"339":0.28452056646347046,"340":-0.050318580120801926,"341":0.6209114193916321,"342":1.8912712335586548,"343":0.09997417032718658,"344":0.26003947854042053,"345":-0.04399382695555687,"346":-0.11375973373651505,"347":0.3636056184768677,"348":-0.5215558409690857,"349":0.7810945510864258,"350":-1.6268483400344849,"351":1.1274276971817017,"352":-0.23356877267360687,"353":-1.1515690088272095,"354":0.6631216406822205,"355":-0.6874769330024719,"356":-0.33712512254714966,"357":0.8933730125427246,"358":-1.6094763278961182,"359":3.6914520263671875,"360":-1.721350073814392,"361":1.1349328756332397,"362":-0.7341487407684326,"363":1.5191906690597534,"364":-1.1875388622283936,"365":-0.11893267184495926,"366":1.8705514669418335,"367":0.45260778069496155,"368":0.7264976501464844,"369":-1.2872239351272583,"370":-1.6921792030334473,"371":-0.46172502636909485,"372":0.7801064848899841,"373":0.05642146244645119,"374":0.5991085171699524,"375":0.9391414523124695,"376":0.22038689255714417,"377":0.13620786368846893,"378":-1.7712823152542114,"379":1.90370774269104,"380":0.8109291791915894,"381":0.869764506816864,"382":3.3328640460968018,"383":0.5475577116012573,"384":0.8116433620452881,"385":0.7553998827934265,"386":0.3300849497318268,"387":1.1548844575881958,"388":-0.39377209544181824,"389":-1.2114579677581787,"390":1.4303467273712158,"391":0.04128267243504524,"392":-1.0412583351135254,"393":-1.0176455974578857,"394":0.6904724836349487,"395":0.9908363223075867,"396":1.3546634912490845,"397":1.5839200019836426,"398":1.1014482975006104,"399":-0.03149236738681793,"400":-0.26913923025131226,"401":1.3636256456375122,"402":-1.305290937423706,"403":-0.3592807650566101,"404":-0.9341384172439575,"405":0.18752197921276093,"406":1.0394006967544556,"407":0.48050835728645325,"408":0.8503561615943909,"409":-1.1661598682403564,"410":1.2847696542739868,"411":-0.3817448019981384,"412":0.30356115102767944,"413":1.529355764389038,"414":0.7604447603225708,"415":1.0952049493789673,"416":0.9107856750488281,"417":-1.1505365371704102,"418":1.3963626623153687,"419":0.6399176716804504,"420":-0.03779726102948189,"421":0.007146534044295549,"422":-0.40789124369621277,"423":-0.4982079565525055,"424":0.7513582110404968,"425":-1.5645954608917236,"426":-0.643726110458374,"427":0.049220629036426544,"428":0.918865978717804,"429":0.6339964270591736,"430":0.09641893208026886,"431":-0.0014716505538672209,"432":0.3465077877044678,"433":-0.13117441534996033,"434":1.690791368484497,"435":-1.5214529037475586,"436":-1.231204628944397,"437":-0.8443008065223694,"438":-0.07557977735996246,"439":0.3705943524837494,"440":0.05178917199373245,"441":-0.19704706966876984,"442":0.9217240214347839,"443":-0.06111396104097366,"444":-0.8429307341575623,"445":0.655067503452301,"446":1.2555712461471558,"447":0.7175782918930054,"448":0.35262006521224976,"449":-0.05670612305402756,"450":-0.23007573187351227,"451":0.16855747997760773,"452":0.6079680323600769,"453":0.2390052080154419,"454":-0.9845401644706726,"455":0.9419069886207581,"456":-0.32902318239212036,"457":0.3031448423862457,"458":-0.8255565166473389,"459":-0.5321053266525269,"460":0.7840745449066162,"461":1.1563713550567627,"462":-0.7135651111602783,"463":-1.0302512645721436,"464":1.0770682096481323,"465":-0.4157628118991852,"466":-0.7046858072280884,"467":-0.6429286003112793,"468":0.8875846266746521,"469":1.0603976249694824,"470":0.048092711716890335,"471":1.045972466468811,"472":1.6184256076812744,"473":1.3113759756088257,"474":-1.1236859560012817,"475":0.9686177372932434,"476":0.41467583179473877,"477":-1.5539124011993408,"478":0.5727288126945496,"479":-1.3964436054229736,"480":0.9034308791160583,"481":-0.14712625741958618,"482":0.41396236419677734,"483":-0.9441869258880615,"484":-0.9371261596679688,"485":1.4452016353607178,"486":1.30482017993927,"487":-0.19217681884765625,"488":1.529369831085205,"489":1.4791452884674072,"490":0.7009750604629517,"491":0.7571502923965454,"492":0.7308584451675415,"493":-1.0194578170776367,"494":-0.26311859488487244,"495":1.8905409574508667,"496":1.0796984434127808,"497":0.43771892786026,"498":-0.47653937339782715,"499":-1.5086965560913086,"500":2.1119394302368164,"501":-1.6516139507293701,"502":-0.8891820907592773,"503":-1.6582660675048828,"504":1.1973768472671509,"505":-0.057310353964567184,"506":1.3721964359283447,"507":-0.6429128050804138,"508":0.2858368158340454,"509":1.7546262741088867,"510":-0.8816746473312378,"511":0.704458475112915,"512":1.220662236213684,"513":1.9086352586746216,"514":2.142486572265625,"515":0.8246541023254395,"516":-2.4758613109588623,"517":-0.20869213342666626,"518":-0.36582550406455994,"519":1.3566988706588745,"520":-0.8397825956344604,"521":-0.7353414297103882,"522":-0.19750796258449554,"523":0.5011813044548035,"524":-1.5737793445587158,"525":-1.3330484628677368,"526":-1.2320648431777954,"527":2.592689275741577,"528":0.1237824410200119,"529":-1.045160174369812,"530":1.1221230030059814,"531":-1.088041067123413,"532":-0.6622748374938965,"533":-1.1420767307281494,"534":0.7929174304008484,"535":-2.2444756031036377,"536":-1.9650812149047852,"537":2.4012291431427,"538":0.38147157430648804,"539":2.474914073944092,"540":-3.232929229736328,"541":1.7027740478515625,"542":-1.4150041341781616,"543":-2.0128660202026367,"544":0.2817235589027405,"545":-0.5063798427581787,"546":0.5931377410888672,"547":1.807025671005249,"548":2.483525514602661,"549":-1.0643025636672974,"550":-0.47222432494163513,"551":0.6232653856277466,"552":0.9359973073005676,"553":-0.9748409390449524,"554":4.1744842529296875,"555":1.8019473552703857,"556":-3.0829579830169678,"557":4.211376190185547,"558":-0.9092511534690857,"559":-0.14265289902687073,"560":0.3933880031108856,"561":1.1044511795043945,"562":0.18996144831180573,"563":0.4183279871940613,"564":0.5132429599761963,"565":-0.23565027117729187,"566":-0.2166309654712677,"567":-0.8255475759506226,"568":-0.5304365158081055,"569":-0.45143401622772217,"570":0.7966185808181763,"571":0.940272331237793,"572":1.158799409866333,"573":-0.09198347479104996,"574":-0.33878713846206665,"575":0.14743810892105103,"576":-1.1883469820022583,"577":1.3542917966842651,"578":0.0890871211886406,"579":0.5816341638565063,"580":1.7944260835647583,"581":0.8665246367454529,"582":0.05106609687209129,"583":0.7047115564346313,"584":0.17471221089363098,"585":1.043347716331482,"586":-0.08245041966438293,"587":-0.876824140548706,"588":0.6025765538215637,"589":0.0892331525683403,"590":-0.2090318500995636,"591":-0.759060263633728,"592":0.3085121214389801,"593":0.21831493079662323,"594":0.22341811656951904,"595":-0.8935290575027466,"596":0.022774551063776016,"597":-0.5846089124679565,"598":0.02125149592757225,"599":-0.16192205250263214,"600":0.9861725568771362,"601":1.258566975593567,"602":-0.27216097712516785,"603":0.19969366490840912,"604":-0.5857641696929932,"605":-0.08407116681337357,"606":0.8750535845756531,"607":-0.06531274318695068,"608":-0.8765537142753601,"609":0.1241130530834198,"610":-0.007268255110830069,"611":-1.9804013967514038,"612":-0.28583869338035583,"613":-0.2589949071407318,"614":0.08568012714385986,"615":-0.6504098176956177,"616":-0.37791118025779724,"617":-0.0564667284488678,"618":-0.8416212201118469,"619":-0.03410874307155609,"620":0.3804384171962738,"621":0.24125735461711884,"622":-1.0771774053573608,"623":1.4091123342514038,"624":0.6614437103271484,"625":-0.911492645740509,"626":-0.0866992324590683,"627":0.1780817061662674,"628":-0.557854950428009,"629":-0.8710945844650269,"630":-0.5824645161628723,"631":0.09434368461370468,"632":-1.3245583772659302,"633":0.5373989939689636,"634":0.6336390376091003,"635":-0.6322252750396729,"636":-0.5818417072296143,"637":1.4703843593597412,"638":-0.18061234056949615,"639":0.13824303448200226,"640":0.48867252469062805,"641":-1.2488536834716797,"642":0.48551228642463684,"643":-0.657359778881073,"644":-0.8165863156318665,"645":-0.16407369077205658,"646":0.34054210782051086,"647":-0.7605279684066772,"648":1.4854538440704346,"649":-0.8313498497009277,"650":-0.4468481242656708,"651":-1.4541046619415283,"652":-0.9691191911697388,"653":0.2527628242969513,"654":1.1690175533294678,"655":-1.4675816297531128,"656":1.9176249504089355,"657":1.7115801572799683,"658":0.13660752773284912,"659":-0.725229799747467,"660":-1.3577090501785278,"661":0.11223338544368744,"662":0.9353492259979248,"663":1.0307365655899048,"664":-0.297326922416687,"665":0.44992369413375854,"666":0.1804470419883728,"667":-0.2503659725189209,"668":-0.37683868408203125,"669":0.9263610243797302,"670":0.26962631940841675,"671":0.5062520503997803,"672":-0.48282328248023987,"673":0.427970826625824,"674":0.580988347530365,"675":-1.6485300064086914,"676":2.14249849319458,"677":-0.05953413248062134,"678":0.06209128722548485,"679":-0.43735185265541077,"680":0.5936463475227356,"681":0.35690394043922424,"682":0.08743250370025635,"683":0.6881756782531738,"684":1.1813101768493652,"685":-0.20304162800312042,"686":1.5646858215332031,"687":0.26251348853111267,"688":0.8919851183891296,"689":-0.4530673623085022,"690":-0.5808023810386658,"691":-0.005657409783452749,"692":0.3171405494213104,"693":-1.7562644481658936,"694":-0.12169857323169708,"695":-0.33616843819618225,"696":-0.8953525424003601,"697":0.8985456228256226,"698":-2.4835691452026367,"699":0.5451784133911133,"700":0.09759397804737091,"701":1.2134623527526855,"702":0.3210986256599426,"703":-2.1203129291534424,"704":-0.6610957980155945,"705":1.5394394397735596,"706":3.0534510612487793,"707":-1.185549020767212,"708":-2.9885783195495605,"709":2.430025815963745,"710":-2.6284828186035156,"711":-0.9955840706825256,"712":-1.151573896408081,"713":-2.1929118633270264,"714":-2.637768268585205,"715":-2.389868974685669,"716":2.58720326423645,"717":-1.9469598531723022,"718":0.5427582263946533,"719":2.380054473876953,"720":-0.5114734768867493,"721":-2.0700337886810303,"722":6.514990329742432,"723":0.8548434972763062,"724":-1.8171926736831665,"725":0.7201599478721619,"726":0.5920430421829224,"727":1.0086289644241333,"728":1.0131882429122925,"729":0.019617877900600433,"730":0.14092454314231873,"731":-0.11682889610528946,"732":-0.8699297904968262,"733":-0.398828387260437,"734":-0.07167693227529526,"735":0.23682527244091034,"736":2.2308461666107178,"737":0.9982153177261353,"738":-0.72346431016922,"739":-0.7950085997581482,"740":0.785424530506134,"741":-1.9679737091064453,"742":1.3060927391052246,"743":0.09511816501617432,"744":0.3974998891353607,"745":0.8780004382133484,"746":0.9972089529037476,"747":-0.8694025278091431,"748":0.3149561285972595,"749":0.13716422021389008,"750":0.7603939771652222,"751":0.1462797075510025,"752":-0.08501924574375153,"753":-1.0882787704467773,"754":0.5979373455047607,"755":-0.29685333371162415,"756":-0.4620479941368103,"757":0.2624374032020569,"758":-0.1286790519952774,"759":0.37486639618873596,"760":0.21468201279640198,"761":0.3705984055995941,"762":1.1681784391403198,"763":0.5558632016181946,"764":-0.12037598341703415,"765":-1.2392240762710571,"766":-0.2670378088951111,"767":0.9362346529960632,"768":0.46033352613449097,"769":0.44494539499282837,"770":1.128344178199768,"771":1.3593041896820068,"772":-0.955940306186676,"773":-0.09086335450410843,"774":-1.2008529901504517,"775":0.9505718350410461,"776":0.4918804168701172,"777":1.1819015741348267,"778":0.3097425401210785,"779":-1.1280452013015747,"780":-2.065192461013794,"781":0.9938529133796692,"782":3.1148922443389893,"783":-0.3120940625667572,"784":-2.160071611404419,"785":-1.378294587135315,"786":0.3133833706378937,"787":0.3278225064277649,"788":-0.8673354983329773,"789":1.7370232343673706,"790":0.46668148040771484,"791":0.13380807638168335,"792":0.10107531398534775,"793":-0.29775965213775635,"794":1.3372149467468262,"795":3.069643497467041,"796":-0.7143742442131042,"797":1.087341547012329,"798":0.7886624336242676,"799":2.6677849292755127,"800":-1.7144782543182373,"801":1.0084545612335205,"802":-0.0757061094045639,"803":1.1414662599563599,"804":1.0575789213180542,"805":-0.36500614881515503,"806":-0.46316513419151306,"807":-3.2612173557281494,"808":4.435460090637207,"809":-1.7186758518218994,"810":-0.07724463194608688,"811":1.195071816444397,"812":1.0515477657318115,"813":-0.697789192199707,"814":1.7658652067184448,"815":2.7112505435943604,"816":-0.2240195870399475,"817":0.642123818397522,"818":0.015519035048782825,"819":1.1979892253875732,"820":2.0234055519104004,"821":-0.641191840171814,"822":0.42152103781700134,"823":-1.2788985967636108,"824":2.0898423194885254,"825":2.335536003112793,"826":0.9409826993942261,"827":-1.1297789812088013,"828":2.166933536529541,"829":-1.0352234840393066,"830":-0.08672623336315155,"831":-2.0139105319976807,"832":-1.956085205078125,"833":-0.22182932496070862,"834":0.980769693851471,"835":3.5489859580993652,"836":-1.427581548690796,"837":0.9475383758544922,"838":2.722604513168335,"839":1.7758625745773315,"840":-2.1318740844726562,"841":2.04701828956604,"842":1.4593632221221924,"843":1.6249816417694092,"844":2.0325357913970947,"845":-0.06016583368182182,"846":-0.4014517366886139,"847":-3.206838369369507,"848":0.17664147913455963,"849":1.255667805671692,"850":-2.206730842590332,"851":3.815645456314087,"852":-0.16059008240699768,"853":0.7835930585861206,"854":2.6629979610443115,"855":-1.8457837104797363,"856":1.5068824291229248,"857":1.2293239831924438,"858":0.29658013582229614,"859":-1.9001322984695435,"860":0.015413076616823673,"861":0.6953175067901611,"862":0.1145668625831604,"863":-1.455446720123291,"864":0.28590261936187744,"865":0.5144163370132446,"866":-0.045169930905103683,"867":0.8174903988838196,"868":0.7742698192596436,"869":0.9760327935218811,"870":1.4254597425460815,"871":0.282254695892334,"872":-0.13527913391590118,"873":-0.9090976119041443,"874":0.4879997670650482,"875":-1.8974578380584717,"876":-0.11145361512899399,"877":1.5183203220367432,"878":0.39448490738868713,"879":-1.0009406805038452,"880":-0.03615139424800873,"881":-0.21541516482830048,"882":1.95054292678833,"883":-1.0850014686584473,"884":-0.45705950260162354,"885":1.5942020416259766,"886":0.04887313395738602,"887":1.245837926864624,"888":-0.05298108980059624,"889":0.4589516818523407,"890":-0.7305272221565247,"891":-0.5149341225624084,"892":-2.1473982334136963,"893":-1.6597899198532104,"894":1.4447972774505615,"895":1.6074609756469727,"896":-0.6012501120567322,"897":1.503730058670044,"898":2.2424838542938232,"899":-0.33000317215919495,"900":1.7350833415985107,"901":-1.717387080192566,"902":1.330726981163025,"903":1.2869268655776978,"904":-0.7085394859313965,"905":0.6967481374740601,"906":-0.7193993926048279,"907":0.332387775182724,"908":-5.487277984619141,"909":0.9117358922958374,"910":0.18350538611412048,"911":0.12964990735054016,"912":-3.1949622631073,"913":-1.1816015243530273,"914":-0.07912968844175339,"915":0.18350118398666382,"916":0.41690611839294434,"917":-0.5412473678588867,"918":-0.7252210378646851,"919":-1.9279488325119019,"920":0.9074772000312805,"921":1.5207328796386719,"922":-2.957235336303711,"923":0.691909670829773,"924":-1.4409730434417725,"925":1.3385454416275024,"926":0.6767663955688477,"927":-2.272714853286743,"928":1.0673550367355347,"929":1.1562508344650269,"930":-0.23630301654338837,"931":1.6656272411346436,"932":-0.19096632301807404,"933":0.8295886516571045,"934":0.12289861589670181,"935":0.44376158714294434,"936":-0.06866583973169327,"937":-0.48912107944488525,"938":0.5786555409431458,"939":0.4691520035266876,"940":-0.7385363578796387,"941":-2.3819844722747803,"942":0.6192707419395447,"943":-0.3320166766643524,"944":0.3031085133552551,"945":0.6920730471611023,"946":-0.17405128479003906,"947":3.0741515159606934,"948":-1.7222996950149536,"949":-0.628178060054779,"950":-0.8928248882293701,"951":-0.7463629245758057,"952":-1.4864636659622192,"953":0.6175549030303955,"954":1.0176198482513428,"955":-0.7006546258926392,"956":2.037111282348633,"957":-0.36402615904808044,"958":1.6291325092315674,"959":2.0839672088623047,"960":0.9999579787254333,"961":-1.2937288284301758,"962":1.0467108488082886,"963":0.6845948696136475,"964":-0.4866979718208313,"965":-0.44979995489120483,"966":-0.11061174422502518,"967":2.105407476425171,"968":0.7326502203941345,"969":0.6984905004501343,"970":-1.054160237312317,"971":1.7735400199890137,"972":-1.5741922855377197,"973":2.5938398838043213,"974":1.2235392332077026,"975":-0.24783442914485931,"976":0.022139154374599457,"977":0.6847831606864929,"978":-2.6719741821289062,"979":0.264968603849411,"980":0.6769995093345642,"981":0.3461080491542816,"982":0.7731136679649353,"983":-0.6989172697067261,"984":1.4509549140930176,"985":2.3423831462860107,"986":-1.3835760354995728,"987":-0.9747884273529053,"988":-0.6136996150016785,"989":0.8198481798171997,"990":-0.9896417260169983,"991":-3.1802167892456055,"992":-2.3159704208374023,"993":-0.4551876485347748,"994":1.2897274494171143,"995":-2.483794927597046,"996":1.1505221128463745,"997":-3.458343267440796,"998":0.2740457355976105,"999":0.668204128742218,"1000":-3.205782175064087,"1001":-0.3208276033401489,"1002":1.8617721796035767,"1003":-0.184684157371521,"1004":-2.7030043601989746,"1005":-1.5627187490463257,"1006":2.3708081245422363,"1007":-1.4969346523284912,"1008":-1.8226110935211182,"1009":0.7123169302940369,"1010":-0.888221025466919,"1011":-0.9803539514541626,"1012":-2.7096524238586426,"1013":-2.9679720401763916,"1014":3.2384424209594727,"1015":-0.249606192111969,"1016":0.0439072921872139,"1017":0.061437878757715225,"1018":-5.464454174041748,"1019":3.335442304611206,"1020":-1.085262417793274,"1021":2.6111936569213867,"1022":-0.9492295980453491,"1023":0.3243044912815094,"1024":-0.8140195608139038,"1025":-1.0529403686523438,"1026":-1.0826475620269775,"1027":-0.044181063771247864,"1028":-0.9741367697715759,"1029":-0.08874915540218353,"1030":-1.3908250331878662,"1031":0.6090996861457825,"1032":0.029165558516979218,"1033":0.11293885856866837,"1034":-0.12542930245399475,"1035":-0.44455230236053467,"1036":0.28182727098464966,"1037":-0.6502445340156555,"1038":-0.6296349167823792,"1039":0.4351454973220825,"1040":0.49824753403663635,"1041":-0.6248742341995239,"1042":0.8040099740028381,"1043":-0.40615811944007874,"1044":0.45379191637039185,"1045":-0.1287875473499298,"1046":-1.4517754316329956,"1047":0.8433461785316467,"1048":-0.13960625231266022,"1049":0.2937825620174408,"1050":0.3795379400253296,"1051":-1.4075428247451782,"1052":0.3237914741039276,"1053":-0.7653743028640747,"1054":1.1171211004257202,"1055":-1.19704008102417,"1056":0.30248183012008667,"1057":-0.5804481506347656,"1058":-0.5678449869155884,"1059":-0.010121442377567291,"1060":0.10311881452798843,"1061":-0.3081621527671814,"1062":0.06770611554384232,"1063":-0.40887829661369324,"1064":0.05492377653717995,"1065":-0.10744084417819977,"1066":-0.10604456812143326,"1067":0.15708869695663452,"1068":0.4081111550331116,"1069":0.07588937878608704,"1070":-0.2294142097234726,"1071":0.29849973320961,"1072":-0.3368305563926697,"1073":-0.05556640774011612,"1074":0.02946440503001213,"1075":0.5128445029258728,"1076":-0.3348214030265808,"1077":0.23360660672187805,"1078":-0.6078446507453918,"1079":-0.5806686878204346,"1080":-0.24546195566654205,"1081":-0.22951814532279968,"1082":-0.10149845480918884,"1083":0.2639467120170593,"1084":-0.7246454358100891,"1085":0.27734506130218506,"1086":0.611903727054596,"1087":0.3614368438720703,"1088":-0.4840206205844879,"1089":0.03947354108095169,"1090":0.013703344389796257,"1091":-0.07019121944904327,"1092":0.023432087153196335,"1093":0.04513783007860184,"1094":-0.06388283520936966,"1095":0.07087118178606033,"1096":0.07277209311723709,"1097":-0.013622010126709938,"1098":0.03542269766330719,"1099":0.005280015990138054,"1100":0.022607550024986267,"1101":0.019517118111252785,"1102":0.06606794148683548,"1103":-0.04912262409925461,"1104":0.03723936900496483,"1105":-0.011505485512316227,"1106":-0.032114677131175995,"1107":-0.00497419061139226,"1108":0.03078286163508892,"1109":-0.013549049384891987,"1110":-0.01961284503340721,"1111":0.062094155699014664,"1112":0.026448532938957214,"1113":0.05118570104241371,"1114":-0.0022187037393450737,"1115":-0.01582431234419346,"1116":-0.000154873778228648,"1117":-0.03562723100185394,"1118":-0.007789209019392729,"1119":-0.07231057435274124,"1120":-0.0030725225806236267,"1121":0.04423672705888748}},"hiddenLayers":[{"inputMatrix":{"rows":20,"columns":33,"weights":{"0":0.5663909316062927,"1":-1.0204875469207764,"2":-0.1402694135904312,"3":0.11046377569437027,"4":-0.4445509612560272,"5":-0.39042019844055176,"6":-0.07827509939670563,"7":-0.2609540820121765,"8":0.03448610007762909,"9":0.33787351846694946,"10":0.018641358241438866,"11":0.5562682747840881,"12":-0.08324844390153885,"13":-0.0987352579832077,"14":-0.42622822523117065,"15":-0.44706636667251587,"16":0.4160709083080292,"17":-0.18393927812576294,"18":0.05512045696377754,"19":0.12234682589769363,"20":0.5961108803749084,"21":-0.18898671865463257,"22":0.2346341609954834,"23":-0.30263984203338623,"24":0.3786349892616272,"25":0.2992609739303589,"26":-0.18493831157684326,"27":0.3393583297729492,"28":-0.3311659097671509,"29":0.3276601731777191,"30":-0.565303385257721,"31":0.27149713039398193,"32":-0.3306658864021301,"33":-0.5831349492073059,"34":-0.20879769325256348,"35":0.20585297048091888,"36":0.5288826823234558,"37":-0.32124194502830505,"38":0.09895981848239899,"39":-0.07339994609355927,"40":-0.11116110533475876,"41":-0.3311348855495453,"42":0.8698611259460449,"43":-0.05160053074359894,"44":0.4048505425453186,"45":-0.42830702662467957,"46":-0.6290570497512817,"47":0.595194399356842,"48":-0.601948082447052,"49":0.8241456747055054,"50":-0.023010198026895523,"51":0.5361348986625671,"52":-0.0881236121058464,"53":1.0710196495056152,"54":-0.8694615364074707,"55":-0.16950723528862,"56":0.04974303022027016,"57":0.4495454430580139,"58":0.7638137340545654,"59":-0.7880489826202393,"60":0.14877226948738098,"61":0.041099827736616135,"62":0.27953898906707764,"63":-0.16734211146831512,"64":0.2530614137649536,"65":-0.02972915768623352,"66":0.8209316730499268,"67":-0.9022423624992371,"68":-0.4201129674911499,"69":0.05231786146759987,"70":-0.7353521585464478,"71":-0.19515858590602875,"72":0.2581333518028259,"73":0.22802473604679108,"74":-0.8176805973052979,"75":1.5400007963180542,"76":-0.07988831400871277,"77":1.182889461517334,"78":0.12460537254810333,"79":0.048373255878686905,"80":-0.10910941660404205,"81":-0.06808699667453766,"82":0.3572258949279785,"83":-0.21023812890052795,"84":1.0921003818511963,"85":0.9864702224731445,"86":0.8949811458587646,"87":-1.2216451168060303,"88":0.003834822680801153,"89":-1.258054494857788,"90":0.3912041485309601,"91":0.0732312873005867,"92":-0.22698287665843964,"93":0.5974099040031433,"94":-0.062269147485494614,"95":0.017089296132326126,"96":-0.03106582723557949,"97":0.19967268407344818,"98":-0.5950298309326172,"99":0.7736906409263611,"100":-1.2229722738265991,"101":-0.6093122959136963,"102":-0.24059057235717773,"103":0.16363245248794556,"104":0.48576563596725464,"105":-0.2697477340698242,"106":-0.04959999397397041,"107":-0.4305146038532257,"108":0.4018937945365906,"109":-0.33252203464508057,"110":0.12055537104606628,"111":0.30237093567848206,"112":-0.4451114237308502,"113":-0.44958075881004333,"114":0.023501185700297356,"115":0.11323534697294235,"116":-0.025984201580286026,"117":0.6979460716247559,"118":0.18420563638210297,"119":0.20969314873218536,"120":-0.2609539031982422,"121":0.16323192417621613,"122":-0.028010284528136253,"123":-0.15984702110290527,"124":0.15852069854736328,"125":-0.4601583182811737,"126":0.23251107335090637,"127":-0.4344063997268677,"128":0.09616828709840775,"129":0.2522438168525696,"130":-0.20554187893867493,"131":0.8061167001724243,"132":-0.43994396924972534,"133":0.15096043050289154,"134":0.6719026565551758,"135":-0.28622376918792725,"136":0.06602898985147476,"137":-0.1972476691007614,"138":0.1362442672252655,"139":0.3913458585739136,"140":-0.11915988475084305,"141":0.7565115690231323,"142":-0.05633455142378807,"143":0.8108680844306946,"144":0.4338703155517578,"145":-0.46929803490638733,"146":0.30945271253585815,"147":-0.41592201590538025,"148":0.43706339597702026,"149":-0.6590351462364197,"150":0.2607535719871521,"151":0.235280841588974,"152":0.24938374757766724,"153":-1.4577223062515259,"154":0.12257181853055954,"155":-0.18082356452941895,"156":-0.16111551225185394,"157":-0.1932491660118103,"158":-0.2993164360523224,"159":0.5328950881958008,"160":0.06984846293926239,"161":0.5856321454048157,"162":0.14550647139549255,"163":-0.6819868087768555,"164":-0.15466301143169403,"165":-0.22021374106407166,"166":0.24178104102611542,"167":0.9910622835159302,"168":0.18123196065425873,"169":-0.5119766592979431,"170":0.34633129835128784,"171":-0.11856763809919357,"172":-0.16860830783843994,"173":-0.3279537558555603,"174":0.5276400446891785,"175":0.2864907681941986,"176":0.6319544911384583,"177":-0.8632023930549622,"178":-1.1134095191955566,"179":0.42998650670051575,"180":-1.3757495880126953,"181":1.0431609153747559,"182":-0.0050585707649588585,"183":0.6956819891929626,"184":0.6007190346717834,"185":1.5657262802124023,"186":-0.14703720808029175,"187":-0.7110193371772766,"188":0.8875918388366699,"189":0.7673969864845276,"190":0.007188532501459122,"191":-0.7896773815155029,"192":0.46616536378860474,"193":0.20618422329425812,"194":-0.4845573604106903,"195":-0.16984808444976807,"196":-0.21931427717208862,"197":0.2305583357810974,"198":0.09636732935905457,"199":0.005275425501167774,"200":0.018310442566871643,"201":0.28110963106155396,"202":-0.16685877740383148,"203":-0.13329213857650757,"204":-0.6899203658103943,"205":-0.5995000004768372,"206":-0.7191761136054993,"207":1.4397035837173462,"208":0.9253700971603394,"209":1.6801248788833618,"210":-0.7672443985939026,"211":0.2852025330066681,"212":0.4403455853462219,"213":-1.1977189779281616,"214":1.3068829774856567,"215":0.22327680885791779,"216":0.8182589411735535,"217":1.3616405725479126,"218":1.4317845106124878,"219":-0.11994411796331406,"220":1.1624300479888916,"221":-0.6873457431793213,"222":0.6499130129814148,"223":0.32961684465408325,"224":0.15406252443790436,"225":0.8938076496124268,"226":0.09697852283716202,"227":0.11405352503061295,"228":-0.6695957779884338,"229":0.729638934135437,"230":-0.3594716489315033,"231":-0.015513153746724129,"232":0.17324267327785492,"233":-0.04497271776199341,"234":-0.2210194170475006,"235":-0.515977680683136,"236":-0.1906074583530426,"237":0.46226415038108826,"238":-0.3794601559638977,"239":-0.1125066876411438,"240":0.1704081892967224,"241":0.36428630352020264,"242":0.4101406931877136,"243":0.3759351372718811,"244":0.9236717224121094,"245":-0.6879115104675293,"246":-0.6180059313774109,"247":0.4201659560203552,"248":0.1854322850704193,"249":0.21606390178203583,"250":0.185089111328125,"251":-0.06814011186361313,"252":0.2500797212123871,"253":0.02775765024125576,"254":0.044458892196416855,"255":-0.0812857523560524,"256":-1.0108399391174316,"257":0.9845185279846191,"258":0.39337119460105896,"259":0.22647340595722198,"260":0.17520324885845184,"261":-0.3332412540912628,"262":0.3725266754627228,"263":0.11389461904764175,"264":0.24198050796985626,"265":-0.5017232298851013,"266":0.19208930432796478,"267":0.11318017542362213,"268":-0.3237853944301605,"269":0.08145520091056824,"270":0.00488263089209795,"271":-0.027289696037769318,"272":-0.3768448233604431,"273":0.3915918171405792,"274":0.4609178900718689,"275":0.7517467737197876,"276":-0.29460179805755615,"277":0.11327521502971649,"278":-0.1325121521949768,"279":-0.6066986322402954,"280":-0.04610954970121384,"281":-0.598561704158783,"282":0.41422605514526367,"283":0.40461069345474243,"284":-0.04138902202248573,"285":-0.6120555996894836,"286":0.17130234837532043,"287":-0.021879203617572784,"288":-0.0027860987465828657,"289":-0.33931487798690796,"290":0.4520012438297272,"291":0.39389652013778687,"292":0.12150038778781891,"293":0.24799680709838867,"294":0.18299457430839539,"295":-0.10325503349304199,"296":-0.09965746104717255,"297":0.13005001842975616,"298":-0.573548436164856,"299":0.12981149554252625,"300":0.7088279724121094,"301":-0.4670104384422302,"302":0.5450083613395691,"303":-0.22198578715324402,"304":-0.7134692072868347,"305":-0.7886232137680054,"306":1.1113578081130981,"307":0.25924059748649597,"308":1.148483395576477,"309":-0.5633358359336853,"310":0.2408275008201599,"311":-0.15943489968776703,"312":-0.99006187915802,"313":0.8468143939971924,"314":0.2224503606557846,"315":0.23576365411281586,"316":0.43615010380744934,"317":1.5025047063827515,"318":-0.44435274600982666,"319":0.3290576636791229,"320":-0.2840757369995117,"321":0.6754518151283264,"322":1.061471939086914,"323":-0.5935843586921692,"324":0.6291804909706116,"325":-0.09450454264879227,"326":-0.007537974044680595,"327":-0.7618754506111145,"328":0.4629153609275818,"329":0.34421637654304504,"330":-0.23277530074119568,"331":0.903770923614502,"332":-0.08309399336576462,"333":-0.625410258769989,"334":-0.24604834616184235,"335":0.4925520122051239,"336":0.017923451960086823,"337":-0.3419815003871918,"338":-0.42443639039993286,"339":0.5304177403450012,"340":0.2756943106651306,"341":0.6137966513633728,"342":-0.22420577704906464,"343":-0.00019144619000144303,"344":-0.2817123234272003,"345":-0.10587389022111893,"346":0.12914671003818512,"347":-0.03191283345222473,"348":0.3644099235534668,"349":0.26550671458244324,"350":0.023660501465201378,"351":-1.1725928783416748,"352":0.08689597994089127,"353":0.25559452176094055,"354":-0.15219275653362274,"355":-1.1418331861495972,"356":0.33419936895370483,"357":0.7522820830345154,"358":-0.6977918744087219,"359":0.3607920706272125,"360":0.18578658998012543,"361":-0.2687934935092926,"362":0.1542046219110489,"363":0.09116730839014053,"364":-0.5134598016738892,"365":-0.17632372677326202,"366":-0.2956700623035431,"367":-0.4999205768108368,"368":0.2962453365325928,"369":-0.19055791199207306,"370":-0.2769629955291748,"371":-0.4232883155345917,"372":0.6766715049743652,"373":0.12383504211902618,"374":1.0783584117889404,"375":-0.6069821119308472,"376":-0.16357769072055817,"377":-0.46132275462150574,"378":-0.17639821767807007,"379":-0.23684270679950714,"380":-0.15200240910053253,"381":0.5920949578285217,"382":0.5122660398483276,"383":0.2511766850948334,"384":-0.8212938904762268,"385":0.11512730270624161,"386":-0.39381229877471924,"387":0.08887261897325516,"388":0.2966213524341583,"389":-0.2070825845003128,"390":0.358654260635376,"391":-0.5402003526687622,"392":0.184050515294075,"393":-0.0105862095952034,"394":-0.050355665385723114,"395":-0.3100760281085968,"396":-0.34050723910331726,"397":0.24177846312522888,"398":0.33526259660720825,"399":-0.4528499245643616,"400":0.03983154892921448,"401":0.12427222728729248,"402":-0.1276015192270279,"403":-0.13391216099262238,"404":-0.4564308226108551,"405":0.3907322585582733,"406":-0.335826575756073,"407":0.5528535842895508,"408":-0.6194815635681152,"409":-0.372905969619751,"410":0.3901751935482025,"411":-0.5793253183364868,"412":0.5075916051864624,"413":0.09657587856054306,"414":1.0708125829696655,"415":0.41900190711021423,"416":-0.0006138932076282799,"417":0.5320318341255188,"418":-0.8303274512290955,"419":0.829509437084198,"420":0.6676887273788452,"421":-1.0171383619308472,"422":-0.1851014941930771,"423":-0.22392655909061432,"424":-0.1402721256017685,"425":-0.15961630642414093,"426":0.015505170449614525,"427":-0.19540315866470337,"428":0.38229528069496155,"429":-0.8529806137084961,"430":-0.451143741607666,"431":-0.08492828160524368,"432":0.32059159874916077,"433":-0.7535459995269775,"434":0.21429084241390228,"435":-0.36077508330345154,"436":-0.6786381602287292,"437":-0.8244533538818359,"438":1.5255482196807861,"439":0.4210372567176819,"440":1.246931791305542,"441":-0.3965633511543274,"442":0.18462958931922913,"443":-0.012343291193246841,"444":-0.9519950151443481,"445":1.1156855821609497,"446":0.16905564069747925,"447":0.7954367995262146,"448":0.8363406658172607,"449":1.0329036712646484,"450":-0.2766445279121399,"451":0.16807547211647034,"452":-0.21807630360126495,"453":0.542029857635498,"454":0.3669339716434479,"455":0.1993226855993271,"456":1.3094171285629272,"457":-0.27283525466918945,"458":0.16989311575889587,"459":-0.652971088886261,"460":0.34383678436279297,"461":0.15234783291816711,"462":0.4330034554004669,"463":-0.7414731979370117,"464":-0.25672999024391174,"465":0.5379259586334229,"466":-0.10277167707681656,"467":0.12739233672618866,"468":0.28603246808052063,"469":0.10750683397054672,"470":-0.5872328281402588,"471":0.4245910346508026,"472":-0.07889461517333984,"473":1.2714182138442993,"474":0.11822441965341568,"475":-0.6972489356994629,"476":-0.510084331035614,"477":-0.10940907150506973,"478":0.1179209053516388,"479":-0.7178159952163696,"480":0.5492568612098694,"481":0.15922625362873077,"482":0.6494107246398926,"483":-0.1786493957042694,"484":-0.3623826503753662,"485":0.19009073078632355,"486":-0.030948147177696228,"487":0.32517698407173157,"488":-0.8228704929351807,"489":0.48000943660736084,"490":-0.3433833122253418,"491":-0.033041637390851974,"492":0.2670052647590637,"493":-0.37075865268707275,"494":0.004427062813192606,"495":-0.04114726185798645,"496":-0.012076718732714653,"497":-0.22102521359920502,"498":0.15466970205307007,"499":0.23644393682479858,"500":0.04758208245038986,"501":0.05947428569197655,"502":-0.09554751962423325,"503":0.1550484001636505,"504":-0.15191763639450073,"505":-0.05016835778951645,"506":-0.27520042657852173,"507":0.2967813014984131,"508":0.1737518310546875,"509":-0.40543997287750244,"510":-0.2250155657529831,"511":0.2000560462474823,"512":0.09755565226078033,"513":-0.22685423493385315,"514":-0.006693662144243717,"515":-0.4265824854373932,"516":0.11298276484012604,"517":-0.2398076355457306,"518":-0.19370326399803162,"519":-0.37217095494270325,"520":-0.5024808645248413,"521":0.9905001521110535,"522":-0.1813935786485672,"523":0.12265884131193161,"524":0.2731667757034302,"525":0.19231101870536804,"526":0.19629190862178802,"527":-0.19548335671424866,"528":0.05696558207273483,"529":-0.6449348330497742,"530":-0.027474068105220795,"531":-0.45814305543899536,"532":-0.586868166923523,"533":-0.1727844625711441,"534":0.1597399115562439,"535":-0.1712489277124405,"536":-0.42427098751068115,"537":0.720702052116394,"538":-0.11023387312889099,"539":1.676632046699524,"540":-0.3262217342853546,"541":-0.5161128044128418,"542":-0.40916669368743896,"543":-0.891470730304718,"544":0.6146464943885803,"545":-0.36811041831970215,"546":-0.29679644107818604,"547":1.114889144897461,"548":0.1271386593580246,"549":-0.4675137400627136,"550":-0.19699734449386597,"551":-0.14113502204418182,"552":0.5215054750442505,"553":-0.16582727432250977,"554":-0.2570556104183197,"555":0.9857722520828247,"556":-0.6116842031478882,"557":-0.059167493134737015,"558":0.271707683801651,"559":-0.3477730453014374,"560":-0.364645779132843,"561":0.14093521237373352,"562":-0.029933473095297813,"563":-0.4902714788913727,"564":-0.39033055305480957,"565":-0.013855534605681896,"566":0.1509460210800171,"567":-0.25367653369903564,"568":-0.6159692406654358,"569":-0.4093925952911377,"570":0.12160717695951462,"571":0.41732707619667053,"572":0.5931253433227539,"573":-0.3553079664707184,"574":0.2043798416852951,"575":-0.1495054066181183,"576":-0.15875880420207977,"577":0.14137046039104462,"578":0.26409950852394104,"579":1.1249349117279053,"580":0.6280653476715088,"581":-0.28902554512023926,"582":0.7807127833366394,"583":0.24933335185050964,"584":0.7678235769271851,"585":0.27960145473480225,"586":-0.21531061828136444,"587":0.6930246949195862,"588":0.2889271378517151,"589":-0.12870655953884125,"590":0.14740340411663055,"591":-0.18826882541179657,"592":0.5525315403938293,"593":0.8005028367042542,"594":0.1272220015525818,"595":-0.8834109902381897,"596":0.29815787076950073,"597":-0.9129176735877991,"598":-1.0462398529052734,"599":-0.03176011145114899,"600":-0.2966960668563843,"601":-0.5358441472053528,"602":-0.059500113129615784,"603":0.07448740303516388,"604":0.08116855472326279,"605":0.598274827003479,"606":-0.10281318426132202,"607":0.1870841085910797,"608":-0.38350367546081543,"609":-0.6701133251190186,"610":-0.15691134333610535,"611":0.05994546785950661,"612":0.4473469853401184,"613":0.42166996002197266,"614":-0.15465091168880463,"615":-0.9576060175895691,"616":0.07978212088346481,"617":-0.7612930536270142,"618":0.05241040140390396,"619":-0.5471417903900146,"620":0.80652916431427,"621":-0.2707560062408447,"622":-0.7094808220863342,"623":0.32600197196006775,"624":0.22826354205608368,"625":-0.5743445754051208,"626":-0.3120158016681671,"627":-0.7637864351272583,"628":-0.017120569944381714,"629":0.3802771270275116,"630":0.46095094084739685,"631":-0.5810363292694092,"632":0.14565736055374146,"633":-0.44509223103523254,"634":-0.5056572556495667,"635":-0.5903303027153015,"636":0.7154344916343689,"637":0.2165248543024063,"638":0.40586137771606445,"639":-0.7170566320419312,"640":-0.6133995652198792,"641":-0.10608381778001785,"642":-0.8058512806892395,"643":1.0746092796325684,"644":0.23795923590660095,"645":0.29358112812042236,"646":0.5311128497123718,"647":1.5109894275665283,"648":-0.9994628429412842,"649":0.020668217912316322,"650":0.14767786860466003,"651":0.7203409671783447,"652":0.6853538155555725,"653":-0.4747695028781891,"654":0.40526285767555237,"655":0.25432324409484863,"656":-0.33564722537994385,"657":-0.37855619192123413,"658":0.2341730147600174,"659":0.3759271502494812}},"inputHidden":{"rows":20,"columns":20,"weights":{"0":-0.80837082862854,"1":0.45954418182373047,"2":0.6598644256591797,"3":0.849399983882904,"4":-0.21420645713806152,"5":-0.19116534292697906,"6":-0.9190431833267212,"7":0.22223225235939026,"8":-0.4306924045085907,"9":-0.6513393521308899,"10":-1.5019418001174927,"11":0.11370083689689636,"12":-0.8216870427131653,"13":0.15978935360908508,"14":0.0836486667394638,"15":0.3528802990913391,"16":0.4880337119102478,"17":1.6090911626815796,"18":-0.1294374167919159,"19":-0.3921694755554199,"20":-0.691399872303009,"21":-0.3481122553348541,"22":0.33307117223739624,"23":0.6858786940574646,"24":0.27112388610839844,"25":-0.21171978116035461,"26":0.13963408768177032,"27":-0.7603220343589783,"28":-0.342012882232666,"29":0.10994330793619156,"30":-0.7169065475463867,"31":0.30568480491638184,"32":0.09603921324014664,"33":0.736722469329834,"34":-0.15658167004585266,"35":-0.08079767227172852,"36":0.5118301510810852,"37":1.6662228107452393,"38":0.21245062351226807,"39":-0.5094476342201233,"40":-1.1896692514419556,"41":0.29249274730682373,"42":1.2595199346542358,"43":0.33981332182884216,"44":0.32981210947036743,"45":0.09197724610567093,"46":-0.03478725254535675,"47":0.3430768847465515,"48":-0.6212779879570007,"49":-0.4846940040588379,"50":-0.6205576658248901,"51":0.4936845898628235,"52":0.5195347666740417,"53":0.5468989610671997,"54":-0.40849366784095764,"55":-0.2910381555557251,"56":0.2507169246673584,"57":1.1828510761260986,"58":0.3900211751461029,"59":-0.10074162483215332,"60":0.10765327513217926,"61":-2.1131694316864014,"62":-0.01526099257171154,"63":0.894737720489502,"64":-0.8482872843742371,"65":-0.2827962636947632,"66":-1.0782138109207153,"67":-0.5577409267425537,"68":0.17912735044956207,"69":-0.941260039806366,"70":-0.1750318855047226,"71":-0.09751017391681671,"72":0.6483706831932068,"73":1.7106987237930298,"74":-0.11845890432596207,"75":0.269363135099411,"76":-0.5189267992973328,"77":0.5086576342582703,"78":0.4643346071243286,"79":0.3790200650691986,"80":-1.1356779336929321,"81":-0.736430287361145,"82":0.9075433015823364,"83":-0.11925478279590607,"84":0.09402020275592804,"85":-0.9386866092681885,"86":-2.279977321624756,"87":0.010863268747925758,"88":0.14272786676883698,"89":-1.1406036615371704,"90":0.9480061531066895,"91":-0.4512574076652527,"92":0.9093507528305054,"93":1.491228461265564,"94":-0.13425388932228088,"95":-0.02807239443063736,"96":-0.3887515664100647,"97":-0.1421370655298233,"98":-0.7670328617095947,"99":1.6091890335083008,"100":-0.09139864146709442,"101":0.4497193992137909,"102":0.2558620870113373,"103":1.0410792827606201,"104":-0.1774340271949768,"105":0.24205510318279266,"106":-0.44491472840309143,"107":-1.046000361442566,"108":0.7900593876838684,"109":1.0604385137557983,"110":-0.3317447602748871,"111":-0.683752715587616,"112":0.620674729347229,"113":-0.5155189633369446,"114":1.6838834285736084,"115":0.8214071393013,"116":0.5408449172973633,"117":0.5682794451713562,"118":0.20708364248275757,"119":-0.24414487183094025,"120":-0.5572835206985474,"121":-0.6992723345756531,"122":-0.2721813917160034,"123":-0.02329391799867153,"124":-0.5275899767875671,"125":0.4358256757259369,"126":0.39088013768196106,"127":-0.40529242157936096,"128":0.4310765266418457,"129":0.5348185896873474,"130":0.04903986304998398,"131":-0.6376133561134338,"132":-0.052487563341856,"133":-0.17021647095680237,"134":0.4443090260028839,"135":0.28856077790260315,"136":0.6258906126022339,"137":1.0415875911712646,"138":0.7588695287704468,"139":-0.6036698818206787,"140":-0.18579480051994324,"141":-1.4193366765975952,"142":0.63789302110672,"143":0.3476031720638275,"144":0.12247175723314285,"145":-0.2741982340812683,"146":-0.6307714581489563,"147":-1.638418436050415,"148":0.08668292313814163,"149":-0.573119580745697,"150":0.8713542222976685,"151":0.33933740854263306,"152":0.43461430072784424,"153":0.6038063168525696,"154":0.06768646091222763,"155":0.6977071166038513,"156":-0.00023808969126548618,"157":-0.2660733163356781,"158":-0.04319503530859947,"159":0.39826178550720215,"160":-0.03545471653342247,"161":-2.0695853233337402,"162":-0.2837584912776947,"163":-0.6717700958251953,"164":-0.5635594725608826,"165":-0.4583297371864319,"166":-0.5247153043746948,"167":-0.6201720237731934,"168":0.05200976878404617,"169":-0.8362124562263489,"170":0.6265929341316223,"171":-0.49233943223953247,"172":1.3717156648635864,"173":1.8796958923339844,"174":-0.09857053309679031,"175":-0.11750403046607971,"176":-0.994507372379303,"177":-0.06901400536298752,"178":-0.5056421160697937,"179":0.47691282629966736,"180":-0.9253500699996948,"181":0.45163366198539734,"182":-0.031530581414699554,"183":0.7490376234054565,"184":-0.61653733253479,"185":0.6270676851272583,"186":0.24228525161743164,"187":-1.0704306364059448,"188":0.5955833792686462,"189":0.9262246489524841,"190":-0.2629934251308441,"191":-0.9603204131126404,"192":-0.9217352271080017,"193":-0.5251237750053406,"194":0.6639392971992493,"195":0.6753879189491272,"196":0.14717751741409302,"197":0.9506251215934753,"198":1.5818954706192017,"199":-1.2390226125717163,"200":-0.8890274167060852,"201":-0.39499083161354065,"202":1.0127267837524414,"203":-0.15412208437919617,"204":0.028624167665839195,"205":-1.0760334730148315,"206":-1.5211306810379028,"207":-0.4318313002586365,"208":-0.013863150030374527,"209":-0.9030898213386536,"210":-0.030319374054670334,"211":0.0888771191239357,"212":0.7507532238960266,"213":1.4201546907424927,"214":0.11304359138011932,"215":0.2837035357952118,"216":-0.7570059895515442,"217":0.33967939019203186,"218":-0.40735337138175964,"219":0.8409472703933716,"220":-1.0481503009796143,"221":-0.2690022885799408,"222":0.4539550840854645,"223":-0.20914660394191742,"224":0.7074540853500366,"225":-0.7132822275161743,"226":-1.3169667720794678,"227":-0.7764058709144592,"228":0.27636852860450745,"229":-0.06553436070680618,"230":1.9720581769943237,"231":0.2942426800727844,"232":1.4573097229003906,"233":1.3237773180007935,"234":0.26357993483543396,"235":-0.19806401431560516,"236":-1.0285228490829468,"237":0.013423203490674496,"238":0.28021562099456787,"239":0.8332180976867676,"240":-0.1888800859451294,"241":0.19758665561676025,"242":0.08368659764528275,"243":1.0010197162628174,"244":0.004244667943567038,"245":0.1812090128660202,"246":0.008649831637740135,"247":-1.543581247329712,"248":-0.6517466902732849,"249":-0.09404361248016357,"250":-0.779809296131134,"251":0.5483275055885315,"252":-0.3232031464576721,"253":0.10219430178403854,"254":0.7580450177192688,"255":0.9017070531845093,"256":0.5633682012557983,"257":0.6913385987281799,"258":0.8259778618812561,"259":0.37546801567077637,"260":-1.0813493728637695,"261":-0.3556429147720337,"262":1.1257274150848389,"263":0.7401880025863647,"264":-0.13096733391284943,"265":0.6545092463493347,"266":-0.006877422798424959,"267":-0.6806036233901978,"268":0.5325624942779541,"269":0.024371711537241936,"270":-0.9006267786026001,"271":-0.3134056329727173,"272":0.7160652279853821,"273":0.7931167483329773,"274":0.443023145198822,"275":0.28384295105934143,"276":0.5054405331611633,"277":0.924916684627533,"278":0.4162836968898773,"279":0.0487392395734787,"280":-0.1498555839061737,"281":-1.1026670932769775,"282":-0.1085781678557396,"283":0.9192968606948853,"284":-1.190733551979065,"285":-0.5215913653373718,"286":-0.7344855070114136,"287":-0.37782102823257446,"288":0.7820597887039185,"289":-0.8702124953269958,"290":-0.5424811840057373,"291":-0.7936539053916931,"292":0.6529682874679565,"293":0.7782365679740906,"294":0.8356332182884216,"295":1.8984644412994385,"296":0.24899883568286896,"297":0.4873630702495575,"298":0.8377088308334351,"299":0.20737899839878082,"300":0.5334011316299438,"301":-2.5372536182403564,"302":0.16383518278598785,"303":0.14403916895389557,"304":-0.8793045878410339,"305":-0.20170940458774567,"306":-1.2312405109405518,"307":-0.33239683508872986,"308":0.7276354432106018,"309":-0.6263852715492249,"310":1.2402775287628174,"311":-0.09554809331893921,"312":1.2501673698425293,"313":0.9698676466941833,"314":0.03088296577334404,"315":0.2568766474723816,"316":-0.024204259738326073,"317":0.08672863245010376,"318":0.6670781373977661,"319":0.5831339955329895,"320":-0.4574170410633087,"321":-0.4485327899456024,"322":-0.08169379830360413,"323":0.9200612306594849,"324":-0.2883301079273224,"325":0.3208485543727875,"326":-0.8082423210144043,"327":-1.3132195472717285,"328":0.6331700086593628,"329":-0.12072698771953583,"330":-0.0981113389134407,"331":-0.36089515686035156,"332":1.2970000505447388,"333":-0.31831851601600647,"334":1.1833953857421875,"335":1.0740751028060913,"336":-0.3428908884525299,"337":1.263694167137146,"338":0.7011221647262573,"339":-0.13902635872364044,"340":-0.9778693318367004,"341":-0.10906068980693817,"342":1.2046983242034912,"343":1.4407275915145874,"344":-0.33813464641571045,"345":0.23375214636325836,"346":0.27338364720344543,"347":-0.4854997396469116,"348":0.10569408535957336,"349":0.17896270751953125,"350":0.40635448694229126,"351":0.0263200793415308,"352":0.14962047338485718,"353":-0.21380455791950226,"354":0.25033169984817505,"355":-0.19003872573375702,"356":0.39797908067703247,"357":0.9049274921417236,"358":0.4084765911102295,"359":-0.19873791933059692,"360":-0.4857857823371887,"361":-1.41141676902771,"362":0.019258039072155952,"363":0.32485175132751465,"364":-0.4003048241138458,"365":-1.2891674041748047,"366":-0.861821711063385,"367":-0.5673102736473083,"368":0.3638761043548584,"369":-1.1136305332183838,"370":0.7439408898353577,"371":-0.681304931640625,"372":0.838358461856842,"373":0.8896386027336121,"374":0.07903395593166351,"375":1.2070331573486328,"376":-0.5654584169387817,"377":0.2217620462179184,"378":0.3159772753715515,"379":0.5715314149856567,"380":-0.13545803725719452,"381":0.3114583492279053,"382":0.007114135194569826,"383":-0.2945994436740875,"384":-0.4252837896347046,"385":0.7775067687034607,"386":1.0131531953811646,"387":-0.6084958910942078,"388":1.3249151706695557,"389":1.0988727807998657,"390":-0.23953120410442352,"391":-0.6344919800758362,"392":0.23614759743213654,"393":-0.17469896376132965,"394":0.3332039415836334,"395":0.11878912150859833,"396":0.7769631743431091,"397":0.14781999588012695,"398":1.00967276096344,"399":-0.690656304359436}},"inputBias":{"rows":20,"columns":1,"weights":{"0":0.17317956686019897,"1":1.154930591583252,"2":0.7587202787399292,"3":-1.1383633613586426,"4":0.06572844088077545,"5":-1.2595150470733643,"6":0.3728359639644623,"7":-0.0958249494433403,"8":-1.1293267011642456,"9":-0.5830368995666504,"10":-0.5443748831748962,"11":-0.7147888541221619,"12":0.43377071619033813,"13":-0.2674574851989746,"14":-0.7234123349189758,"15":-0.4044002890586853,"16":-3.121631383895874,"17":0.15343999862670898,"18":-0.9237518310546875,"19":-0.7110412120819092}},"forgetMatrix":{"rows":20,"columns":33,"weights":{"0":-0.13401556015014648,"1":-0.2711002230644226,"2":-1.0981361865997314,"3":-0.22474083304405212,"4":-0.03590589389204979,"5":0.09942104667425156,"6":-0.3183838129043579,"7":-0.09488362818956375,"8":-0.6255711913108826,"9":0.4379764795303345,"10":0.05477342754602432,"11":0.3899451792240143,"12":-0.5135700106620789,"13":0.2359798699617386,"14":-0.4423958957195282,"15":0.27280715107917786,"16":0.008007473312318325,"17":0.5926282405853271,"18":1.6829032897949219,"19":0.6019110083580017,"20":0.6614314317703247,"21":0.904680609703064,"22":0.20720987021923065,"23":-0.02588130347430706,"24":-0.3537084460258484,"25":-0.06713265180587769,"26":-0.23224231600761414,"27":0.27256253361701965,"28":-0.11139290779829025,"29":0.07499188929796219,"30":0.2373722791671753,"31":0.4438181221485138,"32":0.44205939769744873,"33":-0.25157102942466736,"34":-0.5327110290527344,"35":-0.02596527710556984,"36":-0.5772360563278198,"37":-0.28580403327941895,"38":-0.033621896058321,"39":-0.11316134035587311,"40":-0.08894277364015579,"41":-0.1973223090171814,"42":0.29408127069473267,"43":-0.0032580008264631033,"44":0.442554771900177,"45":0.6837193369865417,"46":-1.2076953649520874,"47":-0.4602109491825104,"48":0.1630893498659134,"49":-0.06858019530773163,"50":-0.024254780262708664,"51":0.1191316619515419,"52":0.4115355908870697,"53":0.09191004931926727,"54":-0.11932805180549622,"55":-0.18901470303535461,"56":0.3642488121986389,"57":-0.1591203659772873,"58":-0.6796554327011108,"59":-0.5115014910697937,"60":0.1397118717432022,"61":-0.5564729571342468,"62":0.09445925801992416,"63":0.9427173137664795,"64":-0.24687811732292175,"65":-0.516987144947052,"66":-0.011709616519510746,"67":-0.006901542656123638,"68":-0.3253636956214905,"69":-0.6272068619728088,"70":-0.051193248480558395,"71":-0.09016396105289459,"72":-0.44899705052375793,"73":-0.32013142108917236,"74":-0.23529762029647827,"75":0.13190339505672455,"76":0.3332084119319916,"77":0.21918343007564545,"78":-0.3254300057888031,"79":-0.13074566423892975,"80":-0.1974964290857315,"81":0.16264809668064117,"82":-0.002727059880271554,"83":0.675980269908905,"84":0.9580937027931213,"85":0.4386805593967438,"86":0.25279858708381653,"87":0.5431002378463745,"88":0.05278867483139038,"89":-0.025212926790118217,"90":-0.31119030714035034,"91":-0.3684230148792267,"92":-0.3309558928012848,"93":0.5752097368240356,"94":-0.7758328914642334,"95":0.28792327642440796,"96":0.1452426016330719,"97":0.34115415811538696,"98":-0.1809135228395462,"99":0.05930741876363754,"100":-0.7579667568206787,"101":-0.8847774863243103,"102":-0.2691722512245178,"103":-0.36297574639320374,"104":0.3346385061740875,"105":0.04712137207388878,"106":-0.14422525465488434,"107":-0.3799913823604584,"108":0.1643085777759552,"109":-0.031122202053666115,"110":-0.054821595549583435,"111":0.8664453029632568,"112":0.1332627534866333,"113":-0.9413427114486694,"114":0.3531758189201355,"115":-0.2526131570339203,"116":-0.06293384730815887,"117":0.6849795579910278,"118":0.34349504113197327,"119":-0.30012673139572144,"120":-0.4553321301937103,"121":-0.08903562277555466,"122":-0.1703168898820877,"123":-0.48298633098602295,"124":-0.5705851316452026,"125":-0.16276966035366058,"126":0.41296178102493286,"127":-0.8051781058311462,"128":0.35242655873298645,"129":0.7687973380088806,"130":-0.062207743525505066,"131":0.22539466619491577,"132":0.3568286597728729,"133":0.05705052241683006,"134":-0.2746925950050354,"135":0.9644597172737122,"136":1.1053940057754517,"137":0.26069754362106323,"138":-0.15843608975410461,"139":0.0027018922846764326,"140":0.14886833727359772,"141":-0.14110946655273438,"142":-0.3141252100467682,"143":-0.7801179885864258,"144":0.5883178114891052,"145":0.007517027668654919,"146":-0.39136460423469543,"147":0.25349509716033936,"148":0.037118956446647644,"149":0.053837019950151443,"150":-0.18132175505161285,"151":-0.4260191321372986,"152":0.03872382640838623,"153":1.5049359798431396,"154":-0.10451952368021011,"155":-0.028370779007673264,"156":-0.41738855838775635,"157":0.7117181420326233,"158":-0.13901641964912415,"159":-0.21249976754188538,"160":0.3909069001674652,"161":-0.0017834687605500221,"162":-0.1093127503991127,"163":0.6068709492683411,"164":-0.1189693808555603,"165":-0.33048006892204285,"166":-0.3520336449146271,"167":-0.11460306495428085,"168":0.06061016395688057,"169":-1.0242538452148438,"170":-0.009470234625041485,"171":0.44412896037101746,"172":0.5059819221496582,"173":-0.756253719329834,"174":0.7967509627342224,"175":0.05382157489657402,"176":0.521442711353302,"177":0.074820376932621,"178":0.6634876728057861,"179":0.07949186861515045,"180":-0.18854181468486786,"181":0.2551574110984802,"182":-0.9585850238800049,"183":0.20892781019210815,"184":0.0021395976655185223,"185":0.17133748531341553,"186":-1.0559190511703491,"187":-0.7237392067909241,"188":0.4183054268360138,"189":0.16338539123535156,"190":0.01175085362046957,"191":0.7643314003944397,"192":0.1939827799797058,"193":-0.433727502822876,"194":0.8500363230705261,"195":0.2505404055118561,"196":-0.9503427743911743,"197":0.8274412751197815,"198":-0.2489522248506546,"199":-0.18503139913082123,"200":0.14378885924816132,"201":0.3556106686592102,"202":0.5510382652282715,"203":0.6391980648040771,"204":0.24632640182971954,"205":0.0011489512398838997,"206":-0.12432271242141724,"207":-0.2903688848018646,"208":-0.6786128282546997,"209":-0.22714896500110626,"210":0.4169750511646271,"211":0.2611718475818634,"212":-0.3256896436214447,"213":-0.10815833508968353,"214":-0.05874134600162506,"215":-0.07144651561975479,"216":-0.12277401983737946,"217":-0.5828953981399536,"218":-0.115471750497818,"219":-0.5776229500770569,"220":-0.4391801059246063,"221":1.3488717079162598,"222":0.05947626009583473,"223":0.03590253368020058,"224":0.43020087480545044,"225":-0.6220793724060059,"226":-0.09921572357416153,"227":0.4082178473472595,"228":0.08266827464103699,"229":-0.11131525784730911,"230":1.3652145862579346,"231":-0.04484865814447403,"232":-0.15142704546451569,"233":-0.1972167044878006,"234":0.7609826326370239,"235":-0.07134212553501129,"236":0.2813783586025238,"237":0.19039605557918549,"238":0.1657288670539856,"239":-0.5338236093521118,"240":0.35119202733039856,"241":-0.18161004781723022,"242":0.6581465601921082,"243":0.6082215905189514,"244":-0.2091398537158966,"245":-0.05581836774945259,"246":0.17896288633346558,"247":-0.04744553193449974,"248":-0.5792953968048096,"249":0.5680409073829651,"250":0.13215968012809753,"251":0.08392748981714249,"252":-0.5518549084663391,"253":-0.4898242950439453,"254":0.026476925238966942,"255":-0.28508275747299194,"256":0.10499183088541031,"257":-0.3607679605484009,"258":0.5429050326347351,"259":-0.23978093266487122,"260":0.14061938226222992,"261":0.3650108575820923,"262":-0.4189962148666382,"263":0.07350478321313858,"264":-0.4775790870189667,"265":0.5346468687057495,"266":0.23143741488456726,"267":0.3166959881782532,"268":-0.18827930092811584,"269":-0.27327582240104675,"270":-0.1943282186985016,"271":-0.3886174261569977,"272":0.5187028050422668,"273":-0.39458832144737244,"274":0.4223420023918152,"275":-0.605074942111969,"276":0.21873214840888977,"277":0.11571374535560608,"278":0.288071870803833,"279":-0.4394712746143341,"280":0.45232054591178894,"281":0.2131284475326538,"282":-0.8795111179351807,"283":0.00020616099936887622,"284":-0.5134137272834778,"285":0.34147408604621887,"286":0.17748062312602997,"287":0.15564526617527008,"288":-0.4983089566230774,"289":-0.19470326602458954,"290":0.46163618564605713,"291":-0.1361338198184967,"292":0.15667974948883057,"293":0.00264690606854856,"294":-0.17342430353164673,"295":0.546105682849884,"296":-0.6058064103126526,"297":0.44403597712516785,"298":0.015449305064976215,"299":-0.08482950925827026,"300":0.48073843121528625,"301":-0.15307724475860596,"302":0.15782836079597473,"303":-0.2660822570323944,"304":-0.03378506004810333,"305":-0.5881690382957458,"306":0.3024631142616272,"307":-0.15791746973991394,"308":0.1648695170879364,"309":0.5167213678359985,"310":0.5611616373062134,"311":-0.21146029233932495,"312":-0.3806458115577698,"313":0.5144178867340088,"314":-0.21750399470329285,"315":0.12521372735500336,"316":0.0702434629201889,"317":-0.1406882256269455,"318":0.5771993398666382,"319":-0.2820584774017334,"320":0.4535863995552063,"321":-0.08862854540348053,"322":-0.5700235962867737,"323":0.8945191502571106,"324":-0.06236447021365166,"325":0.2071247100830078,"326":0.2772143483161926,"327":0.18462371826171875,"328":0.29255276918411255,"329":1.0051326751708984,"330":0.21033447980880737,"331":-0.1702977865934372,"332":0.09292237460613251,"333":0.09056749939918518,"334":-0.05979449674487114,"335":-0.35894784331321716,"336":0.009071548469364643,"337":0.1037437915802002,"338":0.0610792301595211,"339":0.16908079385757446,"340":0.10225161910057068,"341":-0.09535873681306839,"342":-0.582990825176239,"343":-0.44050827622413635,"344":0.4417078495025635,"345":0.2609098553657532,"346":0.22625309228897095,"347":0.010060837492346764,"348":0.13728272914886475,"349":-0.05944373458623886,"350":0.9822601079940796,"351":1.2163519859313965,"352":-0.10363134741783142,"353":0.2531070411205292,"354":-0.3780617415904999,"355":1.2114548683166504,"356":-0.17613562941551208,"357":-0.17840580642223358,"358":-0.024328595027327538,"359":0.2640361487865448,"360":0.04948601871728897,"361":0.0873059630393982,"362":-0.5338683128356934,"363":-0.04298461228609085,"364":0.12016411870718002,"365":0.18667586147785187,"366":0.6999465823173523,"367":0.26512598991394043,"368":-0.1267654448747635,"369":-0.001108398661017418,"370":0.2779870927333832,"371":0.1649528592824936,"372":-0.3473447561264038,"373":0.05508553609251976,"374":-0.7439046502113342,"375":0.46624529361724854,"376":-0.09788862615823746,"377":-0.00805504061281681,"378":-0.48744332790374756,"379":0.5517924427986145,"380":-0.6119614839553833,"381":-0.7234743237495422,"382":-0.5472181439399719,"383":0.05243106186389923,"384":0.37408947944641113,"385":-0.5623427033424377,"386":0.5324196219444275,"387":-0.6077720522880554,"388":0.4306187033653259,"389":0.23883922398090363,"390":-0.2721671760082245,"391":0.31705161929130554,"392":0.11687926948070526,"393":0.1452355980873108,"394":0.11942791938781738,"395":0.2214684784412384,"396":-0.6155988574028015,"397":-0.2537376880645752,"398":-0.6176290512084961,"399":-0.640202522277832,"400":0.24872125685214996,"401":-0.43110716342926025,"402":0.43085047602653503,"403":0.16197523474693298,"404":0.31827303767204285,"405":-0.25995948910713196,"406":-0.2880750000476837,"407":0.015335313975811005,"408":0.6779977083206177,"409":-0.8185582160949707,"410":-0.06198965758085251,"411":0.568757176399231,"412":-0.8508778214454651,"413":-0.1722441166639328,"414":0.28349581360816956,"415":0.12462993711233139,"416":0.08920926600694656,"417":0.19594743847846985,"418":-1.0315048694610596,"419":0.4732126295566559,"420":-0.2314251810312271,"421":-1.0736393928527832,"422":-0.5424221158027649,"423":-0.14147824048995972,"424":-0.7315768599510193,"425":0.24526871740818024,"426":0.916781485080719,"427":-0.25311824679374695,"428":-0.4204750955104828,"429":0.04251360893249512,"430":-0.3765341639518738,"431":-0.2916855812072754,"432":-0.29052308201789856,"433":0.3164166212081909,"434":0.9125733375549316,"435":-0.05183203145861626,"436":-0.07572589814662933,"437":-0.25297796726226807,"438":-0.38503146171569824,"439":-0.417192667722702,"440":-0.344652384519577,"441":0.01575830765068531,"442":-0.14683020114898682,"443":-1.3731199502944946,"444":0.6542287468910217,"445":-0.7796707153320312,"446":0.22327372431755066,"447":0.2236304134130478,"448":-0.1563294529914856,"449":-0.1259855031967163,"450":-0.2373829036951065,"451":-0.5645380616188049,"452":-0.0761980265378952,"453":-0.6230624318122864,"454":-0.16018664836883545,"455":0.18214504420757294,"456":-0.2706465423107147,"457":-0.38485655188560486,"458":0.3779052495956421,"459":0.2749073803424835,"460":0.02716817334294319,"461":0.721497654914856,"462":0.8988620638847351,"463":-0.3816823959350586,"464":0.3797529935836792,"465":-0.1872325986623764,"466":0.95320063829422,"467":-0.5394719839096069,"468":-0.6079342365264893,"469":-0.2430252879858017,"470":0.43222174048423767,"471":0.23253487050533295,"472":-0.18672224879264832,"473":0.04859339818358421,"474":-0.2772180736064911,"475":-0.7944378852844238,"476":0.35663798451423645,"477":-0.5500892996788025,"478":0.625321626663208,"479":0.008890640921890736,"480":-0.6505641341209412,"481":0.47516119480133057,"482":0.8471237421035767,"483":0.5182253122329712,"484":0.5479322671890259,"485":-0.12920472025871277,"486":0.09939026832580566,"487":0.5743312835693359,"488":-0.4262125492095947,"489":-0.02170739695429802,"490":-0.5842111706733704,"491":0.31885671615600586,"492":-0.396773099899292,"493":0.20110327005386353,"494":-0.1998877227306366,"495":0.008192976005375385,"496":0.28923600912094116,"497":-0.17976346611976624,"498":-0.46736517548561096,"499":0.5243673324584961,"500":-0.11614514142274857,"501":-0.11397258192300797,"502":-0.09128519147634506,"503":0.3967861831188202,"504":-0.19302378594875336,"505":-0.10962781310081482,"506":-0.5267230272293091,"507":0.03659040480852127,"508":-0.5247839689254761,"509":0.30476367473602295,"510":0.3300892114639282,"511":-0.04200446233153343,"512":0.30967655777931213,"513":-0.4546831548213959,"514":-0.024492377415299416,"515":0.0009855888783931732,"516":0.3104439377784729,"517":-0.5486406683921814,"518":-0.7199659943580627,"519":-0.1205536276102066,"520":-0.19436174631118774,"521":-0.24780753254890442,"522":-0.16043464839458466,"523":-0.384006530046463,"524":-0.08493366092443466,"525":0.30529293417930603,"526":0.40163716673851013,"527":-0.7413355708122253,"528":0.4842258393764496,"529":-0.3538568317890167,"530":-1.142754316329956,"531":0.8428547978401184,"532":0.33845001459121704,"533":-0.14532430469989777,"534":-0.08962258696556091,"535":0.08549314737319946,"536":-0.10887466371059418,"537":0.09178518503904343,"538":-0.4439728856086731,"539":0.3236989676952362,"540":0.5727042555809021,"541":-0.5010262727737427,"542":-0.19262665510177612,"543":0.27893421053886414,"544":-0.27267780900001526,"545":-0.8097279071807861,"546":-0.37049591541290283,"547":0.5512717366218567,"548":0.3394317328929901,"549":-0.7917166948318481,"550":0.4970506727695465,"551":-0.34858280420303345,"552":-0.5423827767372131,"553":0.439126580953598,"554":-0.8833872675895691,"555":0.02466737851500511,"556":-0.6985175013542175,"557":0.177798330783844,"558":0.5051193237304688,"559":-0.1875452846288681,"560":0.00543734896928072,"561":0.009651312604546547,"562":-0.4528469443321228,"563":-0.12295442074537277,"564":0.960311233997345,"565":-0.2524690628051758,"566":0.08874843269586563,"567":-0.1831362545490265,"568":0.21939437091350555,"569":-0.5131866335868835,"570":0.5633248090744019,"571":-0.48859110474586487,"572":0.706434428691864,"573":0.8085435032844543,"574":-0.16826961934566498,"575":-0.6922622919082642,"576":0.13916662335395813,"577":0.08935161679983139,"578":-0.27134621143341064,"579":0.20249877870082855,"580":0.1803026795387268,"581":-0.10493175685405731,"582":-0.29707735776901245,"583":-0.2116319090127945,"584":-0.23794758319854736,"585":-0.09680139273405075,"586":0.013696856796741486,"587":-0.45295119285583496,"588":0.23942971229553223,"589":-0.06697788089513779,"590":-0.04353926703333855,"591":0.22198854386806488,"592":-0.20453783869743347,"593":-0.051179833710193634,"594":0.18898127973079681,"595":0.24980750679969788,"596":-0.30857568979263306,"597":-0.1499681919813156,"598":0.07933221757411957,"599":0.17226040363311768,"600":-0.14130836725234985,"601":-0.0389782078564167,"602":-0.28870531916618347,"603":0.18646498024463654,"604":0.6227389574050903,"605":0.7114517688751221,"606":0.05921796336770058,"607":0.3291698694229126,"608":0.10525418817996979,"609":-0.005484049674123526,"610":-0.23609134554862976,"611":-0.39571499824523926,"612":-0.2002609670162201,"613":0.03428852930665016,"614":-0.043200116604566574,"615":-1.2688167095184326,"616":0.7779196500778198,"617":0.03714699298143387,"618":-0.7521581053733826,"619":0.018013903871178627,"620":0.8800246715545654,"621":0.24831938743591309,"622":0.1717493236064911,"623":0.5529906153678894,"624":0.1541319191455841,"625":0.13177210092544556,"626":0.3535197675228119,"627":-0.300595760345459,"628":-0.21473447978496552,"629":-0.3902988135814667,"630":0.13133113086223602,"631":0.050672754645347595,"632":-0.1820378601551056,"633":0.03866482526063919,"634":0.0037456960417330265,"635":-0.10572671890258789,"636":0.5780946612358093,"637":0.41294988989830017,"638":0.08456313610076904,"639":0.27854275703430176,"640":0.3489832878112793,"641":0.7270788550376892,"642":-0.23952005803585052,"643":0.38736554980278015,"644":0.09855156391859055,"645":-0.4642646908760071,"646":0.2550349235534668,"647":-0.2579127550125122,"648":-0.25309401750564575,"649":-0.5475196242332458,"650":0.13028618693351746,"651":0.04487359896302223,"652":-0.47028011083602905,"653":0.5367431640625,"654":0.555853009223938,"655":0.0016148993745446205,"656":0.45941704511642456,"657":0.071727454662323,"658":0.05298469588160515,"659":0.48855242133140564}},"forgetHidden":{"rows":20,"columns":20,"weights":{"0":0.5516915321350098,"1":0.7859299182891846,"2":-0.4001273214817047,"3":1.0821954011917114,"4":0.19992636144161224,"5":0.5697117447853088,"6":0.7357091903686523,"7":-0.45515158772468567,"8":0.17980517446994781,"9":0.09179388731718063,"10":-0.37656351923942566,"11":-0.8939053416252136,"12":-0.6703367233276367,"13":-0.5495762825012207,"14":0.41442131996154785,"15":0.5984175205230713,"16":-0.13338957726955414,"17":-0.0692995935678482,"18":1.2642771005630493,"19":0.7189975380897522,"20":-0.6557309627532959,"21":0.19789010286331177,"22":0.4260539710521698,"23":-0.6356086730957031,"24":2.214930534362793,"25":0.4465719163417816,"26":0.24253864586353302,"27":0.2727018892765045,"28":-0.3833485245704651,"29":-0.05415833741426468,"30":1.689418077468872,"31":2.172248363494873,"32":0.17325441539287567,"33":0.5352115631103516,"34":-1.1977012157440186,"35":-1.2971535921096802,"36":0.9823716282844543,"37":0.16305407881736755,"38":-0.5069472193717957,"39":-0.4140157699584961,"40":0.060287993401288986,"41":0.6826159358024597,"42":-0.040463753044605255,"43":0.6265137195587158,"44":-0.1340947151184082,"45":0.8337929844856262,"46":0.7103258371353149,"47":-0.44648388028144836,"48":0.22993293404579163,"49":0.7027347087860107,"50":0.4547519087791443,"51":-0.6534488201141357,"52":-1.036278486251831,"53":-0.3438485860824585,"54":0.5091760158538818,"55":0.7400735020637512,"56":-0.8483079671859741,"57":0.12432793527841568,"58":0.8663936257362366,"59":0.19228193163871765,"60":0.4380803406238556,"61":-1.370724081993103,"62":-0.2933809459209442,"63":0.8509480357170105,"64":-0.18596838414669037,"65":0.11502011865377426,"66":-0.15271435678005219,"67":-0.9556692838668823,"68":0.2617989480495453,"69":0.18556800484657288,"70":0.7616288661956787,"71":0.6988151669502258,"72":0.6235023140907288,"73":0.5828584432601929,"74":0.5950865745544434,"75":0.813336193561554,"76":-0.11096539348363876,"77":0.5838689208030701,"78":0.33134058117866516,"79":-0.17831115424633026,"80":1.5953923463821411,"81":-1.531533122062683,"82":-0.01708972454071045,"83":0.02458319067955017,"84":-0.4711569845676422,"85":0.6305751204490662,"86":0.8361539840698242,"87":0.5100536346435547,"88":0.45265915989875793,"89":0.6907044649124146,"90":-0.15338771045207977,"91":-0.5944534540176392,"92":0.46929118037223816,"93":-0.7283186912536621,"94":0.057121749967336655,"95":0.062173549085855484,"96":0.6362459659576416,"97":-0.8851550817489624,"98":0.7521216869354248,"99":-0.9764763116836548,"100":1.8668620586395264,"101":-0.07232397794723511,"102":-1.3166897296905518,"103":-0.3163415789604187,"104":0.1494314819574356,"105":-0.6640828251838684,"106":0.6531836986541748,"107":0.4787231683731079,"108":-0.40501314401626587,"109":-0.42600587010383606,"110":0.27223923802375793,"111":0.442802369594574,"112":-0.0736246109008789,"113":-1.3204383850097656,"114":-0.4154033064842224,"115":-0.5114173293113708,"116":0.4784946143627167,"117":-0.5502400398254395,"118":-0.5536239743232727,"119":0.6757216453552246,"120":0.4969560503959656,"121":-0.0778309777379036,"122":-0.8601345419883728,"123":0.08248277008533478,"124":0.48362305760383606,"125":0.7647120356559753,"126":0.29782745242118835,"127":-0.46350333094596863,"128":0.02940736524760723,"129":0.28890925645828247,"130":1.1638858318328857,"131":0.3149994909763336,"132":-0.17239220440387726,"133":-0.2217821180820465,"134":-0.510709285736084,"135":-0.6977802515029907,"136":-0.27274978160858154,"137":-0.058447301387786865,"138":-0.16140760481357574,"139":-0.2518919110298157,"140":-0.15094392001628876,"141":-0.22979703545570374,"142":0.03685009106993675,"143":0.5450327396392822,"144":-0.8460015058517456,"145":0.04773761332035065,"146":-0.4059681296348572,"147":-0.08033662289381027,"148":1.894352674484253,"149":0.11193957924842834,"150":-0.512093186378479,"151":-1.3397440910339355,"152":0.8824632167816162,"153":0.38263165950775146,"154":1.1418179273605347,"155":-0.015521124005317688,"156":-0.37457534670829773,"157":0.44824281334877014,"158":0.00032443171949125826,"159":-0.2233472466468811,"160":0.3676627576351166,"161":-0.4407806098461151,"162":-0.15069076418876648,"163":-0.10784050822257996,"164":-0.1933707594871521,"165":0.5754030346870422,"166":1.0771484375,"167":-0.6639877557754517,"168":0.8627802729606628,"169":0.36527037620544434,"170":0.6030221581459045,"171":-0.2069753110408783,"172":-0.008525056764483452,"173":0.1842680722475052,"174":-0.2085481882095337,"175":0.44514647126197815,"176":1.325200080871582,"177":-0.029324481263756752,"178":0.4178953170776367,"179":-0.20205776393413544,"180":1.8799511194229126,"181":-0.3200819790363312,"182":-1.0375021696090698,"183":-0.20331883430480957,"184":0.6327573657035828,"185":0.308230459690094,"186":0.6084893345832825,"187":0.849197506904602,"188":-0.596343994140625,"189":-0.17541447281837463,"190":0.21114234626293182,"191":0.8597695231437683,"192":-0.26134783029556274,"193":-0.3762091100215912,"194":-0.4513561427593231,"195":-0.37469661235809326,"196":0.04711475968360901,"197":-0.6926755905151367,"198":-0.3911082446575165,"199":-0.20571552217006683,"200":1.8046715259552002,"201":-0.8058030009269714,"202":-0.5023037791252136,"203":0.2606101930141449,"204":-0.4112178683280945,"205":0.16619423031806946,"206":-0.2966555058956146,"207":0.07920946925878525,"208":0.42660585045814514,"209":0.09317536652088165,"210":-0.2487950474023819,"211":-0.44672468304634094,"212":0.5092678070068359,"213":0.07158777117729187,"214":0.6997097730636597,"215":0.4485659599304199,"216":0.47519513964653015,"217":0.3207966685295105,"218":0.12293736636638641,"219":0.08905228227376938,"220":0.9842776656150818,"221":-0.784803569316864,"222":-0.33803582191467285,"223":-0.06792211532592773,"224":-0.7278306484222412,"225":0.3170740008354187,"226":0.7793070673942566,"227":0.10800047218799591,"228":0.37483465671539307,"229":0.2254847139120102,"230":-0.8723387122154236,"231":-0.09558317065238953,"232":-0.23955926299095154,"233":-0.6582456827163696,"234":-0.19774958491325378,"235":0.0643242746591568,"236":0.5768433809280396,"237":0.5203768610954285,"238":0.39227116107940674,"239":-0.4232965409755707,"240":0.9218170046806335,"241":0.3972068727016449,"242":0.053495731204748154,"243":-0.9687933325767517,"244":1.5343306064605713,"245":0.6971924901008606,"246":-0.7191562056541443,"247":0.6627984642982483,"248":-0.4794660210609436,"249":0.0914231464266777,"250":0.38009411096572876,"251":1.1642096042633057,"252":0.23090331256389618,"253":0.16143429279327393,"254":-1.2101304531097412,"255":-1.4998066425323486,"256":0.10558070242404938,"257":-0.22455455362796783,"258":-0.9674339294433594,"259":1.6647480726242065,"260":0.6180897951126099,"261":-1.0610765218734741,"262":-0.5712239742279053,"263":0.07812919467687607,"264":-0.10568063706159592,"265":0.2236408293247223,"266":-0.16890624165534973,"267":-0.38409197330474854,"268":-0.2095584124326706,"269":-0.11555221676826477,"270":-0.2639201581478119,"271":-0.11785787343978882,"272":0.2482612431049347,"273":0.24819809198379517,"274":0.2918922007083893,"275":0.8795240521430969,"276":-0.3961929380893707,"277":0.133511483669281,"278":-0.5574690699577332,"279":-0.05116982012987137,"280":0.12029145658016205,"281":-1.2964801788330078,"282":-0.33477526903152466,"283":0.24043384194374084,"284":-0.3537418842315674,"285":-0.12163962423801422,"286":-0.365657776594162,"287":-0.35237666964530945,"288":-0.006274886429309845,"289":-0.7818077802658081,"290":-0.36048877239227295,"291":-0.18310388922691345,"292":0.9033686518669128,"293":1.0036425590515137,"294":0.3377615809440613,"295":-0.013526435010135174,"296":-0.13324855268001556,"297":0.707095205783844,"298":-0.26068562269210815,"299":0.5448967814445496,"300":0.3402433693408966,"301":-2.2686452865600586,"302":0.1345149576663971,"303":0.615822434425354,"304":-0.8109563589096069,"305":-0.1925903707742691,"306":-0.691551148891449,"307":-0.24924206733703613,"308":0.25894561409950256,"309":-0.16239891946315765,"310":1.1067473888397217,"311":-0.22629640996456146,"312":-0.17869478464126587,"313":0.37027305364608765,"314":0.3363582193851471,"315":0.607952892780304,"316":-0.14256055653095245,"317":0.319659560918808,"318":0.5233826637268066,"319":-0.009825289249420166,"320":1.409909963607788,"321":-0.16888317465782166,"322":-0.9860319495201111,"323":-0.1637951135635376,"324":-0.7987112998962402,"325":0.007995476946234703,"326":0.5081375241279602,"327":-0.3174504041671753,"328":-0.007505674846470356,"329":-0.5013733506202698,"330":-0.2616521716117859,"331":0.2845987379550934,"332":0.11980710923671722,"333":0.528148353099823,"334":-0.032907262444496155,"335":-0.291536808013916,"336":-0.032467830926179886,"337":-0.16845913231372833,"338":-0.19499516487121582,"339":0.08462177962064743,"340":0.10213438421487808,"341":0.5284559726715088,"342":-0.15942831337451935,"343":0.5381466150283813,"344":-1.0682555437088013,"345":-0.29319098591804504,"346":-0.09732620418071747,"347":-0.02158280834555626,"348":0.2075176239013672,"349":0.6821193695068359,"350":0.061022840440273285,"351":-0.44999057054519653,"352":-0.10368872433900833,"353":-0.38134729862213135,"354":0.8973896503448486,"355":0.2355399876832962,"356":0.5382848381996155,"357":-0.10319244116544724,"358":0.6844452023506165,"359":-0.6783559322357178,"360":-0.5999325513839722,"361":-0.704564094543457,"362":-0.556150496006012,"363":0.026646124199032784,"364":-0.12382489442825317,"365":-0.6534463167190552,"366":-0.4681183695793152,"367":0.09474705904722214,"368":0.2703407406806946,"369":-0.736494243144989,"370":0.16615772247314453,"371":-0.17281381785869598,"372":0.32151955366134644,"373":0.2388591766357422,"374":-0.10663671791553497,"375":-0.006459280848503113,"376":-0.14550457894802094,"377":-0.03200186416506767,"378":0.22143419086933136,"379":0.38961517810821533,"380":1.490054726600647,"381":-0.6597838997840881,"382":-1.6610052585601807,"383":-0.31068119406700134,"384":-0.2354974001646042,"385":0.10098670423030853,"386":0.186456099152565,"387":0.48201486468315125,"388":-0.20715050399303436,"389":0.1464812457561493,"390":0.8236323595046997,"391":0.36624908447265625,"392":0.4361068606376648,"393":-1.0173996686935425,"394":-0.20886307954788208,"395":-0.05791878327727318,"396":-0.35938820242881775,"397":-0.8724325299263,"398":-0.5584936141967773,"399":0.08733035624027252}},"forgetBias":{"rows":20,"columns":1,"weights":{"0":0,"1":0,"2":0,"3":0,"4":0,"5":0,"6":0,"7":0,"8":0,"9":0,"10":0,"11":0,"12":0,"13":0,"14":0,"15":0,"16":0,"17":0,"18":0,"19":0}},"outputMatrix":{"rows":20,"columns":33,"weights":{"0":0.3440761864185333,"1":-0.5264719724655151,"2":0.03342243656516075,"3":0.17103463411331177,"4":0.06189809367060661,"5":0.22310389578342438,"6":-0.3451523780822754,"7":-0.31239137053489685,"8":-0.11963799595832825,"9":0.22266045212745667,"10":0.40751001238822937,"11":0.7326849102973938,"12":-0.2504602074623108,"13":-0.09665749967098236,"14":-0.031367335468530655,"15":-0.8714926242828369,"16":0.7900654077529907,"17":-0.13513685762882233,"18":0.1595982164144516,"19":0.4806845188140869,"20":0.9933398962020874,"21":-0.381521999835968,"22":0.8227956295013428,"23":0.5593791007995605,"24":0.220066636800766,"25":0.5470778346061707,"26":-0.8080627918243408,"27":0.4408303201198578,"28":-0.09914091974496841,"29":0.4943886697292328,"30":-0.32765957713127136,"31":0.24931488931179047,"32":0.24692633748054504,"33":-0.04988985136151314,"34":0.020423924550414085,"35":-0.18629291653633118,"36":-0.16472642123699188,"37":-0.5094557404518127,"38":-0.09405224770307541,"39":0.014798818156123161,"40":-0.09726431220769882,"41":0.18681268393993378,"42":-0.47428300976753235,"43":-0.11591915041208267,"44":-0.17434191703796387,"45":0.5204923748970032,"46":-0.05567299574613571,"47":0.13695374131202698,"48":0.11039489507675171,"49":-0.3083696961402893,"50":0.020315581932663918,"51":-0.3036365509033203,"52":-0.05872314050793648,"53":-0.5951986312866211,"54":-1.2253113985061646,"55":-0.44632747769355774,"56":-0.8130093812942505,"57":-0.1567797064781189,"58":-0.5019041299819946,"59":0.21891799569129944,"60":-0.43320807814598083,"61":-0.48223164677619934,"62":0.07255394756793976,"63":0.5801949501037598,"64":-0.4396934509277344,"65":-0.72635817527771,"66":-0.3738628923892975,"67":-0.24071916937828064,"68":-0.7099124789237976,"69":-0.3087117373943329,"70":0.10931932181119919,"71":-0.2566566467285156,"72":0.004788019694387913,"73":0.09264302253723145,"74":-0.6374154686927795,"75":0.8123190999031067,"76":1.1488696336746216,"77":0.9771116971969604,"78":-0.19182835519313812,"79":-0.47540590167045593,"80":0.3318845331668854,"81":-0.4750470817089081,"82":0.33458688855171204,"83":0.14298787713050842,"84":1.2390663623809814,"85":1.012708067893982,"86":0.8880142569541931,"87":-0.42068105936050415,"88":0.39057543873786926,"89":-0.049253951758146286,"90":0.43364280462265015,"91":-0.14610236883163452,"92":-0.11827357858419418,"93":0.660541832447052,"94":0.08695601671934128,"95":0.020767366513609886,"96":-0.21183423697948456,"97":0.5455686450004578,"98":-0.18453198671340942,"99":0.298778235912323,"100":-1.1914712190628052,"101":-1.2374788522720337,"102":-0.6572849750518799,"103":-0.5088861584663391,"104":0.6337230205535889,"105":-0.24829602241516113,"106":-0.13781967759132385,"107":-0.5091938376426697,"108":0.3150748610496521,"109":-0.2491196095943451,"110":0.3975376784801483,"111":0.2506515383720398,"112":-0.3718147873878479,"113":-0.7844728231430054,"114":0.010248023085296154,"115":-0.19098475575447083,"116":0.18214534223079681,"117":0.8052720427513123,"118":0.5744261741638184,"119":-0.24649272859096527,"120":-0.8688335418701172,"121":0.1991359442472458,"122":-0.41542401909828186,"123":-0.6215988993644714,"124":-0.5400424599647522,"125":0.2199305146932602,"126":-0.05642964690923691,"127":-1.1227577924728394,"128":0.25168636441230774,"129":0.819491446018219,"130":-0.41586852073669434,"131":0.27233490347862244,"132":1.645411491394043,"133":-0.21700915694236755,"134":0.274945467710495,"135":-0.49909669160842896,"136":0.6386807560920715,"137":-0.15045523643493652,"138":-0.9418908357620239,"139":-0.3781222105026245,"140":0.024852359667420387,"141":0.4522787928581238,"142":0.7411289811134338,"143":1.3999451398849487,"144":-0.3663007616996765,"145":-1.0057568550109863,"146":0.355131059885025,"147":-0.6165437698364258,"148":0.324540376663208,"149":-0.013406251557171345,"150":0.0033866167068481445,"151":1.2587738037109375,"152":0.3836367130279541,"153":0.5883986353874207,"154":0.9112908840179443,"155":0.11946027725934982,"156":0.0026437174528837204,"157":-0.28298041224479675,"158":-0.6845147013664246,"159":1.0959099531173706,"160":-0.30249977111816406,"161":0.25657376646995544,"162":-0.35946810245513916,"163":0.1854134351015091,"164":-0.6596329808235168,"165":0.23996609449386597,"166":0.11877639591693878,"167":0.2856208086013794,"168":-0.6682884097099304,"169":-0.8930879831314087,"170":-0.7453094720840454,"171":-0.4728575646877289,"172":-0.33044108748435974,"173":0.0062280744314193726,"174":0.6906936168670654,"175":0.7066630721092224,"176":1.2519090175628662,"177":-0.1705966591835022,"178":-0.6429269909858704,"179":0.4849814474582672,"180":-0.6794731020927429,"181":0.3067569434642792,"182":-0.024909749627113342,"183":-0.44951531291007996,"184":1.829087257385254,"185":0.09125752747058868,"186":-0.8074048757553101,"187":0.23353353142738342,"188":-0.7114772796630859,"189":0.07692215591669083,"190":-0.31088492274284363,"191":0.09835294634103775,"192":0.6664384007453918,"193":-0.09171322733163834,"194":0.3348924219608307,"195":0.007578061893582344,"196":-0.11366263777017593,"197":-0.6163604855537415,"198":0.28673702478408813,"199":-0.21226724982261658,"200":-0.6152468919754028,"201":-0.416637122631073,"202":-0.3044782876968384,"203":-0.5610909461975098,"204":-0.06504472345113754,"205":-0.16193367540836334,"206":-0.3459843397140503,"207":0.5223221182823181,"208":0.42815473675727844,"209":1.42026686668396,"210":0.02873164229094982,"211":-0.33433064818382263,"212":-0.3390318751335144,"213":-0.24664103984832764,"214":-0.13551922142505646,"215":-0.3014739155769348,"216":0.49273499846458435,"217":1.5049159526824951,"218":-0.170659601688385,"219":-1.2176810503005981,"220":0.8095024228096008,"221":-0.40481024980545044,"222":-0.15069887042045593,"223":-0.34596148133277893,"224":-0.15141558647155762,"225":0.10752525925636292,"226":-0.5136897563934326,"227":0.602647066116333,"228":0.43315574526786804,"229":-0.5115915536880493,"230":-0.13695937395095825,"231":-0.041502296924591064,"232":-0.11435683071613312,"233":-0.11982598155736923,"234":0.7731418609619141,"235":-0.2247145026922226,"236":0.25283366441726685,"237":-0.21730943024158478,"238":-0.2849976122379303,"239":-0.9883086085319519,"240":1.0529639720916748,"241":0.18532411754131317,"242":1.4116555452346802,"243":-0.1620665192604065,"244":0.217239648103714,"245":0.05615335330367088,"246":-0.471021831035614,"247":0.7306252121925354,"248":-0.04021797329187393,"249":1.2994886636734009,"250":0.46138864755630493,"251":0.7883570790290833,"252":-0.4487062692642212,"253":0.1739978790283203,"254":0.07791747897863388,"255":0.11436815559864044,"256":0.5673314929008484,"257":-0.20502157509326935,"258":1.0852034091949463,"259":-0.019752463325858116,"260":0.16112537682056427,"261":-0.03170926496386528,"262":0.2786486744880676,"263":0.3497203588485718,"264":0.6609600782394409,"265":-0.9960465431213379,"266":0.23579636216163635,"267":0.5095972418785095,"268":-0.8722602128982544,"269":0.3950606882572174,"270":-0.23411554098129272,"271":-0.06980112940073013,"272":-0.9373431205749512,"273":0.8411768078804016,"274":0.2236432582139969,"275":0.6522833704948425,"276":-0.04158938676118851,"277":-0.3194314241409302,"278":-0.3367234170436859,"279":-1.1651549339294434,"280":1.2823765277862549,"281":-0.07759329676628113,"282":0.5195695161819458,"283":0.8019974827766418,"284":1.2960618734359741,"285":-0.6363288164138794,"286":0.6579111218452454,"287":-0.5655859708786011,"288":0.03482968732714653,"289":0.5607720017433167,"290":-0.14967261254787445,"291":0.8122291564941406,"292":0.06921312212944031,"293":-0.11875288188457489,"294":-0.06855801492929459,"295":0.26983413100242615,"296":-0.13134683668613434,"297":-0.1563747674226761,"298":-0.11753140389919281,"299":0.16287481784820557,"300":-0.13242612779140472,"301":-0.23550386726856232,"302":-1.104331135749817,"303":0.023926615715026855,"304":-0.8299223184585571,"305":0.2000759094953537,"306":0.4595116376876831,"307":0.43727847933769226,"308":0.7487851977348328,"309":0.1973642259836197,"310":0.4972101151943207,"311":-0.2615050971508026,"312":-0.5463663935661316,"313":0.17116457223892212,"314":-0.3572157919406891,"315":-0.7562541365623474,"316":0.9389986395835876,"317":-0.18324372172355652,"318":-0.1774197369813919,"319":0.07335369288921356,"320":-1.6766339540481567,"321":0.19765859842300415,"322":-0.025467675179243088,"323":0.7975937128067017,"324":0.36355075240135193,"325":-0.28969308733940125,"326":0.8543073534965515,"327":0.05044259876012802,"328":0.14188528060913086,"329":-1.3264521360397339,"330":1.0090727806091309,"331":-0.32140469551086426,"332":-0.43013718724250793,"333":0.09034830331802368,"334":0.17468009889125824,"335":-0.24043898284435272,"336":-0.5958777666091919,"337":-0.22209806740283966,"338":-0.3441188931465149,"339":0.9873812198638916,"340":0.08145137876272202,"341":0.6560931205749512,"342":0.11793502420186996,"343":-0.12946930527687073,"344":-0.10733286291360855,"345":0.02869410440325737,"346":0.16823558509349823,"347":-0.06748966872692108,"348":1.2060109376907349,"349":0.6403162479400635,"350":-0.08343520760536194,"351":0.6183135509490967,"352":0.5645461678504944,"353":-0.11974413692951202,"354":-0.16461262106895447,"355":-0.09227287769317627,"356":-0.3590826988220215,"357":0.9360404014587402,"358":-0.5459665060043335,"359":0.14565443992614746,"360":-0.034409765154123306,"361":0.18165484070777893,"362":0.06118091940879822,"363":0.8614367842674255,"364":-0.6721603274345398,"365":-0.6573249101638794,"366":-0.5518523454666138,"367":0.5665321350097656,"368":0.518578290939331,"369":-0.40230804681777954,"370":-0.6758904457092285,"371":-0.2665647268295288,"372":0.5887787938117981,"373":0.5667216777801514,"374":0.43677595257759094,"375":-0.5913456678390503,"376":-0.9015064835548401,"377":0.10851797461509705,"378":-0.18104413151741028,"379":0.11056511104106903,"380":-0.027583513408899307,"381":0.5608408451080322,"382":1.2673945426940918,"383":0.31397950649261475,"384":0.08585816621780396,"385":-0.04652486741542816,"386":0.2290193736553192,"387":0.12529680132865906,"388":0.26830896735191345,"389":-0.36741676926612854,"390":0.9267137050628662,"391":-0.7932186126708984,"392":0.28358519077301025,"393":-0.15553565323352814,"394":-0.007763884495943785,"395":-0.21592463552951813,"396":-0.41384443640708923,"397":-0.08887813985347748,"398":0.26805180311203003,"399":0.06671752035617828,"400":0.5194060802459717,"401":-0.19103752076625824,"402":-0.0794379934668541,"403":-0.5942160487174988,"404":0.3181537091732025,"405":-0.39267051219940186,"406":-0.0433020293712616,"407":-0.2173793762922287,"408":0.21804271638393402,"409":0.023132910951972008,"410":0.31005582213401794,"411":-0.24239595234394073,"412":0.0019058478064835072,"413":0.3715309500694275,"414":-0.8956013321876526,"415":-0.018181927502155304,"416":-0.38140180706977844,"417":-1.2261884212493896,"418":-0.20607048273086548,"419":-0.6451700925827026,"420":0.028752610087394714,"421":-0.5409426689147949,"422":0.7830222845077515,"423":-0.5379019379615784,"424":0.1241346001625061,"425":-0.056649159640073776,"426":0.15796470642089844,"427":-0.22618162631988525,"428":-1.1351730823516846,"429":0.016858937218785286,"430":0.36683839559555054,"431":-0.3609846234321594,"432":-0.5356482267379761,"433":-0.09012865275144577,"434":0.002289028139784932,"435":-0.3069726526737213,"436":-1.1689890623092651,"437":0.1911965161561966,"438":-0.3493284285068512,"439":-0.1020929291844368,"440":-0.22763504087924957,"441":0.7845991849899292,"442":0.3286314904689789,"443":-0.48776400089263916,"444":-0.38238203525543213,"445":0.07441694289445877,"446":0.5232551693916321,"447":-0.9693094491958618,"448":0.6733717918395996,"449":-0.7700465321540833,"450":-0.5816195607185364,"451":-0.32785406708717346,"452":-0.9249013066291809,"453":-0.19618907570838928,"454":-1.3908056020736694,"455":0.6211033463478088,"456":-0.11910884827375412,"457":-0.4724661707878113,"458":0.04380223527550697,"459":0.46911197900772095,"460":0.15089663863182068,"461":-0.8604477047920227,"462":0.30851683020591736,"463":-0.5761756300926208,"464":0.3330824375152588,"465":0.3981741666793823,"466":-0.16139943897724152,"467":-0.21798408031463623,"468":0.1232684999704361,"469":0.5025379061698914,"470":0.053101345896720886,"471":0.328642338514328,"472":0.01133350282907486,"473":0.12975700199604034,"474":0.08104286342859268,"475":-0.40916112065315247,"476":0.17191369831562042,"477":-0.4034048616886139,"478":0.2938753664493561,"479":-0.6345592737197876,"480":-0.2606142461299896,"481":-0.029964977875351906,"482":0.03250524029135704,"483":0.5376735329627991,"484":0.1538516730070114,"485":-0.1624612659215927,"486":-0.10286425799131393,"487":0.5097917914390564,"488":-0.14378003776073456,"489":0.31401291489601135,"490":0.10278088599443436,"491":0.30494895577430725,"492":0.00953664816915989,"493":-0.11297963559627533,"494":-0.3599125146865845,"495":0.7972609996795654,"496":-0.26695284247398376,"497":-1.121086597442627,"498":-0.1366833746433258,"499":0.24311135709285736,"500":-0.035056546330451965,"501":-0.3162062466144562,"502":-0.13787707686424255,"503":-0.22319014370441437,"504":0.4194208085536957,"505":0.5637506246566772,"506":0.5149881839752197,"507":-0.23218150436878204,"508":0.6258731484413147,"509":-0.528096616268158,"510":-0.438326358795166,"511":0.2787121832370758,"512":-0.24312037229537964,"513":0.6549558043479919,"514":0.870544970035553,"515":-0.15670190751552582,"516":0.4587951600551605,"517":0.2994404435157776,"518":0.01321607269346714,"519":-0.33187416195869446,"520":-0.3517753779888153,"521":0.5723651051521301,"522":0.30870893597602844,"523":-0.6939454078674316,"524":0.33488476276397705,"525":0.09292981028556824,"526":0.05796187371015549,"527":0.2999071776866913,"528":0.3746647834777832,"529":-0.9921854138374329,"530":-0.35433921217918396,"531":0.012044677510857582,"532":-0.8364859223365784,"533":-0.352685809135437,"534":-0.07800336927175522,"535":-0.5397390127182007,"536":-0.16471433639526367,"537":0.5410451889038086,"538":-0.03398992866277695,"539":0.8104454278945923,"540":-0.05952954292297363,"541":0.8107469081878662,"542":-0.6461758017539978,"543":-1.0390280485153198,