{"type":"LSTM","options":{"inputSize":34,"inputRange":34,"hiddenLayers":[20,20],"outputSize":34,"decayRate":0.999,"smoothEps":1e-8,"regc":0.000001,"clipval":5,"maxPredictionLength":100,"dataFormatter":{"values":["ah well","are you better than the older one","are you technoblade","bob","bonjour","can you speak romanian","correct","deez what sir","do you hate","do you like me?","dont miss them","he big brain","hello","hi","how are you","i big brain yes","i can only `chat` in english. whats your first language?","i dont have a dad","i dont have a mom","i dont talk, i only send messages","im good","im not trained to hate anything/anyone","joe who sir","just a test.","my first language is romanian","my name is deez","nice","not yet sadly","not yet, if you want an more polished company than me then `.chatbot old`","pls talk","pretty sure it does","privet","search joe","sound good","sounds like something worked","test","the nuts","this is better","ur dad","ur mom","why should i like you","wow, so you can speak romanian and english! thats cool","wtj","yes","you big brain"],"indexTable":{"a":0,"h":1," ":2,"w":3,"e":4,"l":5,"r":6,"y":7,"o":8,"u":9,"b":10,"t":11,"n":12,"d":13,"c":14,"j":15,"s":16,"p":17,"k":18,"m":19,"i":20,"z":21,"?":22,"g":23,"`":24,".":25,"f":26,"v":27,",":28,"/":29,"!":30,"stop-input":31,"start-output":32,"unrecognized":33},"characterTable":{"0":"a","1":"h","2":" ","3":"w","4":"e","5":"l","6":"r","7":"y","8":"o","9":"u","10":"b","11":"t","12":"n","13":"d","14":"c","15":"j","16":"s","17":"p","18":"k","19":"m","20":"i","21":"z","22":"?","23":"g","24":"`","25":".","26":"f","27":"v","28":",","29":"/","30":"!","31":null,"32":null,"33":null},"characters":["a","h"," ","w","e","l","r","y","o","u","b","t","n","d","c","j","s","p","k","m","i","z","?","g","`",".","f","v",",","/","!","stop-input","start-output","unrecognized"],"specialIndexes":[31,32,33]}},"input":{"rows":35,"columns":34,"weights":{"0":-0.11097494512796402,"1":0.048633873462677,"2":0.2472650557756424,"3":-0.09372703731060028,"4":-0.14380225539207458,"5":-0.40859687328338623,"6":-0.2792789041996002,"7":-0.09013700485229492,"8":0.45592549443244934,"9":-0.02046935260295868,"10":-0.5285752415657043,"11":0.7282429337501526,"12":-0.8464494943618774,"13":-0.20007361471652985,"14":0.225286066532135,"15":-0.9587537050247192,"16":-0.24172016978263855,"17":-0.10958093404769897,"18":0.2588370442390442,"19":0.39651936292648315,"20":0.0997423529624939,"21":0.2563740313053131,"22":0.012858759611845016,"23":-0.24972139298915863,"24":0.3510185778141022,"25":0.02434469945728779,"26":-0.22087275981903076,"27":-0.20938031375408173,"28":0.050783559679985046,"29":0.04160134121775627,"30":-0.14668501913547516,"31":0.46384871006011963,"32":0.3393218219280243,"33":0.23281016945838928,"34":0.7999505400657654,"35":0.8446521759033203,"36":-0.967435359954834,"37":0.28107714653015137,"38":-0.5846858024597168,"39":1.2219042778015137,"40":0.8590046167373657,"41":-0.7172290086746216,"42":2.7682363986968994,"43":-0.2804739773273468,"44":-0.24957361817359924,"45":-0.43342530727386475,"46":0.19256429374217987,"47":-0.38687771558761597,"48":-0.1408703625202179,"49":-0.3334422707557678,"50":-0.5208656191825867,"51":-0.19242244958877563,"52":0.3039964735507965,"53":0.8597821593284607,"54":0.004855066072195768,"55":-0.5904496312141418,"56":-0.07768692821264267,"57":-0.677270233631134,"58":1.7006083726882935,"59":1.4810243844985962,"60":1.3487364053726196,"61":0.3618066906929016,"62":0.4826319217681885,"63":-0.11088288575410843,"64":0.5942007303237915,"65":1.9041551351547241,"66":-1.2603189945220947,"67":0.07725568115711212,"68":0.3132261335849762,"69":0.5185869336128235,"70":-1.7866225242614746,"71":0.4084557592868805,"72":-0.3316616714000702,"73":2.257753610610962,"74":0.16601315140724182,"75":0.961380660533905,"76":3.0394644737243652,"77":-0.4197911322116852,"78":0.23147033154964447,"79":-0.20600014925003052,"80":-0.6615102887153625,"81":-0.13146796822547913,"82":1.0809516906738281,"83":-0.1592891961336136,"84":0.3059432804584503,"85":1.4710625410079956,"86":-1.4933048486709595,"87":1.291132926940918,"88":0.4196544885635376,"89":-0.16255350410938263,"90":1.2832722663879395,"91":-0.5665938258171082,"92":0.0034920775797218084,"93":1.6167819499969482,"94":0.4384094178676605,"95":2.200955629348755,"96":0.10152190178632736,"97":-0.013057464733719826,"98":0.6625597476959229,"99":0.9315067529678345,"100":0.6630125045776367,"101":-0.5786183476448059,"102":-0.3483565151691437,"103":0.9047662615776062,"104":1.05294668674469,"105":0.6706513166427612,"106":-1.3127033710479736,"107":-0.4466501474380493,"108":0.23235607147216797,"109":-0.8422982096672058,"110":2.715898275375366,"111":-0.4693470299243927,"112":-0.3491288125514984,"113":0.8724998831748962,"114":-1.7759480476379395,"115":-0.06077568605542183,"116":0.19115346670150757,"117":-1.7011457681655884,"118":-1.077968716621399,"119":2.077789783477783,"120":-1.077035665512085,"121":1.0876065492630005,"122":1.4085772037506104,"123":2.1781344413757324,"124":1.3069705963134766,"125":-1.1512259244918823,"126":0.7163484692573547,"127":1.3924468755722046,"128":0.8368023633956909,"129":2.8068413734436035,"130":0.24887627363204956,"131":-0.3104614019393921,"132":4.754825592041016,"133":1.6932731866836548,"134":0.10006986558437347,"135":-0.3322807848453522,"136":0.2405605912208557,"137":-0.7118229866027832,"138":-1.0444859266281128,"139":-0.11115454882383347,"140":-0.0888364389538765,"141":0.3322460949420929,"142":0.16572056710720062,"143":-0.025886796414852142,"144":0.7153698205947876,"145":0.7671682238578796,"146":-0.1829390525817871,"147":-0.5190203189849854,"148":-0.8268724083900452,"149":0.3958112895488739,"150":-0.26047348976135254,"151":1.0601896047592163,"152":-0.4122939705848694,"153":0.2892243564128876,"154":0.9169295430183411,"155":-0.2587815523147583,"156":-0.33553221821784973,"157":-0.49592164158821106,"158":-0.5083195567131042,"159":0.8949006199836731,"160":0.18162372708320618,"161":-0.21681512892246246,"162":0.464504599571228,"163":0.13908609747886658,"164":0.12418633699417114,"165":0.21515856683254242,"166":0.5099392533302307,"167":0.5564882159233093,"168":-0.5518507361412048,"169":0.08401897549629211,"170":1.0623525381088257,"171":0.0059859310276806355,"172":-0.8926941156387329,"173":0.4416990876197815,"174":0.9904954433441162,"175":-0.325365275144577,"176":-0.03366117924451828,"177":-0.5332552790641785,"178":1.0081602334976196,"179":1.4853523969650269,"180":-1.2340716123580933,"181":-0.3267963230609894,"182":-0.23160791397094727,"183":1.077006220817566,"184":-0.8235878944396973,"185":-0.15653494000434875,"186":-1.8298892974853516,"187":2.2908897399902344,"188":-0.4757917523384094,"189":0.9783103466033936,"190":1.064586877822876,"191":-1.3373068571090698,"192":1.7233699560165405,"193":0.31256017088890076,"194":-2.1972005367279053,"195":1.0413583517074585,"196":0.5467492341995239,"197":-0.4565979838371277,"198":0.2069130688905716,"199":-0.17318037152290344,"200":0.6923798322677612,"201":1.1158194541931152,"202":-1.0830810070037842,"203":-0.5648187398910522,"204":0.6617327332496643,"205":0.4689774215221405,"206":0.5361726880073547,"207":-1.0776903629302979,"208":-1.336658000946045,"209":0.34335029125213623,"210":0.15939053893089294,"211":-1.4025604724884033,"212":0.9045369625091553,"213":-0.04539504274725914,"214":0.12286294251680374,"215":-0.8896152973175049,"216":0.23689129948616028,"217":-0.45316311717033386,"218":-0.030213335528969765,"219":0.17295968532562256,"220":-1.8459981679916382,"221":-1.9322808980941772,"222":-0.7610057592391968,"223":1.825976848602295,"224":1.7558845281600952,"225":-1.3664780855178833,"226":-0.3732837736606598,"227":-2.0359859466552734,"228":3.0299673080444336,"229":-0.7911612391471863,"230":0.5687312483787537,"231":-0.30935215950012207,"232":-0.5326192378997803,"233":0.2157880663871765,"234":0.9758016467094421,"235":0.7518613338470459,"236":0.04641876369714737,"237":-1.1390435695648193,"238":0.5667459964752197,"239":-0.649876594543457,"240":2.8418025970458984,"241":-2.0024209022521973,"242":-2.400805950164795,"243":-1.0549237728118896,"244":0.11908908188343048,"245":-1.0781866312026978,"246":-1.0250941514968872,"247":-0.10054568201303482,"248":0.7278786897659302,"249":-0.4166472852230072,"250":1.668468713760376,"251":-0.28576740622520447,"252":-0.9258187413215637,"253":0.8863104581832886,"254":-2.026252508163452,"255":-0.10549519211053848,"256":-0.2693083882331848,"257":1.5354161262512207,"258":2.9374942779541016,"259":-1.3210196495056152,"260":0.01544871460646391,"261":0.08233393728733063,"262":0.7607000470161438,"263":-1.4576401710510254,"264":0.774743914604187,"265":0.39074116945266724,"266":0.12397352606058121,"267":-0.10457803308963776,"268":-0.9639714956283569,"269":-0.34025755524635315,"270":-0.4662235379219055,"271":-0.6867124438285828,"272":-0.2387939989566803,"273":-0.02566704899072647,"274":-1.1296387910842896,"275":-0.02120606042444706,"276":0.7789915800094604,"277":-0.15044403076171875,"278":-0.5016093850135803,"279":0.5404711365699768,"280":2.219602584838867,"281":1.2060084342956543,"282":0.8376266956329346,"283":1.8290787935256958,"284":0.805764377117157,"285":1.140154480934143,"286":-0.9268358945846558,"287":-1.6717244386672974,"288":-0.20712800323963165,"289":4.5788679122924805,"290":-1.7666606903076172,"291":2.126220226287842,"292":0.547092616558075,"293":-0.6360819935798645,"294":2.215214729309082,"295":0.91942298412323,"296":-2.1645267009735107,"297":1.3247888088226318,"298":0.4012444317340851,"299":-1.6122384071350098,"300":0.4950568675994873,"301":-0.2774434983730316,"302":-2.0150063037872314,"303":-1.9190479516983032,"304":0.40557509660720825,"305":-1.05803644657135,"306":0.5880608558654785,"307":-0.1600523293018341,"308":-0.08212142437696457,"309":-0.6866121888160706,"310":-0.2277543544769287,"311":0.1111762523651123,"312":-0.5892747044563293,"313":-0.42780056595802307,"314":-0.951229453086853,"315":0.33096131682395935,"316":-0.3474140465259552,"317":-0.26231974363327026,"318":0.5860245823860168,"319":0.2746456563472748,"320":0.17063499987125397,"321":0.4971958100795746,"322":-0.5025050640106201,"323":0.34290018677711487,"324":0.12106151878833771,"325":0.29176148772239685,"326":0.5737645626068115,"327":-0.003638132242485881,"328":-0.3708779513835907,"329":-0.2782171964645386,"330":-0.0056184218265116215,"331":-0.4545822739601135,"332":-0.11249154806137085,"333":-0.9331265687942505,"334":-0.4854781925678253,"335":0.05448652431368828,"336":-0.5069071054458618,"337":-0.4231855273246765,"338":-0.802108645439148,"339":0.11074633151292801,"340":-0.48286959528923035,"341":0.7504708766937256,"342":-0.7592871189117432,"343":0.5974461436271667,"344":-2.967193126678467,"345":-1.7512094974517822,"346":1.7676923274993896,"347":1.3363816738128662,"348":0.5963695049285889,"349":-0.4681240916252136,"350":-0.8754100799560547,"351":0.2724224627017975,"352":-1.5565757751464844,"353":-1.2868188619613647,"354":-1.3329931497573853,"355":-0.4295624792575836,"356":-1.9945580959320068,"357":0.3019920289516449,"358":-0.5672023296356201,"359":0.07748693972826004,"360":0.9386507868766785,"361":0.7577317357063293,"362":-0.6351675391197205,"363":-1.4824156761169434,"364":3.0925121307373047,"365":-0.48665422201156616,"366":1.4281076192855835,"367":1.6020917892456055,"368":-0.12095632404088974,"369":0.1807694435119629,"370":1.6353589296340942,"371":0.2414688766002655,"372":1.7520771026611328,"373":-0.26755961775779724,"374":-0.33784762024879456,"375":0.3167886435985565,"376":-0.17696186900138855,"377":-1.0744253396987915,"378":-0.9202430844306946,"379":-0.043815892189741135,"380":0.5247018337249756,"381":-0.564357578754425,"382":1.9581224918365479,"383":-0.01752970926463604,"384":-0.030547909438610077,"385":-0.4287600517272949,"386":0.9544793367385864,"387":-0.7934659123420715,"388":0.3355695903301239,"389":-0.18534673750400543,"390":-0.9624890685081482,"391":-1.0911951065063477,"392":-0.5049355626106262,"393":0.9645999670028687,"394":0.37040606141090393,"395":0.04117244482040405,"396":0.31252744793891907,"397":-1.725305199623108,"398":1.0751069784164429,"399":1.2212538719177246,"400":1.9561690092086792,"401":1.345706582069397,"402":-0.2136385142803192,"403":-1.485855221748352,"404":0.10364926606416702,"405":0.30917888879776,"406":0.427584707736969,"407":-0.9591206908226013,"408":-1.1223869323730469,"409":-0.02467115968465805,"410":0.43368247151374817,"411":0.4007142186164856,"412":-0.651848316192627,"413":0.7594614028930664,"414":0.41003313660621643,"415":0.5777774453163147,"416":1.5737862586975098,"417":-0.08136577159166336,"418":-0.1625310480594635,"419":0.4413483738899231,"420":0.6803438663482666,"421":-0.20686088502407074,"422":-0.18823131918907166,"423":0.45291948318481445,"424":-0.8845993280410767,"425":-1.4310266971588135,"426":-0.6293120384216309,"427":1.2667028903961182,"428":1.0604276657104492,"429":-0.697644054889679,"430":0.4619516432285309,"431":-0.26345744729042053,"432":0.864698588848114,"433":1.16836678981781,"434":0.39325013756752014,"435":1.9416279792785645,"436":1.3349660634994507,"437":-1.221116542816162,"438":1.81121826171875,"439":-0.6630827784538269,"440":-0.4089168906211853,"441":-0.9493164420127869,"442":-0.6391122937202454,"443":1.1935852766036987,"444":-0.08866927027702332,"445":0.7385014295578003,"446":-0.3648865222930908,"447":-0.5747863054275513,"448":0.8104874491691589,"449":-0.1313292533159256,"450":0.952285885810852,"451":0.1874256581068039,"452":1.2631810903549194,"453":-0.38493841886520386,"454":-0.8850038647651672,"455":-0.00035711817326955497,"456":-1.5263572931289673,"457":0.13275760412216187,"458":-2.803086757659912,"459":-0.9645285606384277,"460":-0.07357292622327805,"461":1.48455011844635,"462":0.6136482954025269,"463":-0.35500070452690125,"464":0.12448608130216599,"465":0.3737141191959381,"466":0.9639012217521667,"467":-0.027149023488163948,"468":-0.04915495961904526,"469":1.1463632583618164,"470":0.2589160203933716,"471":0.022137565538287163,"472":0.3309546113014221,"473":0.37811279296875,"474":1.1987680196762085,"475":-0.1332835853099823,"476":0.9733326435089111,"477":0.9404920935630798,"478":-1.7367300987243652,"479":-0.7095606923103333,"480":0.47413167357444763,"481":0.8346334099769592,"482":-0.19623130559921265,"483":-0.11273235082626343,"484":0.6435375213623047,"485":0.9732459783554077,"486":-0.2152825891971588,"487":-0.2018120139837265,"488":-0.02622554451227188,"489":2.4651169776916504,"490":0.5023263096809387,"491":1.061292052268982,"492":0.017751632258296013,"493":0.7315793633460999,"494":-0.31870928406715393,"495":0.90068119764328,"496":-1.1645296812057495,"497":1.6832512617111206,"498":1.0985383987426758,"499":-0.4417487680912018,"500":-1.612635612487793,"501":1.3454666137695312,"502":0.2949294149875641,"503":0.7645370960235596,"504":0.15231017768383026,"505":-0.023360246792435646,"506":1.70964777469635,"507":0.9675219058990479,"508":0.7709054350852966,"509":0.1956600695848465,"510":2.4291486740112305,"511":0.7889052629470825,"512":-1.5113708972930908,"513":-0.3867981731891632,"514":1.664084553718567,"515":1.9636452198028564,"516":-0.7824036478996277,"517":0.4242578446865082,"518":4.439833641052246,"519":1.7131015062332153,"520":-0.6567332148551941,"521":-0.7623313665390015,"522":1.4055557250976562,"523":2.0854268074035645,"524":-0.31144586205482483,"525":-0.21295396983623505,"526":-0.5191186666488647,"527":2.3805179595947266,"528":-0.6471410393714905,"529":1.1596388816833496,"530":-1.5323994159698486,"531":0.024586021900177002,"532":2.1454575061798096,"533":1.0995728969573975,"534":-1.4254894256591797,"535":1.236236572265625,"536":-0.2400052398443222,"537":2.9206063747406006,"538":0.22003892064094543,"539":0.21540836989879608,"540":0.07414185255765915,"541":0.5558935403823853,"542":-0.25832128524780273,"543":-0.17372286319732666,"544":2.9590280055999756,"545":-2.169241428375244,"546":-2.0097484588623047,"547":0.42230096459388733,"548":-2.590672016143799,"549":0.057089272886514664,"550":-1.9890632629394531,"551":-2.3555634021759033,"552":-1.6464025974273682,"553":0.5606020092964172,"554":-1.1985419988632202,"555":-3.620290756225586,"556":-2.2791483402252197,"557":0.9027921557426453,"558":4.524641990661621,"559":-0.4069707691669464,"560":-2.580655574798584,"561":6.187687873840332,"562":1.054986596107483,"563":1.1026103496551514,"564":0.9062336087226868,"565":2.3735430240631104,"566":-1.120534896850586,"567":-3.444514036178589,"568":-2.8622589111328125,"569":1.5179325342178345,"570":0.15773554146289825,"571":-0.7281360626220703,"572":-0.6688777208328247,"573":2.4175894260406494,"574":-0.06158273294568062,"575":-1.2386372089385986,"576":-3.4407706260681152,"577":1.1079424619674683,"578":0.6968391537666321,"579":-1.752259612083435,"580":0.23467649519443512,"581":-0.8417685627937317,"582":-0.1303587406873703,"583":0.37174171209335327,"584":0.5428491234779358,"585":1.3113420009613037,"586":-1.2016396522521973,"587":0.16784915328025818,"588":-0.14555129408836365,"589":-1.2035785913467407,"590":-0.7860924005508423,"591":-0.6224794387817383,"592":0.014181080274283886,"593":-0.7541809678077698,"594":0.9321954250335693,"595":0.11004793643951416,"596":-0.09788394719362259,"597":-0.3752211928367615,"598":-0.5746546983718872,"599":-0.46601322293281555,"600":-0.040574073791503906,"601":-1.0616670846939087,"602":-1.3387367725372314,"603":0.2976807653903961,"604":-0.8439459800720215,"605":-1.4878065586090088,"606":-0.47478994727134705,"607":-0.1567699909210205,"608":-2.515512228012085,"609":-2.2926025390625,"610":-0.2633514106273651,"611":-0.3893681466579437,"612":1.5988798141479492,"613":2.2709267139434814,"614":-1.368964433670044,"615":1.7778007984161377,"616":-1.1988766193389893,"617":1.0435429811477661,"618":1.8471121788024902,"619":1.3247699737548828,"620":1.0039222240447998,"621":0.025657033547759056,"622":-2.5183212757110596,"623":1.4094843864440918,"624":0.7004284262657166,"625":1.630054235458374,"626":-1.0527149438858032,"627":-0.4424293637275696,"628":-0.9266299605369568,"629":-1.4899725914001465,"630":-1.051391363143921,"631":1.7749253511428833,"632":2.0876553058624268,"633":-1.742813229560852,"634":0.748719334602356,"635":-0.937035858631134,"636":-0.009930823929607868,"637":0.6896319389343262,"638":3.3472115993499756,"639":0.6129238605499268,"640":0.5866726636886597,"641":-0.8264645934104919,"642":2.940333604812622,"643":1.4923384189605713,"644":-0.8448318243026733,"645":0.20454226434230804,"646":-0.8796877861022949,"647":1.5650278329849243,"648":-3.0994620323181152,"649":-0.7043108940124512,"650":-1.8820946216583252,"651":-2.1877830028533936,"652":-1.1593230962753296,"653":-0.5335550904273987,"654":-0.7294676303863525,"655":0.9123697876930237,"656":1.192976713180542,"657":-0.15855848789215088,"658":0.5164965391159058,"659":1.814709186553955,"660":1.2608660459518433,"661":-2.1158323287963867,"662":1.0645848512649536,"663":2.0983774662017822,"664":-1.1622166633605957,"665":-0.92448890209198,"666":0.48620063066482544,"667":3.20082950592041,"668":3.005999803543091,"669":0.3901978135108948,"670":-2.3328073024749756,"671":0.33854687213897705,"672":0.9088573455810547,"673":2.1764957904815674,"674":-0.14314834773540497,"675":-1.241804599761963,"676":2.802635669708252,"677":-0.009467742405831814,"678":-1.2024750709533691,"679":-0.07295732200145721,"680":0.03953157737851143,"681":1.0317232608795166,"682":-1.1648648977279663,"683":0.8156336545944214,"684":0.29391929507255554,"685":1.2558335065841675,"686":-0.07848980277776718,"687":0.8189511895179749,"688":0.7525802850723267,"689":0.2198927402496338,"690":1.1245131492614746,"691":-0.3309071660041809,"692":0.4155362844467163,"693":1.130777359008789,"694":-1.399086356163025,"695":0.5578103065490723,"696":-1.077584981918335,"697":1.060092568397522,"698":-4.512168884277344,"699":0.9814692735671997,"700":0.5758899450302124,"701":0.38553690910339355,"702":1.7142020463943481,"703":0.9835777282714844,"704":-3.3729419708251953,"705":1.1030207872390747,"706":0.3742199242115021,"707":1.195578932762146,"708":0.8001155257225037,"709":-1.2459161281585693,"710":1.5216591358184814,"711":-0.37138524651527405,"712":2.3106014728546143,"713":-1.0106953382492065,"714":0.08979538828134537,"715":-0.11593329161405563,"716":0.2078755646944046,"717":-0.6547565460205078,"718":-0.22478826344013214,"719":1.0731855630874634,"720":1.0804189443588257,"721":-0.6092532873153687,"722":2.0840775966644287,"723":0.48693913221359253,"724":-1.0349807739257812,"725":0.6418405175209045,"726":-0.9063218832015991,"727":0.46365275979042053,"728":-0.20381630957126617,"729":-0.3047375977039337,"730":-0.6378504633903503,"731":1.4914050102233887,"732":1.1338247060775757,"733":1.1893229484558105,"734":1.2680730819702148,"735":-1.8288110494613647,"736":-0.9787346124649048,"737":-0.7043125629425049,"738":0.39239829778671265,"739":-0.019331568852066994,"740":0.7263836860656738,"741":-0.08318883180618286,"742":-0.2148091048002243,"743":0.9732608199119568,"744":0.22515493631362915,"745":0.6605813503265381,"746":0.1600164771080017,"747":1.4622704982757568,"748":1.697387456893921,"749":1.6413644552230835,"750":0.3031162917613983,"751":2.952047348022461,"752":1.3314586877822876,"753":-1.358604907989502,"754":0.9335333704948425,"755":3.8257970809936523,"756":-1.0886858701705933,"757":0.8274148106575012,"758":-2.4517171382904053,"759":0.8590472936630249,"760":0.521769642829895,"761":-0.04236547276377678,"762":-4.048266887664795,"763":-1.6683783531188965,"764":-1.339895248413086,"765":-2.382434129714966,"766":-1.337131381034851,"767":-0.6373862028121948,"768":-3.5968692302703857,"769":0.21869342029094696,"770":1.8254303932189941,"771":-0.8606581687927246,"772":-0.5599281191825867,"773":2.847560167312622,"774":1.8742679357528687,"775":0.6652170419692993,"776":0.9915549159049988,"777":-0.11687697470188141,"778":1.384577751159668,"779":2.4579882621765137,"780":-3.1340718269348145,"781":0.07140194624662399,"782":1.1471621990203857,"783":-0.20782239735126495,"784":0.18882161378860474,"785":-0.20016837120056152,"786":-0.6025514006614685,"787":-0.664545476436615,"788":0.5548110604286194,"789":2.0295658111572266,"790":0.038808587938547134,"791":-1.3573076725006104,"792":-2.5507166385650635,"793":-1.8316617012023926,"794":1.3780189752578735,"795":0.031902018934488297,"796":-1.3203250169754028,"797":-2.6284494400024414,"798":-0.9392622113227844,"799":0.32043731212615967,"800":1.205449104309082,"801":0.6303873062133789,"802":0.412752240896225,"803":-2.515136957168579,"804":0.677690327167511,"805":-0.7645588517189026,"806":-3.7373147010803223,"807":-1.087136149406433,"808":-0.8597594499588013,"809":-1.853337049484253,"810":0.06485939770936966,"811":-0.5980028510093689,"812":-0.5902847647666931,"813":-0.8414809703826904,"814":-3.033449172973633,"815":-0.8875671029090881,"816":-1.7067794799804688,"817":0.8398669362068176,"818":0.746347188949585,"819":-0.0751933678984642,"820":0.6844385862350464,"821":-1.017322301864624,"822":-0.9255872964859009,"823":-0.8640475273132324,"824":3.0373375415802,"825":-0.8477931618690491,"826":1.4313327074050903,"827":0.6188295483589172,"828":-1.9429558515548706,"829":0.22128646075725555,"830":0.6826602220535278,"831":-0.46117302775382996,"832":-6.188747406005859,"833":-0.5666236281394958,"834":-0.24808183312416077,"835":1.9411894083023071,"836":4.38958215713501,"837":-3.7386884689331055,"838":0.46473416686058044,"839":-0.758452832698822,"840":2.1949377059936523,"841":-1.5721094608306885,"842":-0.8205897212028503,"843":3.0228145122528076,"844":0.014934804290533066,"845":0.12810447812080383,"846":0.8696150183677673,"847":0.3642028868198395,"848":0.2157079130411148,"849":-0.027405034750699997,"850":-1.339773416519165,"851":1.9259384870529175,"852":-2.4226720333099365,"853":0.26176753640174866,"854":-0.7132818102836609,"855":-0.8163472414016724,"856":5.089371681213379,"857":-0.14972595870494843,"858":8.429774284362793,"859":0.1777840256690979,"860":-0.703650951385498,"861":2.7062578201293945,"862":0.8887633085250854,"863":-2.53078293800354,"864":-0.1878097504377365,"865":2.185067653656006,"866":-2.493145227432251,"867":2.0907256603240967,"868":-2.398468017578125,"869":2.3277883529663086,"870":0.3956327438354492,"871":-0.4524747431278229,"872":1.5198711156845093,"873":-2.4525697231292725,"874":5.752368450164795,"875":-0.85519939661026,"876":1.2511274814605713,"877":1.245155692100525,"878":1.041377305984497,"879":-1.0965815782546997,"880":2.9332048892974854,"881":1.6483687162399292,"882":1.8363350629806519,"883":-0.858836829662323,"884":1.2943836450576782,"885":0.8115944266319275,"886":-0.1445489525794983,"887":0.27942943572998047,"888":0.986832857131958,"889":-1.2784769535064697,"890":-1.4750139713287354,"891":-0.9077702164649963,"892":0.0586223341524601,"893":2.1785032749176025,"894":-1.7415375709533691,"895":-1.1108756065368652,"896":1.3704173564910889,"897":-0.9436827301979065,"898":-0.900117814540863,"899":-0.9876444935798645,"900":-2.9310197830200195,"901":2.351186752319336,"902":0.5115484595298767,"903":1.4885636568069458,"904":2.8165857791900635,"905":-5.40669059753418,"906":4.822295665740967,"907":0.7217130064964294,"908":-1.004543662071228,"909":-2.05932879447937,"910":0.7979360222816467,"911":-1.548478364944458,"912":0.36544057726860046,"913":-2.0797762870788574,"914":0.21731092035770416,"915":0.8824042677879333,"916":-0.8330029249191284,"917":-1.3426556587219238,"918":-0.20374511182308197,"919":1.3650219440460205,"920":-0.8624069690704346,"921":0.6424305438995361,"922":-0.7045355439186096,"923":0.9212378263473511,"924":2.5853023529052734,"925":-1.2628995180130005,"926":0.2749065160751343,"927":2.093656063079834,"928":-1.8216948509216309,"929":-0.4632189869880676,"930":-0.7965502142906189,"931":-1.7356218099594116,"932":2.332693099975586,"933":-3.6737396717071533,"934":4.08514928817749,"935":1.18433678150177,"936":1.5616353750228882,"937":1.38423490524292,"938":-4.434450149536133,"939":0.8528531789779663,"940":2.531933307647705,"941":-0.6632858514785767,"942":-0.5846162438392639,"943":3.85233736038208,"944":-2.034039258956909,"945":-0.7566326856613159,"946":-0.9329944252967834,"947":-0.30199646949768066,"948":1.4936059713363647,"949":1.578913927078247,"950":-0.7074915170669556,"951":-0.07716097682714462,"952":0.1492031365633011,"953":2.993701457977295,"954":-3.8005051612854004,"955":0.4924684464931488,"956":0.7560932636260986,"957":1.7353131771087646,"958":1.7931292057037354,"959":2.2901394367218018,"960":-2.605285406112671,"961":0.2925400137901306,"962":0.1873849630355835,"963":1.6336753368377686,"964":4.726654529571533,"965":-0.18148267269134521,"966":-2.9018630981445312,"967":1.7564879655838013,"968":0.7762260437011719,"969":4.120363235473633,"970":-1.8377307653427124,"971":1.7948845624923706,"972":-1.2334061861038208,"973":-2.6792304515838623,"974":1.7173783779144287,"975":0.7049849033355713,"976":-2.5996077060699463,"977":1.6507495641708374,"978":-0.14021368324756622,"979":-1.2480844259262085,"980":-0.35851114988327026,"981":-5.467792510986328,"982":0.15334652364253998,"983":-1.299996256828308,"984":-0.40732264518737793,"985":-0.3745940625667572,"986":-1.4773759841918945,"987":1.996754765510559,"988":0.6747984290122986,"989":0.9599184393882751,"990":-2.8021068572998047,"991":0.35891422629356384,"992":2.184122323989868,"993":-0.40417376160621643,"994":2.361947774887085,"995":-1.2101595401763916,"996":1.4606297016143799,"997":0.04666851460933685,"998":0.15026742219924927,"999":-0.5914195775985718,"1000":1.6257489919662476,"1001":-1.7609765529632568,"1002":1.533858299255371,"1003":0.13457722961902618,"1004":0.3430350422859192,"1005":-0.035433318465948105,"1006":-1.2020063400268555,"1007":-0.098195381462574,"1008":-0.806843101978302,"1009":-2.6532840728759766,"1010":-0.7407599687576294,"1011":0.056600555777549744,"1012":-1.7217164039611816,"1013":1.94687020778656,"1014":1.39655339717865,"1015":-1.2122447490692139,"1016":0.800534188747406,"1017":0.679947018623352,"1018":1.8540853261947632,"1019":-0.6379854679107666,"1020":-0.9840723872184753,"1021":1.5131139755249023,"1022":-0.02038753218948841,"1023":0.36198046803474426,"1024":-2.2548375129699707,"1025":-0.3093247711658478,"1026":1.379193902015686,"1027":0.2171299308538437,"1028":1.2988998889923096,"1029":1.4738048315048218,"1030":0.21619585156440735,"1031":0.5304557085037231,"1032":2.7814407348632812,"1033":-2.346295118331909,"1034":1.8132840394973755,"1035":-0.9735025763511658,"1036":-0.4808501601219177,"1037":-0.9350824952125549,"1038":0.6234346628189087,"1039":0.09739027172327042,"1040":0.9528494477272034,"1041":-1.52613365650177,"1042":-0.5169432163238525,"1043":-0.35510674118995667,"1044":3.9993879795074463,"1045":-0.10976026952266693,"1046":-0.7390081882476807,"1047":2.717778205871582,"1048":-0.8591610789299011,"1049":-1.6114526987075806,"1050":-1.4461655616760254,"1051":-0.7530796527862549,"1052":1.7866624593734741,"1053":-0.9578826427459717,"1054":2.2356481552124023,"1055":1.8265712261199951,"1056":-0.4051247537136078,"1057":0.4878825545310974,"1058":-0.6978172659873962,"1059":-4.25660514831543,"1060":-1.2768837213516235,"1061":-2.8971810340881348,"1062":0.031657248735427856,"1063":0.5666514039039612,"1064":-3.0485687255859375,"1065":-1.0230069160461426,"1066":1.9448641538619995,"1067":0.8748893141746521,"1068":-3.0615527629852295,"1069":0.054414402693510056,"1070":-2.0223548412323,"1071":2.076681137084961,"1072":-1.3381134271621704,"1073":5.237458229064941,"1074":1.1541231870651245,"1075":0.6196277141571045,"1076":1.6350607872009277,"1077":3.4996962547302246,"1078":1.0063667297363281,"1079":1.1394776105880737,"1080":3.373947858810425,"1081":0.6270371079444885,"1082":-0.15733583271503448,"1083":-2.8728063106536865,"1084":-1.418866515159607,"1085":0.3117363154888153,"1086":-0.5542457699775696,"1087":-2.6232054233551025,"1088":-1.4639979600906372,"1089":1.4948081970214844,"1090":-0.6752298474311829,"1091":0.4022241532802582,"1092":-2.8015449047088623,"1093":-0.494473934173584,"1094":1.6926718950271606,"1095":1.1848523616790771,"1096":2.570943832397461,"1097":-0.07457029819488525,"1098":1.1571550369262695,"1099":0.9642254114151001,"1100":-2.388850450515747,"1101":-0.8359553217887878,"1102":-0.9758936166763306,"1103":0.09207019209861755,"1104":-0.2289121001958847,"1105":-0.31128114461898804,"1106":-0.6068102717399597,"1107":-0.41818374395370483,"1108":1.4491896629333496,"1109":0.5392359495162964,"1110":-0.34185829758644104,"1111":-1.2186322212219238,"1112":1.7980245351791382,"1113":-0.1844126135110855,"1114":0.6277174949645996,"1115":2.063847541809082,"1116":0.6416386961936951,"1117":0.0039384253323078156,"1118":3.7336015701293945,"1119":0.05846216902136803,"1120":0.5591040849685669,"1121":-0.06399458646774292,"1122":0.5924907922744751,"1123":-0.415031760931015,"1124":0.5313525199890137,"1125":-0.2422630488872528,"1126":-0.6521866917610168,"1127":0.8708767890930176,"1128":0.2161416858434677,"1129":-0.6579878926277161,"1130":0.8583582639694214,"1131":0.5586607456207275,"1132":-0.6715930104255676,"1133":-0.09235384315252304,"1134":-1.3248472213745117,"1135":-0.2776246666908264,"1136":-0.1754370927810669,"1137":-0.5865646600723267,"1138":-0.4669947028160095,"1139":1.0366828441619873,"1140":1.1507580280303955,"1141":-0.0388333834707737,"1142":1.0855607986450195,"1143":-1.466313362121582,"1144":-0.3531118929386139,"1145":-0.2982615530490875,"1146":0.13931220769882202,"1147":-0.6227332949638367,"1148":0.15283657610416412,"1149":-0.29294681549072266,"1150":0.602550745010376,"1151":-0.24414460361003876,"1152":-0.2355322241783142,"1153":0.5173043012619019,"1154":-0.49025216698646545,"1155":0.49461469054222107,"1156":0.03394974395632744,"1157":0.046250198036432266,"1158":0.039482034742832184,"1159":-0.008140512742102146,"1160":0.06984379887580872,"1161":0.01899097114801407,"1162":-0.04975967854261398,"1163":-0.044848501682281494,"1164":0.012786866165697575,"1165":-0.004840295761823654,"1166":-0.05190243571996689,"1167":-0.06102408468723297,"1168":-0.00657331757247448,"1169":0.025599142536520958,"1170":-0.03434380888938904,"1171":-0.01457485742866993,"1172":-0.05882353335618973,"1173":-0.018788987770676613,"1174":0.06976479291915894,"1175":0.047840338200330734,"1176":0.04820507392287254,"1177":0.013833344914019108,"1178":0.012113924138247967,"1179":-0.06372935324907303,"1180":-0.05300288274884224,"1181":0.04086748883128166,"1182":0.00037896554567851126,"1183":-0.03330979868769646,"1184":-0.02803608402609825,"1185":-0.05651631951332092,"1186":-0.0228221844881773,"1187":0.028870925307273865,"1188":-0.04680611565709114,"1189":-0.06753816455602646}},"hiddenLayers":[{"inputMatrix":{"rows":20,"columns":34,"weights":{"0":-0.31361642479896545,"1":-0.3841848075389862,"2":0.41096562147140503,"3":0.40618786215782166,"4":-0.41232791543006897,"5":-0.2769075334072113,"6":0.19155146181583405,"7":-0.09947898983955383,"8":0.20646893978118896,"9":-0.44880780577659607,"10":0.46389132738113403,"11":-0.04500356316566467,"12":0.3168419897556305,"13":-0.4217115342617035,"14":0.14913836121559143,"15":-1.4694350957870483,"16":-0.029158439487218857,"17":0.2128996104001999,"18":0.3189217448234558,"19":0.10469839721918106,"20":-0.8007357120513916,"21":0.614136815071106,"22":0.18756692111492157,"23":-0.4132159650325775,"24":-0.14739523828029633,"25":1.1790753602981567,"26":-0.5507647395133972,"27":0.28696009516716003,"28":-0.26816993951797485,"29":0.18085917830467224,"30":-0.2885635197162628,"31":-0.09815866500139236,"32":0.5531653761863708,"33":-0.017424141988158226,"34":-0.5689106583595276,"35":0.9541155099868774,"36":-0.107540063560009,"37":0.5004580020904541,"38":-0.15326619148254395,"39":0.07531978189945221,"40":-0.31139135360717773,"41":0.19463512301445007,"42":0.23084287345409393,"43":0.17022188007831573,"44":-0.14670196175575256,"45":0.653285026550293,"46":-0.6497820019721985,"47":0.0052593364380300045,"48":0.47641560435295105,"49":-0.6041980981826782,"50":-0.33390024304389954,"51":0.012823694385588169,"52":0.26689544320106506,"53":0.46770134568214417,"54":0.43292737007141113,"55":-0.21565277874469757,"56":0.1107548177242279,"57":0.10235947370529175,"58":0.03220321983098984,"59":0.29259738326072693,"60":0.4462030827999115,"61":0.3081802725791931,"62":0.31833961606025696,"63":-0.08347591012716293,"64":0.36395323276519775,"65":0.3023923933506012,"66":0.3359183371067047,"67":0.16327190399169922,"68":0.7134233117103577,"69":0.6450117826461792,"70":-1.5752525329589844,"71":0.05851675942540169,"72":0.36131930351257324,"73":-0.21764235198497772,"74":-0.19532157480716705,"75":0.6002437472343445,"76":-0.001186703215353191,"77":0.3896125853061676,"78":-0.08983063697814941,"79":-0.6553453207015991,"80":0.42207735776901245,"81":0.5318664908409119,"82":0.05726585537195206,"83":0.43077635765075684,"84":-0.3276018798351288,"85":-0.046168144792318344,"86":-0.4887268543243408,"87":0.453237920999527,"88":-0.7889144420623779,"89":-0.5412502884864807,"90":0.1720786839723587,"91":-0.7655461430549622,"92":-0.09847432374954224,"93":0.17712847888469696,"94":0.270145446062088,"95":0.29600098729133606,"96":-0.042475759983062744,"97":-0.042842648923397064,"98":0.7652714252471924,"99":0.25564664602279663,"100":1.1034595966339111,"101":-0.2518652677536011,"102":-0.4294434189796448,"103":0.3512093722820282,"104":-0.28052186965942383,"105":0.2795563340187073,"106":0.05156579613685608,"107":0.510785698890686,"108":0.17931319773197174,"109":-0.10687338560819626,"110":0.4724753201007843,"111":-0.6396365761756897,"112":0.46088001132011414,"113":-0.32879534363746643,"114":-0.2170511931180954,"115":-0.008718159049749374,"116":-0.23690007627010345,"117":0.045067254453897476,"118":-0.1628878265619278,"119":0.4511718153953552,"120":-0.2863272428512573,"121":-0.05905089154839516,"122":0.491195410490036,"123":-0.8430625200271606,"124":-0.08626805245876312,"125":-0.6087479591369629,"126":-0.05498100817203522,"127":-0.22273315489292145,"128":-0.5023247003555298,"129":0.7164331078529358,"130":0.19615352153778076,"131":-0.11775855720043182,"132":-0.12263006716966629,"133":-0.09109730273485184,"134":-0.26668626070022583,"135":0.29842764139175415,"136":-1.019020676612854,"137":-0.05594555661082268,"138":-0.13152456283569336,"139":-0.32546019554138184,"140":0.3959836959838867,"141":-0.04353161156177521,"142":0.09926769882440567,"143":-0.058486923575401306,"144":-0.10048560053110123,"145":-0.5640990138053894,"146":0.5401920676231384,"147":0.40230271220207214,"148":0.5137230753898621,"149":0.2842438817024231,"150":-0.335146963596344,"151":0.49280598759651184,"152":0.22415702044963837,"153":-0.44444739818573,"154":-0.020215900614857674,"155":-0.3569231629371643,"156":-0.290269672870636,"157":1.040989875793457,"158":0.24329638481140137,"159":0.20161041617393494,"160":-0.4851769804954529,"161":0.17614294588565826,"162":0.04503942281007767,"163":0.2856564521789551,"164":-0.31132417917251587,"165":-0.044159166514873505,"166":0.0634356364607811,"167":0.1686515212059021,"168":-0.10793431103229523,"169":0.2959587872028351,"170":-0.512367308139801,"171":0.21175917983055115,"172":0.39769187569618225,"173":0.5904688239097595,"174":-1.1016820669174194,"175":-0.5793074369430542,"176":-0.22884660959243774,"177":0.388103187084198,"178":0.12469609826803207,"179":-0.45286622643470764,"180":0.5472650527954102,"181":-0.24276389181613922,"182":-0.16910408437252045,"183":0.1345973163843155,"184":-0.13045448064804077,"185":-1.0738637447357178,"186":-0.07868791371583939,"187":-0.09374715387821198,"188":0.06324931234121323,"189":-0.22620393335819244,"190":-0.17912550270557404,"191":0.09673097729682922,"192":0.013291766867041588,"193":0.05289377644658089,"194":-0.12262613326311111,"195":0.6365363597869873,"196":-0.46276968717575073,"197":0.4602963328361511,"198":-0.12509940564632416,"199":-0.15111500024795532,"200":0.1855134814977646,"201":-0.018333010375499725,"202":-0.5316919088363647,"203":-0.06427193433046341,"204":-0.002542436821386218,"205":0.04869488999247551,"206":0.0663888230919838,"207":0.6023432016372681,"208":-0.041443172842264175,"209":0.2988133430480957,"210":-0.16751036047935486,"211":0.019857166334986687,"212":-0.03753633052110672,"213":-0.21827365458011627,"214":0.2672083079814911,"215":-0.5990064740180969,"216":0.24346019327640533,"217":-0.1123342365026474,"218":0.1770911067724228,"219":-0.10018806904554367,"220":0.21399228274822235,"221":-0.26425281167030334,"222":-0.23940685391426086,"223":-0.19567713141441345,"224":-0.14059457182884216,"225":-0.37298017740249634,"226":0.07387226074934006,"227":-0.4651319086551666,"228":0.8072138428688049,"229":0.7899749279022217,"230":-0.16719947755336761,"231":-0.4471661150455475,"232":-0.22060604393482208,"233":-0.627686619758606,"234":-0.2607721984386444,"235":-0.179988294839859,"236":-0.22310546040534973,"237":-0.4166201949119568,"238":-0.6306291222572327,"239":0.0819765254855156,"240":-0.10125788301229477,"241":-0.2120562195777893,"242":-0.45061254501342773,"243":-0.3563949763774872,"244":-0.02379770576953888,"245":-0.4779672622680664,"246":0.41075214743614197,"247":-0.09028857946395874,"248":-0.02073601447045803,"249":0.4278244376182556,"250":-0.5148637890815735,"251":-0.2684520483016968,"252":-0.03248973563313484,"253":-0.054780762642621994,"254":0.14821010828018188,"255":0.2131652981042862,"256":0.209066241979599,"257":0.26891809701919556,"258":-0.09814879298210144,"259":0.09072627872228622,"260":-0.08385743945837021,"261":-0.2573341429233551,"262":0.05373794585466385,"263":-0.18114757537841797,"264":0.1207643449306488,"265":-0.089022196829319,"266":-0.0019638240337371826,"267":-0.08999257534742355,"268":0.07735612243413925,"269":0.6058167219161987,"270":-0.43453484773635864,"271":0.14017663896083832,"272":0.025723569095134735,"273":0.2535584568977356,"274":0.08802889287471771,"275":-0.5492880940437317,"276":-0.2701417803764343,"277":0.29857519268989563,"278":0.4577943682670593,"279":-0.28550007939338684,"280":0.2961295545101166,"281":0.2762591242790222,"282":0.7507935166358948,"283":-0.33526331186294556,"284":-0.4315541088581085,"285":-0.03809766471385956,"286":-0.3448573052883148,"287":0.34280508756637573,"288":-0.12207165360450745,"289":-0.34389686584472656,"290":0.37059494853019714,"291":-0.3100239634513855,"292":0.46899116039276123,"293":-0.23862381279468536,"294":-0.2584173083305359,"295":-0.07891412824392319,"296":0.4554343819618225,"297":-0.7759388089179993,"298":0.061403464525938034,"299":0.5602816939353943,"300":-0.5364847183227539,"301":0.08055021613836288,"302":0.3418940007686615,"303":-0.09662731736898422,"304":-1.0686931610107422,"305":0.24305732548236847,"306":-0.5662967562675476,"307":-0.3608744144439697,"308":-0.34823301434516907,"309":0.13138988614082336,"310":-0.5588920712471008,"311":-0.3082137703895569,"312":0.6320700645446777,"313":-0.02924787625670433,"314":0.5566105246543884,"315":-0.9545812010765076,"316":-0.03212347999215126,"317":-0.9678930640220642,"318":-0.4669625759124756,"319":0.26060986518859863,"320":-0.32236891984939575,"321":-0.2499915212392807,"322":0.14993679523468018,"323":0.24193306267261505,"324":-0.057754263281822205,"325":-0.43056538701057434,"326":-0.07769522070884705,"327":-0.16208763420581818,"328":-0.08087753504514694,"329":-1.1838994026184082,"330":-0.2539445161819458,"331":0.26336294412612915,"332":0.26368066668510437,"333":0.4586397707462311,"334":-0.31962206959724426,"335":0.2562618851661682,"336":-0.258125364780426,"337":-0.14227865636348724,"338":-0.05999067798256874,"339":0.34607788920402527,"340":-0.02029300481081009,"341":0.08045562356710434,"342":-0.1529141664505005,"343":0.2776991128921509,"344":0.11656148731708527,"345":0.08585524559020996,"346":0.06752952188253403,"347":0.41031667590141296,"348":-0.41742876172065735,"349":-0.3968302011489868,"350":0.2463541477918625,"351":0.14274123311042786,"352":-0.09415760636329651,"353":0.4758860468864441,"354":0.2134774774312973,"355":0.24797675013542175,"356":0.059517860412597656,"357":-0.052549637854099274,"358":-0.3527214527130127,"359":-0.12361086905002594,"360":-0.0587589330971241,"361":0.04932970926165581,"362":0.10074552893638611,"363":-0.7121339440345764,"364":-0.4599391520023346,"365":0.335378497838974,"366":-0.11645597219467163,"367":0.23952147364616394,"368":0.7668707370758057,"369":-0.29954493045806885,"370":0.34542974829673767,"371":-0.2643975019454956,"372":0.24665024876594543,"373":0.28510352969169617,"374":0.22821281850337982,"375":0.20074771344661713,"376":0.26973944902420044,"377":0.4171595275402069,"378":-0.04230409860610962,"379":0.2879461348056793,"380":-0.9222382307052612,"381":0.2946465313434601,"382":-0.5278573036193848,"383":-0.6284118890762329,"384":0.2264357954263687,"385":-0.25914067029953003,"386":-0.01785103790462017,"387":0.8044339418411255,"388":0.3826339840888977,"389":-0.6399104595184326,"390":0.0069863139651715755,"391":0.018553944304585457,"392":-0.16343379020690918,"393":-0.5778037905693054,"394":0.4005853533744812,"395":0.3842621147632599,"396":0.4499458372592926,"397":-0.8994323015213013,"398":-0.14274510741233826,"399":0.5691838264465332,"400":-0.030289320275187492,"401":0.2953307032585144,"402":1.1427603960037231,"403":-0.8432635068893433,"404":0.36283645033836365,"405":-0.006551237776875496,"406":-0.14644375443458557,"407":-0.2761874496936798,"408":0.08087366074323654,"409":-0.24677853286266327,"410":0.1508939117193222,"411":0.48963049054145813,"412":-0.24772100150585175,"413":0.39952656626701355,"414":0.08576488494873047,"415":0.2100778967142105,"416":0.2746873199939728,"417":-0.07457508891820908,"418":0.29537126421928406,"419":-0.6584160923957825,"420":-0.3513362407684326,"421":-0.12695705890655518,"422":0.10992338508367538,"423":0.2651638984680176,"424":-0.18832771480083466,"425":-0.1946949064731598,"426":0.15952719748020172,"427":0.09821523725986481,"428":-0.1477729231119156,"429":-0.1444956660270691,"430":-0.10876201838254929,"431":-0.6056482791900635,"432":0.23135749995708466,"433":0.21440257132053375,"434":-0.622042179107666,"435":0.023526325821876526,"436":-0.08169311285018921,"437":0.19847428798675537,"438":-0.016708428040146828,"439":-0.5047275424003601,"440":-0.010048215277493,"441":0.165167436003685,"442":1.0679374933242798,"443":0.13745661079883575,"444":-0.3199724853038788,"445":0.9931027889251709,"446":-0.28608834743499756,"447":0.831450879573822,"448":0.9431049227714539,"449":0.32649195194244385,"450":0.4344659447669983,"451":0.7166348099708557,"452":0.14444954693317413,"453":-0.07146377861499786,"454":0.07024287432432175,"455":0.5273345708847046,"456":-0.14933925867080688,"457":0.11518361419439316,"458":-0.19658470153808594,"459":0.4516558051109314,"460":0.11987479031085968,"461":0.26538461446762085,"462":-0.45513224601745605,"463":-0.28310781717300415,"464":0.45877060294151306,"465":0.24651025235652924,"466":-1.0249966382980347,"467":0.20058897137641907,"468":-0.2531431317329407,"469":0.20940735936164856,"470":0.5617976784706116,"471":0.14678438007831573,"472":0.47279784083366394,"473":0.27465593814849854,"474":-0.7944828271865845,"475":0.3702387809753418,"476":0.31748339533805847,"477":0.24685606360435486,"478":-0.125834658741951,"479":-0.39586329460144043,"480":-0.16106967628002167,"481":-0.1969265341758728,"482":-0.8050165176391602,"483":-0.6309882998466492,"484":-0.3022150993347168,"485":0.27060768008232117,"486":0.3015815019607544,"487":-0.6358860731124878,"488":-0.13855081796646118,"489":0.5930852293968201,"490":-0.1492905616760254,"491":-0.023824116215109825,"492":-0.5840913653373718,"493":-0.504266083240509,"494":0.12865392863750458,"495":-0.01685348153114319,"496":0.18858592212200165,"497":0.284336656332016,"498":-0.20894408226013184,"499":-0.02037913165986538,"500":0.0020839066710323095,"501":-0.17352180182933807,"502":0.3912479281425476,"503":0.22808265686035156,"504":-0.06154477596282959,"505":-0.11004334688186646,"506":0.3766039311885834,"507":0.07517882436513901,"508":-0.2556421756744385,"509":0.19233819842338562,"510":-0.3827647566795349,"511":0.6064401268959045,"512":-0.5561865568161011,"513":0.3654853403568268,"514":0.332348495721817,"515":0.2226819396018982,"516":-0.37063172459602356,"517":-0.1786629855632782,"518":-0.004013853147625923,"519":-0.3010806143283844,"520":-0.05487414449453354,"521":0.12892751395702362,"522":-0.24518100917339325,"523":0.5867540240287781,"524":0.16298498213291168,"525":-0.2187805473804474,"526":0.01071877684444189,"527":0.24316644668579102,"528":-0.22077150642871857,"529":-0.030750734731554985,"530":-0.04436332732439041,"531":0.4240218997001648,"532":0.09534904360771179,"533":-0.19435890018939972,"534":-0.331307053565979,"535":0.38489145040512085,"536":-0.24041184782981873,"537":0.11789904534816742,"538":-0.11718708276748657,"539":-0.10831157863140106,"540":0.32081884145736694,"541":0.36699381470680237,"542":-0.21678973734378815,"543":-0.10642427951097488,"544":-0.20933422446250916,"545":-0.09177220612764359,"546":-0.8868820071220398,"547":0.382427453994751,"548":-0.6265550255775452,"549":0.23555903136730194,"550":0.48597320914268494,"551":0.4642060697078705,"552":0.04512301832437515,"553":-0.6128401756286621,"554":0.6358169913291931,"555":0.10328540951013565,"556":0.05545099079608917,"557":-0.45917725563049316,"558":0.09437328577041626,"559":0.38871511816978455,"560":0.1259843409061432,"561":0.46451008319854736,"562":-0.6378452777862549,"563":-0.7073879837989807,"564":-0.17077457904815674,"565":-0.3991934657096863,"566":-0.012772434391081333,"567":-0.021196819841861725,"568":0.09651412814855576,"569":-0.815297544002533,"570":-0.23065702617168427,"571":0.22034431993961334,"572":0.5443044304847717,"573":-0.38361793756484985,"574":0.037949852645397186,"575":-0.5513318181037903,"576":-0.19723768532276154,"577":-0.41785112023353577,"578":-0.324068158864975,"579":0.41238442063331604,"580":-0.2975844144821167,"581":0.4789172112941742,"582":-0.29064348340034485,"583":-0.2791883051395416,"584":0.6434998512268066,"585":0.5009673833847046,"586":1.4893163442611694,"587":0.038596756756305695,"588":0.27875372767448425,"589":0.15155592560768127,"590":-0.4223572313785553,"591":-0.6585375666618347,"592":-1.1621848344802856,"593":-0.5747010707855225,"594":0.7949894070625305,"595":0.43708640336990356,"596":-0.3984675407409668,"597":-0.43953707814216614,"598":0.19420482218265533,"599":-0.8795716762542725,"600":-0.2826230525970459,"601":0.5703157782554626,"602":0.5489997863769531,"603":-0.09842180460691452,"604":-0.27464964985847473,"605":0.18391819298267365,"606":0.152970552444458,"607":0.042739782482385635,"608":-0.3092692494392395,"609":-0.09014225751161575,"610":0.7479643821716309,"611":-0.4339282512664795,"612":0.21139314770698547,"613":0.6676945686340332,"614":-0.30035698413848877,"615":0.6011353731155396,"616":-0.4047922194004059,"617":-0.09453650563955307,"618":0.29427772760391235,"619":0.722908079624176,"620":0.2735655605792999,"621":0.12280059605836868,"622":0.11312215030193329,"623":-0.1037866398692131,"624":0.31185171008110046,"625":-0.2339533567428589,"626":0.12014498561620712,"627":-0.37607795000076294,"628":-0.14545878767967224,"629":0.8085116744041443,"630":-0.6100745797157288,"631":0.4645674228668213,"632":-0.22974471747875214,"633":-0.1384749561548233,"634":0.9047293066978455,"635":-0.2815026640892029,"636":-0.2682417035102844,"637":0.3733308017253876,"638":-0.6862177848815918,"639":-0.12519264221191406,"640":0.5339147448539734,"641":-0.8469092845916748,"642":-0.1660565584897995,"643":-0.5495705008506775,"644":0.2286842167377472,"645":-0.6765623688697815,"646":0.665311872959137,"647":-0.029755854979157448,"648":0.1915077567100525,"649":-0.772530198097229,"650":-0.3709285259246826,"651":0.4359818994998932,"652":0.557309091091156,"653":0.3272875249385834,"654":0.41814109683036804,"655":1.0478438138961792,"656":0.11641637235879898,"657":0.44252142310142517,"658":-0.6255204677581787,"659":-0.5857266187667847,"660":-0.11948047578334808,"661":0.6345349550247192,"662":-0.4278556704521179,"663":-0.5741739273071289,"664":0.7883293628692627,"665":0.12223975360393524,"666":0.6273808479309082,"667":0.08935663104057312,"668":-0.7143266201019287,"669":0.49517741799354553,"670":0.6905640363693237,"671":-0.3004775643348694,"672":0.2977842390537262,"673":-0.2688683569431305,"674":-0.10575500875711441,"675":1.0152870416641235,"676":0.22345779836177826,"677":0.6891534328460693,"678":-0.026521578431129456,"679":1.0492671728134155}},"inputHidden":{"rows":20,"columns":20,"weights":{"0":0.5013474822044373,"1":0.8836591839790344,"2":0.6152889132499695,"3":0.5954580903053284,"4":0.6853718757629395,"5":0.22745263576507568,"6":0.13440153002738953,"7":-0.7970801591873169,"8":-0.26812684535980225,"9":0.05214023217558861,"10":0.684899091720581,"11":-0.262211412191391,"12":0.35058385133743286,"13":0.07916876673698425,"14":0.4688076376914978,"15":-0.36469563841819763,"16":0.32411545515060425,"17":0.40050357580184937,"18":0.15961821377277374,"19":-0.4582017958164215,"20":-0.45074379444122314,"21":0.43987423181533813,"22":0.9316769242286682,"23":-1.1126129627227783,"24":0.19140702486038208,"25":0.07994374632835388,"26":1.7134677171707153,"27":-0.26804119348526,"28":-0.476078063249588,"29":1.5331920385360718,"30":0.2996518909931183,"31":0.28485187888145447,"32":0.5899918675422668,"33":0.23683640360832214,"34":0.6167252063751221,"35":-0.2214469164609909,"36":-1.162282943725586,"37":-1.1276837587356567,"38":0.14870792627334595,"39":-0.6791098713874817,"40":-0.08209160715341568,"41":-0.08751709014177322,"42":0.7954150438308716,"43":0.7543524503707886,"44":0.21410948038101196,"45":-0.034721460193395615,"46":-0.421271413564682,"47":-0.01331977266818285,"48":-0.07025191187858582,"49":0.028213990852236748,"50":-1.6973884105682373,"51":1.3490345478057861,"52":0.2482060045003891,"53":0.2169465869665146,"54":0.3696523606777191,"55":0.6855905652046204,"56":0.43385419249534607,"57":-0.013611946254968643,"58":-0.19691501557826996,"59":0.3152730166912079,"60":-0.09894096851348877,"61":0.5778239369392395,"62":0.2805662751197815,"63":0.7781773209571838,"64":-0.7880549430847168,"65":-0.39737164974212646,"66":-0.2907230257987976,"67":-0.18533027172088623,"68":-0.7095355987548828,"69":-0.5961702466011047,"70":-0.8923158049583435,"71":0.8413795828819275,"72":0.5014097690582275,"73":0.4654170572757721,"74":0.49703913927078247,"75":0.6167473196983337,"76":-0.6932965517044067,"77":0.1707477569580078,"78":-1.3378684520721436,"79":0.6011128425598145,"80":0.21233920753002167,"81":1.0775586366653442,"82":0.4693593382835388,"83":0.27576911449432373,"84":0.029660740867257118,"85":0.9461718797683716,"86":-0.5182318091392517,"87":-0.4816419184207916,"88":-1.0981379747390747,"89":-0.3451939821243286,"90":-1.084348201751709,"91":-0.6893321871757507,"92":1.880078673362732,"93":-0.018782492727041245,"94":0.2950512170791626,"95":0.6938840746879578,"96":-1.4584077596664429,"97":-1.3541163206100464,"98":-1.1731417179107666,"99":-1.0303435325622559,"100":-0.18364635109901428,"101":0.569413423538208,"102":-0.3632153570652008,"103":-0.11609498411417007,"104":-0.3201543986797333,"105":0.9266999363899231,"106":0.7852876782417297,"107":-0.4083096981048584,"108":0.7849856615066528,"109":0.8237358927726746,"110":-0.45071130990982056,"111":0.11014410108327866,"112":0.37845578789711,"113":0.3337366282939911,"114":0.8703295588493347,"115":0.698910117149353,"116":-0.10909109562635422,"117":-0.13403469324111938,"118":-0.34507444500923157,"119":-0.800491988658905,"120":-0.2916424572467804,"121":0.3941570520401001,"122":-0.17682427167892456,"123":0.4531615078449249,"124":0.9379393458366394,"125":0.5222780108451843,"126":-0.23288649320602417,"127":-0.17735238373279572,"128":-0.1428787112236023,"129":0.2872266471385956,"130":-0.1843772977590561,"131":0.6404933929443359,"132":0.5823832154273987,"133":0.15888068079948425,"134":0.37093138694763184,"135":-0.053749386221170425,"136":0.9780163764953613,"137":1.0801379680633545,"138":0.04923800379037857,"139":-1.9379186630249023,"140":-0.1394023895263672,"141":-0.03593048080801964,"142":1.5991603136062622,"143":0.0611024871468544,"144":-0.1116056740283966,"145":0.051770392805337906,"146":0.9306860566139221,"147":0.431493878364563,"148":-0.6716218590736389,"149":-0.7158558368682861,"150":-0.5256639122962952,"151":0.051807839423418045,"152":0.045925598591566086,"153":-0.1471639722585678,"154":0.10457076132297516,"155":0.4206097722053528,"156":-0.9595274329185486,"157":-1.2561018466949463,"158":-0.5047697424888611,"159":-0.34877777099609375,"160":1.2574673891067505,"161":-0.056373197585344315,"162":-1.113016128540039,"163":1.082467794418335,"164":-0.15702585875988007,"165":-0.4547039270401001,"166":0.4601579010486603,"167":-0.19452260434627533,"168":-1.0823472738265991,"169":1.059327483177185,"170":0.3122260272502899,"171":-0.39762577414512634,"172":0.08848292380571365,"173":0.7341861724853516,"174":0.6477681994438171,"175":0.7937977313995361,"176":-1.4343575239181519,"177":-1.409148097038269,"178":-0.37189143896102905,"179":-0.49229544401168823,"180":-0.056850187480449677,"181":0.05660775676369667,"182":0.606576144695282,"183":0.5565418601036072,"184":-0.2957571744918823,"185":-0.262757271528244,"186":-0.46454209089279175,"187":-0.09395024180412292,"188":0.19352732598781586,"189":-0.41507139801979065,"190":-1.5543557405471802,"191":1.338515281677246,"192":0.2127843052148819,"193":1.1130656003952026,"194":0.7866167426109314,"195":1.892435073852539,"196":0.1578584909439087,"197":1.3945341110229492,"198":-0.2652670741081238,"199":0.1604337841272354,"200":-0.049886539578437805,"201":-0.0582132413983345,"202":0.7507813572883606,"203":-0.5327245593070984,"204":-0.10005926340818405,"205":0.16712833940982819,"206":0.6792198419570923,"207":-0.17350167036056519,"208":-0.22320342063903809,"209":0.363027960062027,"210":0.8163945078849792,"211":-1.032582402229309,"212":-0.16557613015174866,"213":0.17946167290210724,"214":-0.09641881287097931,"215":-0.2725164592266083,"216":-0.7533261179924011,"217":-1.2009178400039673,"218":0.4246184229850769,"219":-1.7039376497268677,"220":-0.3262765407562256,"221":0.3363356292247772,"222":-0.6230658888816833,"223":-0.42225146293640137,"224":-0.08062692731618881,"225":0.1920306384563446,"226":2.1082143783569336,"227":0.019647225737571716,"228":0.7178001999855042,"229":1.068260669708252,"230":0.9582041501998901,"231":-0.7119779586791992,"232":0.09069520980119705,"233":0.27786338329315186,"234":-0.8937081694602966,"235":0.4792013168334961,"236":-0.5239135026931763,"237":0.0625312551856041,"238":0.24835333228111267,"239":-0.0039964294992387295,"240":0.6416661143302917,"241":0.25340333580970764,"242":-1.1977615356445312,"243":0.7876088619232178,"244":0.29266196489334106,"245":-0.030873378738760948,"246":1.149350643157959,"247":-0.2772153615951538,"248":0.18148966133594513,"249":1.2035714387893677,"250":0.305233895778656,"251":0.05204681307077408,"252":0.3668215572834015,"253":0.41973182559013367,"254":0.059097882360219955,"255":-0.5882145762443542,"256":0.1267409473657608,"257":-0.3929665982723236,"258":-0.43872278928756714,"259":-0.4511295557022095,"260":-0.5394610166549683,"261":0.4382564425468445,"262":0.14961662888526917,"263":0.2194964438676834,"264":0.4507896304130554,"265":0.2117653340101242,"266":0.27821335196495056,"267":-0.6050927639007568,"268":0.7625566124916077,"269":0.7527947425842285,"270":-0.8676334023475647,"271":1.7184736728668213,"272":0.2606765925884247,"273":0.6536999940872192,"274":1.0359673500061035,"275":0.4007355570793152,"276":-0.4066518247127533,"277":-0.49478012323379517,"278":-0.5942744016647339,"279":-0.3219386041164398,"280":0.8788087368011475,"281":-0.10835028439760208,"282":0.7905226945877075,"283":-0.5402840375900269,"284":-0.029615597799420357,"285":-0.21381649374961853,"286":0.7904137372970581,"287":0.13519039750099182,"288":-0.5860228538513184,"289":-0.32961466908454895,"290":-0.716157853603363,"291":-1.1898245811462402,"292":0.21505001187324524,"293":-0.0619734525680542,"294":-0.21878203749656677,"295":0.3419882655143738,"296":-1.5163954496383667,"297":-1.3001902103424072,"298":-0.6932470798492432,"299":0.08344670385122299,"300":0.4718845784664154,"301":0.10262072831392288,"302":-0.6522557139396667,"303":-0.9904037117958069,"304":-0.3116200566291809,"305":-0.1722816824913025,"306":0.3227352797985077,"307":-0.16639330983161926,"308":-1.0992414951324463,"309":0.33394432067871094,"310":-0.4630186855792999,"311":-0.9476363062858582,"312":0.022842301055788994,"313":0.0789790004491806,"314":-0.5579390525817871,"315":0.434821218252182,"316":-0.9893432855606079,"317":-1.5149685144424438,"318":0.22837615013122559,"319":-1.7701256275177002,"320":0.7367150783538818,"321":0.9856219291687012,"322":0.0624239481985569,"323":0.4185822606086731,"324":1.5266354084014893,"325":0.6098631024360657,"326":0.2459135800600052,"327":-0.8512511253356934,"328":-0.9736379981040955,"329":0.46878868341445923,"330":-1.597158432006836,"331":0.4044125974178314,"332":1.1171834468841553,"333":0.14577947556972504,"334":-0.7617202401161194,"335":1.0866389274597168,"336":-0.060813140124082565,"337":-0.36990585923194885,"338":-1.5560181140899658,"339":-0.8642897009849548,"340":0.5172474980354309,"341":0.16003009676933289,"342":-0.687457263469696,"343":-0.6364153623580933,"344":1.0397940874099731,"345":-0.18234017491340637,"346":-0.12269849330186844,"347":-0.19020728766918182,"348":-0.6120293736457825,"349":0.2138306349515915,"350":-0.5503697991371155,"351":0.4719030261039734,"352":0.05768219754099846,"353":1.065849781036377,"354":1.363412618637085,"355":0.6615168452262878,"356":1.4698143005371094,"357":0.5445247292518616,"358":-0.14294923841953278,"359":-0.38476502895355225,"360":-0.16785742342472076,"361":0.1702311933040619,"362":-1.1998350620269775,"363":-0.25854602456092834,"364":0.2530694007873535,"365":0.24192890524864197,"366":1.1499217748641968,"367":-0.3736576735973358,"368":0.45062199234962463,"369":1.2283000946044922,"370":-0.5126732587814331,"371":-0.4259229004383087,"372":0.3563196659088135,"373":0.4806126058101654,"374":0.525143563747406,"375":-0.37204694747924805,"376":-1.1135270595550537,"377":-1.1118236780166626,"378":-0.9465959072113037,"379":-1.5323660373687744,"380":0.7886796593666077,"381":-0.08231259882450104,"382":0.05916285887360573,"383":1.3521037101745605,"384":1.0932632684707642,"385":1.3335367441177368,"386":-0.0011812078300863504,"387":-0.5381640195846558,"388":-0.28085723519325256,"389":-0.22651512920856476,"390":-2.0744547843933105,"391":1.0871981382369995,"392":1.016370177268982,"393":0.5243282914161682,"394":0.49651631712913513,"395":0.8865655660629272,"396":-0.37181439995765686,"397":-0.3621879518032074,"398":-0.9979246258735657,"399":-1.0207629203796387}},"inputBias":{"rows":20,"columns":1,"weights":{"0":0.7880486249923706,"1":-0.11073355376720428,"2":-0.3700048327445984,"3":-0.36030468344688416,"4":-0.3164401948451996,"5":0.5220065116882324,"6":0.3959745168685913,"7":0.6710314154624939,"8":-0.697167694568634,"9":0.9688283801078796,"10":-0.4330718517303467,"11":0.06877051293849945,"12":-0.34977591037750244,"13":-1.5463212728500366,"14":0.3073526620864868,"15":-0.514754056930542,"16":-0.24036376178264618,"17":0.7324607968330383,"18":-0.7522894740104675,"19":1.0782302618026733}},"forgetMatrix":{"rows":20,"columns":34,"weights":{"0":-0.08157577365636826,"1":-0.14058376848697662,"2":-0.4890871047973633,"3":-0.25663724541664124,"4":0.7520753145217896,"5":0.46489083766937256,"6":-0.5895155072212219,"7":-0.44628065824508667,"8":1.08193838596344,"9":1.2709290981292725,"10":-0.6879829168319702,"11":0.24107526242733002,"12":0.0952157974243164,"13":0.4098886251449585,"14":0.3984951972961426,"15":-0.10844340920448303,"16":-0.023895930498838425,"17":0.6993314623832703,"18":-0.10956115275621414,"19":0.6886956095695496,"20":-0.07572446018457413,"21":-0.4412197768688202,"22":0.28778669238090515,"23":0.5390569567680359,"24":-0.3791697919368744,"25":0.025900747627019882,"26":-0.328421950340271,"27":-1.0276697874069214,"28":0.10726087540388107,"29":-0.6899866461753845,"30":-0.3547259271144867,"31":-0.03780205547809601,"32":0.11175346374511719,"33":-0.40074223279953003,"34":-0.1199662908911705,"35":0.7882731556892395,"36":-0.18802309036254883,"37":0.02381395734846592,"38":0.09894008189439774,"39":0.40559110045433044,"40":-0.13735496997833252,"41":-0.3843679428100586,"42":0.4374263882637024,"43":0.7103033065795898,"44":-0.00828566588461399,"45":0.19082359969615936,"46":-0.349578857421875,"47":0.18757694959640503,"48":0.7121613025665283,"49":-0.018594907596707344,"50":-0.558160662651062,"51":0.615767240524292,"52":0.08558633178472519,"53":0.6624652743339539,"54":0.3995682895183563,"55":0.11621000617742538,"56":-0.23041367530822754,"57":0.11769343912601471,"58":-0.2618127167224884,"59":0.3309001326560974,"60":0.14326955378055573,"61":0.2542041838169098,"62":0.020424626767635345,"63":-0.124738410115242,"64":0.34659242630004883,"65":0.3558465242385864,"66":-0.04800913855433464,"67":-0.07617697864770889,"68":0.31655147671699524,"69":-0.19206716120243073,"70":-0.3824796676635742,"71":0.40716683864593506,"72":0.07699497789144516,"73":0.6650023460388184,"74":-0.11871101707220078,"75":0.03428813815116882,"76":-1.1141380071640015,"77":0.07740664482116699,"78":-0.9608883261680603,"79":0.43299126625061035,"80":0.14386312663555145,"81":0.4605846107006073,"82":0.5718121528625488,"83":0.2962838113307953,"84":1.0354011058807373,"85":0.2200760841369629,"86":0.9690591096878052,"87":-0.8096120953559875,"88":0.030546309426426888,"89":0.1968879997730255,"90":-0.13691160082817078,"91":0.7747084498405457,"92":-0.7173671722412109,"93":-0.014901097863912582,"94":-0.15763472020626068,"95":-0.3795675039291382,"96":-0.026385420933365822,"97":-0.07828033715486526,"98":0.878368079662323,"99":0.30648013949394226,"100":-1.7682236433029175,"101":0.7417504191398621,"102":-0.4640459418296814,"103":-0.06324867159128189,"104":0.5365571975708008,"105":-1.3433771133422852,"106":0.23762060701847076,"107":0.09796369075775146,"108":0.4082893133163452,"109":0.04695722460746765,"110":0.45147237181663513,"111":0.4483675956726074,"112":-0.2717621922492981,"113":0.44826677441596985,"114":-1.2762057781219482,"115":0.136525496840477,"116":-0.6409544348716736,"117":0.3413797914981842,"118":-0.0364055261015892,"119":-0.49841174483299255,"120":0.9710642695426941,"121":0.7650932669639587,"122":0.4442042112350464,"123":-0.21531817317008972,"124":-0.7713340520858765,"125":0.40594127774238586,"126":-0.3276122808456421,"127":-0.5851198434829712,"128":1.0715930461883545,"129":0.12121164053678513,"130":-0.5463181734085083,"131":1.3288986682891846,"132":-0.46198830008506775,"133":0.9869058132171631,"134":-0.8482558727264404,"135":1.4787883758544922,"136":0.5793321132659912,"137":-0.317195326089859,"138":-0.001327610109001398,"139":-0.11666107177734375,"140":-0.17422066628932953,"141":0.38142234086990356,"142":-0.21459947526454926,"143":-0.15662571787834167,"144":-0.008599971421062946,"145":0.46371984481811523,"146":-0.6135084629058838,"147":-0.3684636950492859,"148":-0.29190385341644287,"149":0.2266809493303299,"150":0.4854990243911743,"151":0.052057862281799316,"152":-0.14586496353149414,"153":0.28705185651779175,"154":0.7039505243301392,"155":0.3760015368461609,"156":0.28045454621315,"157":-0.7183948159217834,"158":-0.11386103183031082,"159":0.01527787372469902,"160":-0.2559978663921356,"161":-0.5080952644348145,"162":-0.14744237065315247,"163":-0.10835759341716766,"164":0.19181187450885773,"165":-0.16177871823310852,"166":-0.01877758651971817,"167":0.6758279204368591,"168":0.032392505556344986,"169":-0.19398660957813263,"170":0.6216040849685669,"171":0.13916027545928955,"172":0.1504649668931961,"173":-0.45938873291015625,"174":-0.040968041867017746,"175":0.2164350301027298,"176":-0.0036753243766725063,"177":-0.9058451652526855,"178":-0.10791058838367462,"179":0.9273772239685059,"180":-0.20301443338394165,"181":0.1447133719921112,"182":-0.17752650380134583,"183":0.4784921109676361,"184":-0.05174785479903221,"185":-0.1647758185863495,"186":-0.9871735572814941,"187":0.23804138600826263,"188":0.21224918961524963,"189":0.5287736654281616,"190":0.048188187181949615,"191":-0.3560737371444702,"192":0.2592449486255646,"193":-0.17130957543849945,"194":-0.6969250440597534,"195":-0.3851831555366516,"196":-0.06161407008767128,"197":-0.8369819521903992,"198":0.6433772444725037,"199":-0.6013591885566711,"200":-0.6672627329826355,"201":0.9347643852233887,"202":0.027927514165639877,"203":0.05405987799167633,"204":0.08827126771211624,"205":0.3534112274646759,"206":-0.7092348337173462,"207":-0.543521523475647,"208":0.0034659840166568756,"209":-0.21990275382995605,"210":0.8866923451423645,"211":0.11425235122442245,"212":0.10702747851610184,"213":0.1590271294116974,"214":0.0644700825214386,"215":1.5151742696762085,"216":0.42023417353630066,"217":-0.40472540259361267,"218":-1.3958735466003418,"219":1.2250525951385498,"220":0.19090725481510162,"221":0.17542803287506104,"222":0.44698625802993774,"223":-0.5520872473716736,"224":0.16419044137001038,"225":-1.396057367324829,"226":-0.645862877368927,"227":1.0132472515106201,"228":0.1175723522901535,"229":-0.9922376275062561,"230":0.12808199226856232,"231":-0.41679707169532776,"232":0.3447413444519043,"233":-0.7117331027984619,"234":-0.7980371117591858,"235":-0.20424693822860718,"236":-0.5637638568878174,"237":0.16850465536117554,"238":-0.6145607233047485,"239":1.0624955892562866,"240":-0.06436390429735184,"241":-0.565902829170227,"242":-0.49414026737213135,"243":0.49132370948791504,"244":1.0234835147857666,"245":-1.1772687435150146,"246":0.11453056335449219,"247":0.1645745038986206,"248":0.170510932803154,"249":0.48488858342170715,"250":-0.6605079174041748,"251":-0.5045835971832275,"252":-0.47075769305229187,"253":0.5991551876068115,"254":0.10546926409006119,"255":0.4989664852619171,"256":0.5044369101524353,"257":0.05196741595864296,"258":0.8355740904808044,"259":-0.8245186805725098,"260":-0.5142424702644348,"261":0.23828797042369843,"262":-0.06110438331961632,"263":-0.8503820896148682,"264":0.7583671808242798,"265":0.410870224237442,"266":-0.3283466696739197,"267":-0.17823049426078796,"268":0.23555295169353485,"269":0.9956620335578918,"270":-1.3465684652328491,"271":1.1087144613265991,"272":0.30342209339141846,"273":-0.10448974370956421,"274":-0.11082764714956284,"275":-0.2748739719390869,"276":0.174997940659523,"277":1.571993350982666,"278":-0.40324172377586365,"279":0.07383862137794495,"280":0.2849014401435852,"281":1.0705256462097168,"282":-0.8943381905555725,"283":0.14045913517475128,"284":0.6637700796127319,"285":0.6964007019996643,"286":0.6345499753952026,"287":0.33933594822883606,"288":0.5168511867523193,"289":0.398161917924881,"290":-0.009102693758904934,"291":0.06689561158418655,"292":-0.048312555998563766,"293":-0.23193125426769257,"294":-0.1171465665102005,"295":-0.2836414575576782,"296":-1.0605387687683105,"297":0.11562605202198029,"298":-0.10432776063680649,"299":-0.3728693723678589,"300":0.5443997383117676,"301":0.09010887891054153,"302":0.4178180992603302,"303":0.714144766330719,"304":0.18915514647960663,"305":0.5883349776268005,"306":0.41493698954582214,"307":-0.9122498631477356,"308":1.151955008506775,"309":-0.5371786952018738,"310":-0.48472610116004944,"311":1.0805915594100952,"312":0.5035405158996582,"313":-0.2755576968193054,"314":-0.3882735073566437,"315":0.21297961473464966,"316":-0.8606144785881042,"317":0.4886673390865326,"318":-0.8080864548683167,"319":-0.30487456917762756,"320":0.4364958107471466,"321":0.2229318618774414,"322":0.3356391191482544,"323":0.2952025234699249,"324":0.8335009813308716,"325":-0.09628855437040329,"326":0.5539732575416565,"327":-0.5181627869606018,"328":-0.533358097076416,"329":0.15233784914016724,"330":-0.4353134036064148,"331":-0.5742926597595215,"332":0.34143486618995667,"333":0.0066172052174806595,"334":0.3825708329677582,"335":0.6291953921318054,"336":0.22518867254257202,"337":0.27359703183174133,"338":-1.3673728704452515,"339":0.7741057276725769,"340":-0.29960060119628906,"341":-0.11668840795755386,"342":0.17879116535186768,"343":0.039718516170978546,"344":-0.296412855386734,"345":0.12147852778434753,"346":0.8792858123779297,"347":-0.30791959166526794,"348":0.010735305026173592,"349":-0.06224223971366882,"350":0.36426305770874023,"351":0.3896135687828064,"352":-0.4073896110057831,"353":-0.558795154094696,"354":-0.7336744666099548,"355":0.29536402225494385,"356":0.006438306998461485,"357":0.0077377799898386,"358":-0.046583499759435654,"359":-0.28339236974716187,"360":0.5667954683303833,"361":-0.339441180229187,"362":-0.2772688567638397,"363":-0.20347164571285248,"364":0.327875018119812,"365":-0.547493577003479,"366":0.3278185725212097,"367":-0.12809854745864868,"368":0.15185043215751648,"369":0.19725842773914337,"370":-0.2281365692615509,"371":-0.20328254997730255,"372":-0.36573925614356995,"373":0.5013381242752075,"374":-0.4732311964035034,"375":-0.06825607270002365,"376":-0.5063464641571045,"377":-0.8822854161262512,"378":0.2432110458612442,"379":-0.7762277126312256,"380":0.4181687831878662,"381":-0.07524508237838745,"382":0.35208070278167725,"383":1.140665888786316,"384":0.23839902877807617,"385":1.0654476881027222,"386":-0.2819007635116577,"387":-0.4703076481819153,"388":-0.44153720140457153,"389":0.9639970064163208,"390":0.1400468647480011,"391":-0.2045658379793167,"392":0.3124914765357971,"393":0.12440428882837296,"394":0.017212599515914917,"395":0.3927624225616455,"396":-0.14049430191516876,"397":1.6929538249969482,"398":-0.302554726600647,"399":-0.7330896854400635,"400":0.24086664617061615,"401":-0.1794213205575943,"402":-1.3353271484375,"403":1.0156933069229126,"404":0.40249577164649963,"405":0.027299394831061363,"406":-0.6585904359817505,"407":0.5877191424369812,"408":0.5883376598358154,"409":0.12122639268636703,"410":0.14821304380893707,"411":-0.16504015028476715,"412":-0.3624374568462372,"413":0.12034840136766434,"414":0.4563084840774536,"415":-0.08655854314565659,"416":0.7029654383659363,"417":0.4938311278820038,"418":-0.64096599817276,"419":0.9434601068496704,"420":-0.1954181045293808,"421":-0.011766284704208374,"422":-0.24067340791225433,"423":0.2845056653022766,"424":-0.5844470858573914,"425":0.21661578118801117,"426":0.42195507884025574,"427":0.7791880965232849,"428":0.5574864149093628,"429":-1.1332132816314697,"430":-0.16474561393260956,"431":-0.0028732307255268097,"432":0.2745552361011505,"433":-0.40865281224250793,"434":0.2531070411205292,"435":-0.021930309012532234,"436":0.29278364777565,"437":-0.07312867790460587,"438":0.04870906099677086,"439":0.6126824617385864,"440":-0.25012072920799255,"441":0.34158793091773987,"442":0.9135203957557678,"443":-0.11823157966136932,"444":0.18961761891841888,"445":0.4743066430091858,"446":-0.04694507271051407,"447":0.451735258102417,"448":0.30967220664024353,"449":0.09626835584640503,"450":0.29212066531181335,"451":0.7463454604148865,"452":-0.7751585245132446,"453":-0.15451855957508087,"454":-0.2813856303691864,"455":0.009147689677774906,"456":0.22813647985458374,"457":-0.18764996528625488,"458":-0.41452446579933167,"459":-0.1924401968717575,"460":0.2751222252845764,"461":0.8033245205879211,"462":0.09253505617380142,"463":-0.8763917088508606,"464":-0.19103243947029114,"465":-0.10596209764480591,"466":-0.5249041318893433,"467":-0.037356629967689514,"468":0.07069022953510284,"469":0.029110392555594444,"470":-0.08699086308479309,"471":-0.05409906804561615,"472":0.23258621990680695,"473":-0.05631813779473305,"474":0.25071853399276733,"475":-0.08459928631782532,"476":0.2759244740009308,"477":0.49671661853790283,"478":-0.11842090636491776,"479":0.01667126826941967,"480":-0.45531943440437317,"481":0.4978379011154175,"482":0.18169525265693665,"483":-0.48202285170555115,"484":0.3545818626880646,"485":0.524007260799408,"486":-0.049696072936058044,"487":0.5304613709449768,"488":-0.7686522006988525,"489":0.015984034165740013,"490":-0.0861511081457138,"491":0.9897580146789551,"492":-0.4926983118057251,"493":-0.12485437840223312,"494":0.3360787630081177,"495":0.1751367449760437,"496":0.4865301847457886,"497":-0.757110059261322,"498":-0.23800234496593475,"499":0.13158655166625977,"500":0.17047682404518127,"501":-0.25375139713287354,"502":0.36680489778518677,"503":0.16182637214660645,"504":0.2514801025390625,"505":-0.1688898652791977,"506":0.5675038695335388,"507":0.54732346534729,"508":0.26162222027778625,"509":0.30853283405303955,"510":0.4916020929813385,"511":-0.2438126504421234,"512":-0.15689440071582794,"513":0.10720711946487427,"514":0.2646191120147705,"515":0.2455158829689026,"516":-0.18330956995487213,"517":-0.2725050747394562,"518":0.38968995213508606,"519":0.3353005051612854,"520":-0.15854234993457794,"521":-0.5452960729598999,"522":0.18589699268341064,"523":-0.08235769718885422,"524":0.5343066453933716,"525":-0.10049037635326385,"526":0.03764796257019043,"527":0.37171968817710876,"528":-0.024288360029459,"529":-0.22690442204475403,"530":0.0226809773594141,"531":-0.400545209646225,"532":0.2035466730594635,"533":0.24973048269748688,"534":0.28190064430236816,"535":-0.1591411530971527,"536":-0.6913549304008484,"537":-0.5273107290267944,"538":-0.07510765641927719,"539":-0.7132335901260376,"540":-0.3402852714061737,"541":0.24001847207546234,"542":0.15504318475723267,"543":-0.9404404759407043,"544":-0.49987101554870605,"545":-0.02148524858057499,"546":-0.1319599449634552,"547":-0.3467864692211151,"548":-0.2303324192762375,"549":1.1289523839950562,"550":-0.09726324677467346,"551":-0.6007917523384094,"552":0.17933428287506104,"553":0.8662465214729309,"554":-1.046431303024292,"555":0.5603742599487305,"556":-0.7987682223320007,"557":-0.1667722910642624,"558":0.12574869394302368,"559":-0.6667569875717163,"560":0.5825290679931641,"561":0.3902851939201355,"562":0.6706551313400269,"563":0.1130753681063652,"564":1.0735405683517456,"565":-0.798315703868866,"566":-0.05702544376254082,"567":0.07825937122106552,"568":-0.40565919876098633,"569":-0.02816805988550186,"570":0.7071921825408936,"571":-0.24475620687007904,"572":0.08739183843135834,"573":-0.05179280787706375,"574":0.22159571945667267,"575":0.7566714286804199,"576":-0.9114158749580383,"577":0.5124855041503906,"578":0.8596136569976807,"579":-0.9775975346565247,"580":0.4872759282588959,"581":0.48542189598083496,"582":0.638633131980896,"583":-0.21088755130767822,"584":0.572487473487854,"585":0.14335203170776367,"586":-0.16532954573631287,"587":0.16139665246009827,"588":-2.1859867572784424,"589":1.307485818862915,"590":-0.03775431960821152,"591":0.7875773906707764,"592":-0.17033614218235016,"593":-0.09349539875984192,"594":-0.018550042062997818,"595":0.12332196533679962,"596":0.46307963132858276,"597":0.40934786200523376,"598":-0.33327314257621765,"599":-0.7027366161346436,"600":-0.29847386479377747,"601":-0.41555431485176086,"602":-1.4506208896636963,"603":0.3258494734764099,"604":-0.3603214621543884,"605":-0.7123772501945496,"606":-0.008496499620378017,"607":-0.09766075760126114,"608":-0.546575665473938,"609":-0.3399950861930847,"610":-0.5380508303642273,"611":0.049095723778009415,"612":-0.7551203370094299,"613":-0.09761399775743484,"614":0.2670215368270874,"615":-0.1662377566099167,"616":-0.015658792108297348,"617":0.6369337439537048,"618":0.0675077736377716,"619":0.033038776367902756,"620":0.2095649093389511,"621":0.16451987624168396,"622":0.18466895818710327,"623":0.2765533924102783,"624":-0.20446917414665222,"625":-0.18967415392398834,"626":0.3133663833141327,"627":-0.2507224977016449,"628":-0.021622488275170326,"629":0.4065748155117035,"630":-0.14204606413841248,"631":0.16885477304458618,"632":0.0011489189928397536,"633":0.0034404706675559282,"634":0.05389181897044182,"635":-0.38204628229141235,"636":0.03741765394806862,"637":0.34690436720848083,"638":0.12415469437837601,"639":0.23997275531291962,"640":-0.12467057257890701,"641":-0.3588140606880188,"642":0.2182369828224182,"643":-0.11510884761810303,"644":0.3324645757675171,"645":-0.12932085990905762,"646":-0.9936686158180237,"647":0.249606192111969,"648":-0.4493740499019623,"649":-0.42152586579322815,"650":0.16468295454978943,"651":0.5212574005126953,"652":0.7026450634002686,"653":-0.34452396631240845,"654":-0.2594738304615021,"655":0.2680825889110565,"656":-0.415232390165329,"657":0.7767612934112549,"658":0.193777397274971,"659":-0.15945114195346832,"660":-0.17480745911598206,"661":0.372672975063324,"662":0.06994413584470749,"663":0.25188493728637695,"664":0.5558727979660034,"665":0.4333755373954773,"666":0.11740289628505707,"667":-0.013011210598051548,"668":-0.5414738655090332,"669":0.49382880330085754,"670":-0.23828645050525665,"671":-0.11123476177453995,"672":0.1839611977338791,"673":-0.2088073343038559,"674":-0.5162361264228821,"675":0.6976897716522217,"676":0.36793312430381775,"677":-0.18065065145492554,"678":-1.3175090551376343,"679":0.6868111491203308}},"forgetHidden":{"rows":20,"columns":20,"weights":{"0":0.054001450538635254,"1":0.2768654227256775,"2":-1.7163567543029785,"3":-0.6268507242202759,"4":0.5208886861801147,"5":0.0476226769387722,"6":0.5793356895446777,"7":0.13871052861213684,"8":-0.4257700443267822,"9":0.1885947734117508,"10":0.4082256257534027,"11":-0.5736207962036133,"12":0.5028132200241089,"13":-0.05342944711446762,"14":0.28339993953704834,"15":0.23501057922840118,"16":-0.6264334321022034,"17":-0.113483726978302,"18":0.3363625705242157,"19":-0.7029246091842651,"20":0.1202014684677124,"21":0.3992427885532379,"22":1.2277250289916992,"23":-0.8691751956939697,"24":-0.23371437191963196,"25":0.0619623064994812,"26":0.5827518105506897,"27":-0.06949840486049652,"28":-1.5337975025177002,"29":0.6189529895782471,"30":0.45493578910827637,"31":0.5539826154708862,"32":0.26317211985588074,"33":0.2991209328174591,"34":0.10041658580303192,"35":-0.4395710229873657,"36":-1.179953694343567,"37":-1.0353533029556274,"38":0.484668493270874,"39":-1.513393521308899,"40":-0.20016910135746002,"41":0.4849403500556946,"42":-0.8961765766143799,"43":-0.4894266724586487,"44":-0.13811630010604858,"45":0.5607953071594238,"46":1.0173416137695312,"47":-0.4760677218437195,"48":0.303212434053421,"49":0.8771793246269226,"50":0.9251536130905151,"51":-1.496834635734558,"52":-0.04023003205657005,"53":0.37214893102645874,"54":0.2649655342102051,"55":-1.0267654657363892,"56":-0.13626962900161743,"57":-0.8896356225013733,"58":0.5413128733634949,"59":-0.2447008192539215,"60":-0.3850771486759186,"61":0.46869146823883057,"62":-0.05352197587490082,"63":-0.5606133937835693,"64":0.37348559498786926,"65":0.1583147943019867,"66":1.2539974451065063,"67":-1.0383517742156982,"68":0.1056826189160347,"69":0.22832021117210388,"70":-1.8073753118515015,"71":1.6043355464935303,"72":0.2603600323200226,"73":1.395041584968567,"74":1.300247073173523,"75":0.8298625349998474,"76":0.05590229108929634,"77":-0.5955811738967896,"78":-0.8437628746032715,"79":-0.0168429184705019,"80":0.8684292435646057,"81":0.4852822422981262,"82":-0.7568190097808838,"83":0.380722314119339,"84":0.6856635212898254,"85":0.7089006900787354,"86":-0.19983209669589996,"87":-0.33057111501693726,"88":-1.2971735000610352,"89":0.5971527099609375,"90":-0.5652695894241333,"91":0.7089717388153076,"92":0.134794682264328,"93":0.3234892785549164,"94":0.4696847200393677,"95":0.4694615602493286,"96":0.35207682847976685,"97":0.035348646342754364,"98":-0.004018180072307587,"99":-0.23792585730552673,"100":0.8229374289512634,"101":0.40702885389328003,"102":0.6622509956359863,"103":0.023559411987662315,"104":0.6166902184486389,"105":1.3068010807037354,"106":-0.29682523012161255,"107":-0.20190882682800293,"108":-0.31520742177963257,"109":-0.3977920413017273,"110":-0.4835793375968933,"111":-0.08245045691728592,"112":-0.11909802258014679,"113":-0.2535199224948883,"114":-0.20148605108261108,"115":0.6207607388496399,"116":0.3353969156742096,"117":-0.0036269056145101786,"118":-0.4138476252555847,"119":-0.017910003662109375,"120":1.2291361093521118,"121":-0.5174482464790344,"122":0.4288773238658905,"123":-0.9330235719680786,"124":-0.6815090775489807,"125":-0.3849221169948578,"126":0.6933015584945679,"127":0.5767046809196472,"128":-0.17153726518154144,"129":0.870094895362854,"130":0.9708985090255737,"131":-1.5692306756973267,"132":-0.6037735939025879,"133":0.6306527853012085,"134":-0.5308924317359924,"135":-1.5342687368392944,"136":-0.4877309799194336,"137":0.36258402466773987,"138":0.36240360140800476,"139":0.2365362048149109,"140":0.7446279525756836,"141":-0.28425145149230957,"142":0.7068231701850891,"143":-0.9835514426231384,"144":0.5173617005348206,"145":-0.6463226675987244,"146":-0.011676558293402195,"147":-0.003991341218352318,"148":-1.1165508031845093,"149":-0.5627593398094177,"150":-0.6210992932319641,"151":0.22089935839176178,"152":0.11591242253780365,"153":0.010291432961821556,"154":0.2647235691547394,"155":-0.024318812415003777,"156":-1.0013728141784668,"157":-1.1598219871520996,"158":-0.08016441762447357,"159":0.4360366463661194,"160":-0.33443960547447205,"161":0.26149049401283264,"162":0.5432763695716858,"163":-0.6990197896957397,"164":0.07404742389917374,"165":0.9089933633804321,"166":0.1896783709526062,"167":-0.08183111995458603,"168":0.5292983055114746,"169":-0.27462273836135864,"170":1.0205750465393066,"171":-0.5006259679794312,"172":-0.29821598529815674,"173":-0.1807846873998642,"174":0.3751688301563263,"175":0.17450594902038574,"176":0.8907027840614319,"177":0.42507144808769226,"178":-0.9329788088798523,"179":-0.35650309920310974,"180":-0.03479982540011406,"181":0.12396299839019775,"182":-0.6653560996055603,"183":-1.0335211753845215,"184":-0.7557307481765747,"185":0.6214584112167358,"186":1.002913236618042,"187":-0.4252777397632599,"188":-0.36384886503219604,"189":1.1200556755065918,"190":0.5416775345802307,"191":-2.143631935119629,"192":0.11932701617479324,"193":-0.26135411858558655,"194":-0.13019677996635437,"195":0.15306946635246277,"196":-0.05537208169698715,"197":-1.0247403383255005,"198":0.14043810963630676,"199":-0.2725898325443268,"200":0.7850784063339233,"201":0.21255937218666077,"202":0.07408612221479416,"203":0.47749343514442444,"204":0.9535942077636719,"205":0.26209020614624023,"206":1.5870897769927979,"207":-0.6639085412025452,"208":-0.6622178554534912,"209":0.23772653937339783,"210":-0.8378297686576843,"211":0.34774547815322876,"212":0.43559762835502625,"213":0.279697448015213,"214":0.7183853387832642,"215":0.2842145264148712,"216":-0.3972117006778717,"217":-0.7871400713920593,"218":-0.5077187418937683,"219":0.09910302609205246,"220":1.5475221872329712,"221":-0.2014724463224411,"222":-0.7499918937683105,"223":1.498976230621338,"224":0.16933800280094147,"225":0.4774875342845917,"226":-0.03997049480676651,"227":-0.2615797519683838,"228":-0.1268361359834671,"229":-0.33206596970558167,"230":-0.5581329464912415,"231":0.2996111810207367,"232":0.25687721371650696,"233":0.08757930248975754,"234":0.5995974540710449,"235":-0.18719454109668732,"236":1.0147819519042969,"237":-0.013335919938981533,"238":-0.03188934549689293,"239":-0.3061332404613495,"240":0.34075093269348145,"241":0.5307559967041016,"242":-0.320497989654541,"243":0.781656801700592,"244":0.18774183094501495,"245":-0.21303285658359528,"246":-0.2490783929824829,"247":-0.4062400162220001,"248":0.1648804247379303,"249":-0.14204692840576172,"250":0.3147517144680023,"251":0.7366923093795776,"252":0.3339531719684601,"253":-0.262082040309906,"254":-0.028567157685756683,"255":0.5856456756591797,"256":0.14302875101566315,"257":-0.2673560380935669,"258":-0.19139966368675232,"259":-0.6046192646026611,"260":-0.9449052810668945,"261":0.22877809405326843,"262":0.37647387385368347,"263":-0.15659576654434204,"264":-0.31123754382133484,"265":-0.2748726010322571,"266":0.031601037830114365,"267":-0.27280110120773315,"268":0.25410863757133484,"269":-0.6764920949935913,"270":-1.4277633428573608,"271":2.514125108718872,"272":0.036221954971551895,"273":0.619870662689209,"274":0.7721409201622009,"275":0.6654430031776428,"276":-0.06329014152288437,"277":-0.681073784828186,"278":0.21825236082077026,"279":0.53591388463974,"280":1.031099557876587,"281":0.2781679332256317,"282":0.7503594160079956,"283":-0.44305503368377686,"284":-0.12391205877065659,"285":0.35367652773857117,"286":0.4673398435115814,"287":-0.13391298055648804,"288":0.05024315416812897,"289":-1.0544685125350952,"290":-0.7624515891075134,"291":0.1873931586742401,"292":0.4033467173576355,"293":0.05690640211105347,"294":0.6030701994895935,"295":0.4302211403846741,"296":-0.7932853698730469,"297":-0.5184634923934937,"298":-0.8604051470756531,"299":0.32248759269714355,"300":0.12084656208753586,"301":0.20084628462791443,"302":-0.09303703159093857,"303":1.3301957845687866,"304":0.552728533744812,"305":0.45419812202453613,"306":-0.13860175013542175,"307":-0.3069877028465271,"308":-0.19028989970684052,"309":-0.44230180978775024,"310":-0.5082336664199829,"311":0.3928505480289459,"312":0.5400024056434631,"313":0.5114271640777588,"314":1.5589045286178589,"315":0.3663458824157715,"316":-0.7630079984664917,"317":0.5032980442047119,"318":-1.0297530889511108,"319":0.5324774384498596,"320":-1.3089269399642944,"321":-0.5676619410514832,"322":-1.0993826389312744,"323":-0.7318387031555176,"324":-0.2725803554058075,"325":-0.9195771217346191,"326":-0.5563992857933044,"327":0.4292415976524353,"328":0.7003127932548523,"329":-0.42247888445854187,"330":1.7237228155136108,"331":0.5605155825614929,"332":-1.2426570653915405,"333":0.03009076416492462,"334":-1.1384071111679077,"335":-1.1326178312301636,"336":-1.297855019569397,"337":0.1232699379324913,"338":1.8464610576629639,"339":-0.22944170236587524,"340":1.1194829940795898,"341":0.5086753964424133,"342":-0.8073228597640991,"343":-0.1098392903804779,"344":1.211141586303711,"345":0.729350745677948,"346":0.20744022727012634,"347":-0.29129263758659363,"348":-0.45265939831733704,"349":0.7833484411239624,"350":0.0352715402841568,"351":0.3161941170692444,"352":0.27367454767227173,"353":0.2567450702190399,"354":0.17448410391807556,"355":-0.3502139747142792,"356":0.7132115960121155,"357":-0.518615186214447,"358":-0.14583100378513336,"359":-0.3575229048728943,"360":0.6571119427680969,"361":0.03749735653400421,"362":-0.3166777789592743,"363":-0.5842797160148621,"364":-0.46052584052085876,"365":-0.07663358747959137,"366":1.5079864263534546,"367":0.004096059128642082,"368":0.16047699749469757,"369":0.9907936453819275,"370":0.19749917089939117,"371":-0.025077052414417267,"372":0.23629306256771088,"373":-0.42703157663345337,"374":0.11518775671720505,"375":-0.19435560703277588,"376":-0.629845380783081,"377":-1.2400997877120972,"378":-0.42558297514915466,"379":-0.7034109830856323,"380":0.4512389898300171,"381":-0.19417323172092438,"382":0.15602128207683563,"383":-0.05297882854938507,"384":0.3197494447231293,"385":-0.03734281659126282,"386":-1.5415514707565308,"387":0.6393595337867737,"388":0.888556957244873,"389":-0.5613152384757996,"390":-0.38837963342666626,"391":0.7848871350288391,"392":-0.2123832106590271,"393":0.04915275424718857,"394":0.004628639202564955,"395":0.7299724817276001,"396":0.8755262494087219,"397":0.6105253100395203,"398":1.364424705505371,"399":0.24204593896865845}},"forgetBias":{"rows":20,"columns":1,"weights":{"0":0,"1":0,"2":0,"3":0,"4":0,"5":0,"6":0,"7":0,"8":0,"9":0,"10":0,"11":0,"12":0,"13":0,"14":0,"15":0,"16":0,"17":0,"18":0,"19":0}},"outputMatrix":{"rows":20,"columns":34,"weights":{"0":0.37458375096321106,"1":0.29793307185173035,"2":0.5304773449897766,"3":0.16089996695518494,"4":0.25115305185317993,"5":0.50997394323349,"6":-0.3860306739807129,"7":-0.4037274420261383,"8":0.38359010219573975,"9":-0.0751621350646019,"10":-0.4588186740875244,"11":0.30626317858695984,"12":0.2965220808982849,"13":0.5464757084846497,"14":0.6805483102798462,"15":-1.298459768295288,"16":0.014659670181572437,"17":0.5765635371208191,"18":-0.24877583980560303,"19":0.45529621839523315,"20":0.10460210591554642,"21":0.22799931466579437,"22":0.8118419051170349,"23":-0.5774651169776917,"24":-0.744043231010437,"25":0.49643421173095703,"26":0.1316191554069519,"27":0.5584471821784973,"28":0.6763802766799927,"29":-0.3123058080673218,"30":0.215192049741745,"31":0.8408395648002625,"32":0.04905116930603981,"33":-0.10356726497411728,"34":0.18090765178203583,"35":0.41323211789131165,"36":-0.4254514276981354,"37":0.008839365094900131,"38":-0.8576878905296326,"39":-0.2667287588119507,"40":-0.08058126270771027,"41":-0.30963125824928284,"42":0.6549964547157288,"43":1.033169150352478,"44":-0.17919985949993134,"45":0.6331018805503845,"46":-0.7216941118240356,"47":-0.19458483159542084,"48":0.19242113828659058,"49":-0.20773981511592865,"50":-1.0078763961791992,"51":0.685410737991333,"52":0.09471520781517029,"53":0.8125064373016357,"54":0.20047824084758759,"55":-0.7378469705581665,"56":0.2857523560523987,"57":0.5377750992774963,"58":0.2560792863368988,"59":0.1613965928554535,"60":0.08288976550102234,"61":0.5929281711578369,"62":0.0034463079646229744,"63":-0.2462487667798996,"64":0.6201676726341248,"65":0.721004843711853,"66":0.3025156855583191,"67":0.36418527364730835,"68":-0.791555643081665,"69":0.5079895853996277,"70":-1.7268469333648682,"71":-0.4244910776615143,"72":-0.3624936044216156,"73":0.9587922692298889,"74":1.0460408926010132,"75":0.36202821135520935,"76":0.6906276345252991,"77":0.41314896941185,"78":0.28685232996940613,"79":-0.002000297885388136,"80":-0.011169064790010452,"81":-0.8917517066001892,"82":-0.9868131279945374,"83":1.2710316181182861,"84":0.4835127890110016,"85":-0.0639171153306961,"86":-0.2951417565345764,"87":-0.024021342396736145,"88":1.2300679683685303,"89":-0.9510216116905212,"90":-0.30181893706321716,"91":0.027113115414977074,"92":0.9058858156204224,"93":-0.39946448802948,"94":1.1563847064971924,"95":0.3202004134654999,"96":-0.22921840846538544,"97":-0.2752802073955536,"98":0.26347389817237854,"99":0.02452182210981846,"100":-0.09266836941242218,"101":-0.39674168825149536,"102":0.08042160421609879,"103":1.1000858545303345,"104":-0.08072721213102341,"105":0.6999672055244446,"106":-1.1493115425109863,"107":-0.0742216557264328,"108":0.4826658368110657,"109":1.3757305145263672,"110":0.17519636452198029,"111":0.24664819240570068,"112":0.5760158896446228,"113":-0.6692895889282227,"114":0.1775716245174408,"115":0.6493849158287048,"116":0.367069274187088,"117":0.005821605212986469,"118":0.3258102834224701,"119":0.9433940052986145,"120":-0.09219823777675629,"121":-0.4108651876449585,"122":0.4984232187271118,"123":-0.8384938836097717,"124":0.6261204481124878,"125":0.061076074838638306,"126":0.4047018587589264,"127":0.6693167686462402,"128":-0.477365642786026,"129":-0.04511827230453491,"130":0.7449543476104736,"131":-0.9771046042442322,"132":0.010967869311571121,"133":-1.0215034484863281,"134":0.8340819478034973,"135":-0.3449256420135498,"136":-0.03790097311139107,"137":0.11015152931213379,"138":-0.25552868843078613,"139":-0.4241025149822235,"140":0.02758275717496872,"141":0.6759393215179443,"142":0.43502265214920044,"143":-0.16404220461845398,"144":-0.12081973999738693,"145":0.11204788088798523,"146":-0.3339049816131592,"147":0.15071789920330048,"148":0.21164055168628693,"149":-0.012938065454363823,"150":-0.438493549823761,"151":-0.1344417929649353,"152":0.49197494983673096,"153":-0.13827869296073914,"154":-0.2177276462316513,"155":0.008474607020616531,"156":0.28945043683052063,"157":-0.5808662176132202,"158":0.28265443444252014,"159":0.04764394089579582,"160":0.09496361017227173,"161":-0.30524754524230957,"162":0.0589468777179718,"163":-0.19417209923267365,"164":-0.19703184068202972,"165":-0.7341008186340332,"166":-0.1463666558265686,"167":0.012822938151657581,"168":0.2991645932197571,"169":-0.2653161883354187,"170":0.5330604910850525,"171":0.6527420282363892,"172":0.13942039012908936,"173":-0.1512143313884735,"174":-0.021438151597976685,"175":0.31345364451408386,"176":-0.3629649877548218,"177":-0.06247873231768608,"178":0.29310160875320435,"179":-0.06881900131702423,"180":-0.4816203713417053,"181":0.11979474872350693,"182":-0.5969473719596863,"183":0.533317506313324,"184":-0.6230758428573608,"185":-0.9449991583824158,"186":-0.11730513721704483,"187":-0.0440128892660141,"188":-0.07592751085758209,"189":0.7436739802360535,"190":0.6965646147727966,"191":-0.5656448006629944,"192":-0.024594642221927643,"193":-0.8518027663230896,"194":-0.5378057360649109,"195":0.20922225713729858,"196":0.3285025358200073,"197":-0.09758828580379486,"198":0.7592301964759827,"199":-0.441562294960022,"200":0.04600769281387329,"201":0.5052608251571655,"202":0.22009414434432983,"203":0.5279420018196106,"204":-0.44382885098457336,"205":0.15535244345664978,"206":0.06588778644800186,"207":-0.47292444109916687,"208":0.21542391180992126,"209":0.7419978380203247,"210":0.34048590064048767,"211":-0.24029545485973358,"212":0.5745713710784912,"213":-0.1580369770526886,"214":-0.40642842650413513,"215":0.21879316866397858,"216":0.151788130402565,"217":-0.05561482533812523,"218":-0.16658996045589447,"219":-0.12663401663303375,"220":-0.15593446791172028,"221":0.08131805807352066,"222":0.5601107478141785,"223":0.2273721545934677,"224":0.9943506121635437,"225":-0.9335289001464844,"226":-0.23806846141815186,"227":-0.06080656871199608,"228":0.14279082417488098,"229":-0.5981738567352295,"230":0.14866545796394348,"231":0.525068998336792,"232":-0.11231457442045212,"233":0.6523250341415405,"234":-0.19010251760482788,"235":0.21270275115966797,"236":-0.1800263673067093,"237":0.5456365346908569,"238":-0.06845348328351974,"239":0.6194444298744202,"240":-0.02493251860141754,"241":-0.20092682540416718,"242":-0.8990948796272278,"243":-0.05641551315784454,"244":-0.019865291193127632,"245":-0.5046848654747009,"246":0.44946545362472534,"247":0.7275159955024719,"248":0.0745459720492363,"249":0.3120633363723755,"250":-0.3020614683628082,"251":-0.37554019689559937,"252":0.1373489946126938,"253":-0.07776718586683273,"254":-0.5328719019889832,"255":0.49303188920021057,"256":0.37486860156059265,"257":0.9841209650039673,"258":0.5376825332641602,"259":-0.4251358211040497,"260":0.04912366345524788,"261":0.26444122195243835,"262":0.46127814054489136,"263":-0.11705387383699417,"264":0.18852491676807404,"265":0.3821866810321808,"266":0.08512171357870102,"267":-0.4750286638736725,"268":0.47615188360214233,"269":0.3981393873691559,"270":-0.19198548793792725,"271":-0.010080323554575443,"272":-0.28604498505592346,"273":0.7200227975845337,"274":-0.4408244788646698,"275":-0.1535489857196808,"276":0.3187527060508728,"277":0.8338342308998108,"278":-0.18295161426067352,"279":-0.5071149468421936,"280":0.6652690768241882,"281":0.7225157618522644,"282":-0.20443829894065857,"283":-0.06251983344554901,"284":-0.20556402206420898,"285":0.44957998394966125,"286":-0.6330891847610474,"287":0.027875719591975212,"288":-0.13716325163841248,"289":0.9412479400634766,"290":0.09639846533536911,"291":0.7612729668617249,"292":0.3452402949333191,"293":-0.31379830837249756,"294":0.3951272964477539,"295":0.6471240520477295,"296":-0.37054380774497986,"297":0.09981284290552139,"298":0.40345221757888794,"299":-0.0747232735157013,"300":0.21199683845043182,"301":0.015472040511667728,"302":0.03429543226957321,"303":0.6860297322273254,"304":-0.423115998506546,"305":0.1205715760588646,"306":-0.45518603920936584,"307":0.557959794998169,"308":-0.9672983884811401,"309":-0.8242910504341125,"310":-1.1429709196090698,"311":0.13545064628124237,"312":0.6114760637283325,"313":0.03031015396118164,"314":1.2033461332321167,"315":0.3410903513431549,"316":0.18243373930454254,"317":0.5294353365898132,"318":-0.6555113792419434,"319":-0.9059444069862366,"320":0.1733335554599762,"321":0.32538238167762756,"322":0.13608412444591522,"323":0.9638124704360962,"324":-0.35016927123069763,"325":0.742241621017456,"326":0.4140789210796356,"327":0.03816087543964386,"328":-0.07592277228832245,"329":-0.04806612432003021,"330":1.1518138647079468,"331":0.10031018406152725,"332":0.23980258405208588,"333":0.4645400047302246,"334":0.13145476579666138,"335":-0.32005056738853455,"336":-0.09007908403873444,"337":-0.13846991956233978,"338":0.21018309891223907,"339":-0.14697566628456116,"340":-0.16706374287605286,"341":0.33655110001564026,"342":-0.24137447774410248,"343":0.06310766935348511,"344":-0.5946804881095886,"345":0.03158657252788544,"346":0.5027186274528503,"347":0.6006790995597839,"348":-0.09844660758972168,"349":-0.437739759683609,"350":0.45908939838409424,"351":-0.07330285012722015,"352":0.5355871915817261,"353":0.05422031879425049,"354":0.40489375591278076,"355":0.41649699211120605,"356":0.10586726665496826,"357":0.6170335412025452,"358":-0.19281238317489624,"359":-0.44383442401885986,"360":0.007079685106873512,"361":-0.2662394046783447,"362":0.4823983609676361,"363":-0.07203343510627747,"364":-0.3673346936702728,"365":0.3554510772228241,"366":-0.31229615211486816,"367":0.8632844090461731,"368":1.9989116191864014,"369":-1.1315815448760986,"370":0.07480110973119736,"371":-0.2945602834224701,"372":0.24805709719657898,"373":-0.0769960880279541,"374":-0.5319787263870239,"375":0.699450671672821,"376":-0.44801536202430725,"377":-0.26666560769081116,"378":-1.4016633033752441,"379":-0.7625621557235718,"380":-0.2401498258113861,"381":0.020964831113815308,"382":0.9773310422897339,"383":-0.11812437325716019,"384":0.43289077281951904,"385":-0.030866628512740135,"386":-0.11198947578668594,"387":-0.013167387805879116,"388":0.13594022393226624,"389":-0.36822763085365295,"390":0.22898462414741516,"391":0.25816822052001953,"392":-0.3314959406852722,"393":-0.023166006430983543,"394":-0.2528627812862396,"395":0.5756257176399231,"396":0.7233836650848389,"397":0.15245318412780762,"398":0.472835898399353,"399":-0.06570636481046677,"400":-0.03192151337862015,"401":0.17378553748130798,"402":-0.13444919884204865,"403":0.052316173911094666,"404":-0.16877032816410065,"405":0.5779125094413757,"406":0.07319623976945877,"407":-0.3393722176551819,"408":-0.021065842360258102,"409":0.026879115030169487,"410":0.08956485241651535,"411":0.03535826876759529,"412":-0.297909677028656,"413":0.24500395357608795,"414":0.6312198042869568,"415":0.1648813635110855,"416":0.13214832544326782,"417":0.2198430597782135,"418":0.0853339433670044,"419":0.1328388899564743,"420":-0.44522625207901,"421":-0.003215938340872526,"422":-0.29721155762672424,"423":-0.2010970413684845,"424":-0.14177855849266052,"425":0.08817819505929947,"426":-0.10690763592720032,"427":0.26926448941230774,"428":-0.023999234661459923,